svm_type c_svc
kernel_type rbf
gamma 0.08333333333333333
nr_class 4
total_sv 5248
rho -1.3468369149953645 -0.96170132673435 -0.9976903200149536 3.2318164706230164 -0.8957785665988922 -0.9999557435512543
label 1 2 4 5
probA -611.0077704961366 -525.1557492632265 -176.34722815800066 -3.141868629847857 -49.36299554030489 -874.6177450387723
probB 607.8714503335672 523.5489670755064 171.96345760047038 2.039504203784887 45.456866106980705 871.3364105378361
nr_sv 2353 2061 831 3
SV
0.0 1.0 0.0 1:0.0 2:0.0 3:0.0 4:0.0 5:0.0 6:0.0 7:0.0 8:0.0 9:0.0 10:0.0072 11:0.9927 12:0.0 
0.0 1.0 0.0 1:0.0 2:0.0 3:0.0 4:0.0 5:0.0 6:0.0 7:0.0 8:0.0 9:0.0 10:0.0062 11:0.9938 12:0.0 
0.0 1.0 0.0 1:0.0 2:0.0 3:0.0 4:0.0 5:0.0 6:0.0 7:0.0 8:0.0 9:0.0 10:0.0068 11:0.9932 12:0.0 
0.0 1.0 0.0 1:0.0 2:0.0 3:0.0 4:0.0 5:0.0 6:0.0 7:0.0 8:0.0 9:0.0 10:0.006 11:0.9939 12:0.0 
0.0 1.0 0.0 1:0.0 2:0.0 3:0.0 4:1.0E-4 5:0.0 6:1.0E-4 7:0.0 8:0.0 9:0.0 10:0.0067 11:0.9931 12:0.0 
0.0 0.6439857667220192 0.0 1:0.0 2:0.0 3:0.0 4:2.0E-4 5:1.0E-4 6:2.0E-4 7:0.0 8:0.0 9:0.0 10:0.0119 11:0.9875 12:0.0 
0.0 1.0 0.0 1:0.0 2:0.0 3:0.0 4:5.0E-4 5:2.0E-4 6:6.0E-4 7:0.0 8:0.0 9:0.0 10:0.0218 11:0.9768 12:0.0 
0.0 1.0 0.0 1:0.0 2:0.0 3:0.0 4:0.0 5:0.0 6:0.0 7:0.0 8:0.0 9:0.0 10:0.005 11:0.9949 12:0.0 
0.0 1.0 0.0 1:0.0 2:0.0 3:0.0 4:0.0 5:0.0 6:0.0 7:0.0 8:0.0 9:0.0 10:0.0048 11:0.9952 12:0.0 
0.0 1.0 0.0 1:0.0 2:0.0 3:0.0 4:0.0 5:0.0 6:0.0 7:0.0 8:0.0 9:0.0 10:0.005 11:0.9949 12:0.0 
0.0 1.0 0.0 1:0.0 2:0.0 3:0.0 4:0.0 5:0.0 6:0.0 7:0.0 8:0.0 9:0.0 10:0.0045 11:0.9954 12:0.0 
0.0 1.0 0.0 1:0.0 2:0.0 3:0.0 4:0.0 5:0.0 6:0.0 7:0.0 8:0.0 9:0.0 10:0.0043 11:0.9957 12:0.0 
0.0 1.0 0.0 1:0.0 2:0.0 3:0.0 4:0.0 5:0.0 6:0.0 7:0.0 8:0.0 9:0.0 10:0.0053 11:0.9947 12:0.0 
0.0 1.0 0.0 1:0.0 2:0.0 3:0.0 4:0.0 5:0.0 6:1.0E-4 7:0.0 8:0.0 9:0.0 10:0.0049 11:0.9949 12:0.0 
0.0 1.0 0.0 1:0.0 2:0.0 3:0.0 4:0.0 5:0.0 6:0.0 7:0.0 8:0.0 9:0.0 10:0.0052 11:0.9947 12:0.0 
0.0 1.0 0.0 1:0.0 2:0.0 3:0.0 4:0.0 5:0.0 6:1.0E-4 7:0.0 8:0.0 9:0.0 10:0.0062 11:0.9936 12:0.0 
0.0 1.0 0.0 1:0.0 2:0.0 3:0.0 4:0.0 5:0.0 6:0.0 7:0.0 8:0.0 9:0.0 10:0.007 11:0.9929 12:0.0 
0.0 1.0 0.0 1:0.0 2:0.0 3:0.0 4:0.0 5:0.0 6:0.0 7:0.0 8:0.0 9:0.0 10:0.0046 11:0.9953 12:0.0 
0.0 1.0 0.0 1:0.0 2:0.0 3:0.0 4:0.0 5:0.0 6:0.0 7:0.0 8:0.0 9:0.0 10:0.0055 11:0.9944 12:0.0 
0.0 1.0 0.0 1:0.0 2:0.0 3:0.0 4:0.0 5:0.0 6:0.0 7:0.0 8:0.0 9:0.0 10:0.0065 11:0.9935 12:0.0 
0.0 1.0 0.0 1:0.0 2:0.0 3:0.0 4:0.0 5:0.0 6:0.0 7:0.0 8:0.0 9:0.0 10:0.0049 11:0.995 12:0.0 
0.0 1.0 0.0 1:0.0 2:0.0 3:0.0 4:0.0 5:0.0 6:0.0 7:0.0 8:0.0 9:0.0 10:0.0047 11:0.9952 12:0.0 
0.0 1.0 0.0 1:0.0 2:0.0 3:0.0 4:0.0 5:0.0 6:0.0 7:0.0 8:0.0 9:0.0 10:0.0043 11:0.9957 12:0.0 
0.0 1.0 0.0 1:0.0 2:0.0 3:0.0 4:0.0 5:0.0 6:1.0E-4 7:0.0 8:0.0 9:0.0 10:0.0059 11:0.9939 12:0.0 
0.0 1.0 0.0 1:0.0 2:0.0 3:0.0 4:0.0 5:0.0 6:0.0 7:0.0 8:0.0 9:0.0 10:0.0055 11:0.9945 12:0.0 
0.0 1.0 0.0 1:0.0 2:0.0 3:0.0 4:0.0 5:0.0 6:0.0 7:0.0 8:0.0 9:0.0 10:0.0048 11:0.9952 12:0.0 
0.0 1.0 0.0 1:0.0 2:0.0 3:0.0 4:0.0 5:0.0 6:0.0 7:0.0 8:0.0 9:0.0 10:0.0064 11:0.9935 12:0.0 
0.0 1.0 0.0 1:0.0 2:0.0 3:0.0 4:0.0 5:0.0 6:0.0 7:0.0 8:0.0 9:0.0 10:0.0062 11:0.9937 12:0.0 
0.0 1.0 0.0 1:0.0 2:0.0 3:0.0 4:0.0 5:0.0 6:0.0 7:0.0 8:0.0 9:0.0 10:0.0068 11:0.9932 12:0.0 
0.0 1.0 0.0 1:0.0 2:0.0 3:0.0 4:0.0 5:0.0 6:0.0 7:0.0 8:0.0 9:0.0 10:0.0061 11:0.9938 12:0.0 
0.0 1.0 0.0 1:0.0 2:0.0 3:0.0 4:0.0 5:0.0 6:0.0 7:0.0 8:0.0 9:0.0 10:0.0055 11:0.9944 12:0.0 
0.0 1.0 0.0 1:0.0 2:0.0 3:0.0 4:0.0 5:0.0 6:0.0 7:0.0 8:0.0 9:0.0 10:0.0048 11:0.9952 12:0.0 
0.0 1.0 0.0 1:0.0 2:0.0 3:0.0 4:0.0 5:0.0 6:0.0 7:0.0 8:0.0 9:0.0 10:0.0044 11:0.9955 12:0.0 
0.0 1.0 0.0 1:0.0 2:0.0 3:0.0 4:0.0 5:0.0 6:0.0 7:0.0 8:0.0 9:0.0 10:0.0054 11:0.9945 12:0.0 
0.0 1.0 0.0 1:0.0 2:0.0 3:0.0 4:0.0 5:0.0 6:0.0 7:0.0 8:0.0 9:0.0 10:0.007 11:0.9929 12:0.0 
0.0 1.0 0.0 1:0.0 2:0.0 3:0.0 4:0.0 5:0.0 6:0.0 7:0.0 8:0.0 9:0.0 10:0.006 11:0.9939 12:0.0 
0.0 1.0 0.0 1:0.0 2:0.0 3:0.0 4:0.0 5:0.0 6:0.0 7:0.0 8:0.0 9:0.0 10:0.0048 11:0.9952 12:0.0 
0.0 1.0 0.0 1:0.0 2:0.0 3:0.0 4:0.0 5:0.0 6:0.0 7:0.0 8:0.0 9:0.0 10:0.005 11:0.995 12:0.0 
0.0 1.0 0.0 1:0.0 2:0.0 3:0.0 4:0.0 5:0.0 6:1.0E-4 7:0.0 8:0.0 9:0.0 10:0.0058 11:0.994 12:0.0 
0.0 1.0 0.0 1:0.0 2:0.0 3:0.0 4:1.0E-4 5:0.0 6:1.0E-4 7:0.0 8:0.0 9:0.0 10:0.0085 11:0.9912 12:0.0 
0.0 1.0 0.0 1:0.0 2:0.0 3:0.0 4:0.0 5:0.0 6:0.0 7:0.0 8:0.0 9:0.0 10:0.0057 11:0.9942 12:0.0 
0.0 1.0 0.0 1:0.0 2:0.0 3:0.0 4:0.0 5:0.0 6:0.0 7:0.0 8:0.0 9:0.0 10:0.0048 11:0.9952 12:0.0 
0.0 1.0 0.0 1:0.0 2:0.0 3:0.0 4:0.0 5:0.0 6:0.0 7:0.0 8:0.0 9:0.0 10:0.0046 11:0.9954 12:0.0 
0.0 1.0 0.0 1:0.0 2:0.0 3:0.0 4:0.0 5:0.0 6:0.0 7:0.0 8:0.0 9:0.0 10:0.0045 11:0.9954 12:0.0 
0.0 1.0 0.0 1:0.0 2:0.0 3:0.0 4:1.0E-4 5:0.0 6:1.0E-4 7:0.0 8:0.0 9:0.0 10:0.008 11:0.9917 12:0.0 
0.0 1.0 0.0 1:0.0 2:0.0 3:0.0 4:0.0 5:0.0 6:0.0 7:0.0 8:0.0 9:0.0 10:0.0055 11:0.9945 12:0.0 
0.0 1.0 0.0 1:0.0 2:0.0 3:0.0 4:0.0 5:0.0 6:0.0 7:0.0 8:0.0 9:0.0 10:0.0068 11:0.9931 12:0.0 
0.0 1.0 0.0 1:0.0 2:0.0 3:0.0 4:1.0E-4 5:0.0 6:0.0 7:0.0 8:0.0 9:0.0 10:0.0071 11:0.9928 12:0.0 
1.0 0.0 0.0 1:0.0 2:0.0 3:0.0 4:0.0012 5:6.0E-4 6:5.0E-4 7:0.0 8:0.0 9:0.0 10:0.0932 11:0.9045 12:0.0 
1.0 0.0 0.0 1:0.0 2:0.0 3:0.0 4:0.0013 5:5.0E-4 6:0.001 7:0.0 8:0.0 9:0.0 10:0.1147 11:0.8825 12:0.0 
1.0 0.0 0.0 1:0.0 2:0.0 3:0.0 4:8.0E-4 5:4.0E-4 6:8.0E-4 7:0.0 8:0.0 9:0.0 10:0.1686 11:0.8293 12:0.0 
1.0 1.0 0.0 1:0.0 2:0.0 3:0.0 4:3.0E-4 5:2.0E-4 6:4.0E-4 7:0.0 8:0.0 9:0.0 10:0.2606 11:0.7384 12:0.0 
1.0 1.0 0.0 1:0.0 2:0.0 3:0.0 4:2.0E-4 5:1.0E-4 6:2.0E-4 7:0.0 8:0.0 9:0.0 10:0.2743 11:0.7252 12:0.0 
1.0 0.0 0.0 1:0.0 2:0.0 3:0.0 4:5.0E-4 5:1.0E-4 6:2.0E-4 7:0.0 8:0.0 9:0.0 10:0.1939 11:0.8053 12:0.0 
1.0 0.0 0.0 1:0.0 2:0.0 3:0.0 4:5.0E-4 5:2.0E-4 6:3.0E-4 7:0.0 8:0.0 9:0.0 10:0.0961 11:0.903 12:0.0 
1.0 0.0 0.0 1:0.0 2:0.0 3:0.0 4:4.0E-4 5:1.0E-4 6:2.0E-4 7:0.0 8:0.0 9:0.0 10:0.1223 11:0.8769 12:0.0 
1.0 0.0 0.0 1:0.0 2:0.0 3:0.0 4:2.0E-4 5:0.0 6:2.0E-4 7:0.0 8:0.0 9:0.0 10:0.1723 11:0.8272 12:0.0 
1.0 0.0 0.0 1:0.0 2:0.0 3:0.0 4:2.0E-4 5:0.0 6:2.0E-4 7:0.0 8:0.0 9:0.0 10:0.2352 11:0.7643 12:0.0 
1.0 0.0 0.0 1:0.0 2:0.0 3:0.0 4:8.0E-4 5:3.0E-4 6:6.0E-4 7:0.0 8:0.0 9:0.0 10:0.2234 11:0.7749 12:0.0 
1.0 0.0 0.0 1:0.0 2:0.0 3:0.0 4:0.001 5:8.0E-4 6:7.0E-4 7:0.0 8:0.0 9:0.0 10:0.1248 11:0.8727 12:0.0 
1.0 1.0 0.0 1:0.0 2:0.0 3:0.0 4:0.0019 5:0.0022 6:0.0013 7:0.0 8:0.0 9:0.0 10:0.1722 11:0.8224 12:0.0 
1.0 1.0 0.0 1:0.0 2:0.0 3:0.0 4:0.0018 5:0.0018 6:0.0011 7:0.0 8:0.0 9:0.0 10:0.1814 11:0.8138 12:0.0 
1.0 0.0 0.0 1:0.0 2:0.0 3:0.0 4:3.0E-4 5:1.0E-4 6:4.0E-4 7:0.0 8:0.0 9:0.0 10:0.1488 11:0.8503 12:0.0 
1.0 0.0 0.0 1:0.0 2:0.0 3:0.0 4:4.0E-4 5:3.0E-4 6:7.0E-4 7:0.0 8:0.0 9:0.0 10:0.1359 11:0.8627 12:0.0 
1.0 0.0 0.0 1:0.0 2:0.0 3:0.0 4:4.0E-4 5:3.0E-4 6:6.0E-4 7:0.0 8:0.0 9:0.0 10:0.0758 11:0.9229 12:0.0 
1.0 0.0 0.0 1:0.0 2:0.0 3:0.0 4:7.0E-4 5:4.0E-4 6:3.0E-4 7:0.0 8:0.0 9:0.0 10:0.1764 11:0.8222 12:0.0 
1.0 0.0 0.0 1:0.0 2:0.0 3:0.0 4:8.0E-4 5:3.0E-4 6:4.0E-4 7:0.0 8:0.0 9:0.0 10:0.2762 11:0.7223 12:0.0 
1.0 0.0 0.0 1:0.0 2:0.0 3:0.0 4:6.0E-4 5:1.0E-4 6:2.0E-4 7:0.0 8:0.0 9:0.0 10:0.2909 11:0.7082 12:0.0 
1.0 0.0 0.0 1:0.0 2:0.0 3:0.0 4:8.0E-4 5:2.0E-4 6:5.0E-4 7:0.0 8:0.0 9:0.0 10:0.1819 11:0.8167 12:0.0 
1.0 0.0 0.0 1:0.0 2:0.0 3:0.0 4:3.0E-4 5:1.0E-4 6:4.0E-4 7:0.0 8:0.0 9:0.0 10:0.0976 11:0.9016 12:0.0 
1.0 0.0 0.0 1:0.0 2:0.0 3:0.0 4:3.0E-4 5:1.0E-4 6:4.0E-4 7:0.0 8:0.0 9:0.0 10:0.1218 11:0.8773 12:0.0 
1.0 0.0 0.0 1:0.0 2:0.0 3:0.0 4:8.0E-4 5:5.0E-4 6:7.0E-4 7:0.0 8:0.0 9:0.0 10:0.2491 11:0.7489 12:0.0 
1.0 0.0 0.0 1:0.0 2:0.0 3:0.0 4:0.0017 5:5.0E-4 6:9.0E-4 7:0.0 8:0.0 9:0.0 10:0.3411 11:0.6558 12:0.0 
0.0 1.0 0.0 1:0.0 2:0.0 3:0.0 4:5.0E-4 5:4.0E-4 6:4.0E-4 7:0.0 8:0.0 9:0.0 10:0.7472 11:0.2515 12:0.0 
0.0 1.0 0.0 1:0.0 2:0.0 3:0.0 4:3.0E-4 5:3.0E-4 6:4.0E-4 7:0.0 8:0.0 9:0.0 10:0.7909 11:0.2082 12:0.0 
1.0 0.0 0.0 1:0.0 2:0.0 3:0.0 4:0.0014 5:5.0E-4 6:6.0E-4 7:0.0 8:0.0 9:0.0 10:0.1988 11:0.7988 12:0.0 
1.0 0.0 0.0 1:0.0 2:0.0 3:0.0 4:0.0012 5:4.0E-4 6:5.0E-4 7:0.0 8:0.0 9:0.0 10:0.1936 11:0.8043 12:0.0 
1.0 1.0 0.0 1:0.0 2:0.0 3:0.0 4:0.0015 5:0.0025 6:0.0017 7:0.0 8:0.0 9:0.0 10:0.3052 11:0.689 12:0.0 
1.0 0.0 0.0 1:0.0 2:0.0 3:0.0 4:0.0012 5:0.002 6:0.0017 7:0.0 8:0.0 9:0.0 10:0.391 11:0.6042 12:0.0 
1.0 0.0 0.0 1:0.0 2:0.0 3:0.0 4:0.0014 5:8.0E-4 6:8.0E-4 7:0.0 8:0.0 9:0.0 10:0.2743 11:0.7228 12:0.0 
1.0 0.0 0.0 1:0.0 2:0.0 3:0.0 4:7.0E-4 5:3.0E-4 6:5.0E-4 7:0.0 8:0.0 9:0.0 10:0.1695 11:0.829 12:0.0 
1.0 0.0 0.0 1:0.0 2:0.0 3:0.0 4:4.0E-4 5:1.0E-4 6:2.0E-4 7:0.0 8:0.0 9:0.0 10:0.2061 11:0.7932 12:0.0 
1.0 0.0 0.0 1:0.0 2:0.0 3:0.0 4:5.0E-4 5:2.0E-4 6:5.0E-4 7:0.0 8:0.0 9:0.0 10:0.2364 11:0.7624 12:0.0 
1.0 0.0 0.0 1:0.0 2:0.0 3:0.0 4:0.0012 5:8.0E-4 6:0.0011 7:0.0 8:0.0 9:0.0 10:0.2081 11:0.7888 12:0.0 
1.0 0.0 0.0 1:0.0 2:0.0 3:0.0 4:6.0E-4 5:7.0E-4 6:6.0E-4 7:0.0 8:0.0 9:0.0 10:0.2095 11:0.7887 12:0.0 
1.0 0.0 0.0 1:0.0 2:0.0 3:0.0 4:8.0E-4 5:3.0E-4 6:3.0E-4 7:0.0 8:0.0 9:0.0 10:0.1747 11:0.8238 12:0.0 
1.0 1.0 0.0 1:0.0 2:0.0 3:0.0 4:4.0E-4 5:2.0E-4 6:1.0E-4 7:0.0 8:0.0 9:0.0 10:0.1334 11:0.8659 12:0.0 
1.0 1.0 0.0 1:0.0 2:0.0 3:0.0 4:0.0 5:0.0 6:0.0 7:0.0 8:0.0 9:0.0 10:0.1399 11:0.86 12:0.0 
1.0 0.0 0.0 1:0.0 2:0.0 3:0.0 4:9.0E-4 5:0.0015 6:6.0E-4 7:0.0 8:0.0 9:0.0 10:0.167 11:0.83 12:0.0 
1.0 0.0 0.0 1:0.0 2:0.0 3:0.0 4:9.0E-4 5:0.0013 6:7.0E-4 7:0.0 8:0.0 9:0.0 10:0.287 11:0.7101 12:0.0 
0.4800073633320312 1.0 0.0 1:0.0 2:0.0 3:0.0 4:2.0E-4 5:1.0E-4 6:3.0E-4 7:0.0 8:0.0 9:0.0 10:0.3549 11:0.6445 12:0.0 
0.0 1.0 0.0 1:0.0 2:0.0 3:0.0 4:1.0E-4 5:0.0 6:0.0 7:0.0 8:0.0 9:0.0 10:0.3931 11:0.6068 12:0.0 
0.0 1.0 0.0 1:0.0 2:0.0 3:0.0 4:0.0 5:0.0 6:0.0 7:0.0 8:0.0 9:0.0 10:0.3961 11:0.6038 12:0.0 
1.0 1.0 0.0 1:0.0 2:0.0 3:0.0 4:5.0E-4 5:1.0E-4 6:4.0E-4 7:0.0 8:0.0 9:0.0 10:0.2842 11:0.7149 12:0.0 
1.0 1.0 0.0 1:0.0 2:0.0 3:0.0 4:4.0E-4 5:1.0E-4 6:3.0E-4 7:0.0 8:0.0 9:0.0 10:0.2364 11:0.7627 12:0.0 
1.0 1.0 0.0 1:0.0 2:0.0 3:0.0 4:2.0E-4 5:0.0 6:1.0E-4 7:0.0 8:0.0 9:0.0 10:0.3038 11:0.6958 12:0.0 
1.0 0.0 0.0 1:0.0 2:0.0 3:0.0 4:8.0E-4 5:3.0E-4 6:4.0E-4 7:0.0 8:0.0 9:0.0 10:0.3319 11:0.6666 12:0.0 
1.0 0.0 0.0 1:0.0 2:0.0 3:0.0 4:0.001 5:0.0012 6:0.0015 7:0.0 8:0.0 9:0.0 10:0.3055 11:0.6908 12:0.0 
1.0 1.0 0.0 1:0.0 2:0.0 3:0.0 4:0.0019 5:0.0019 6:0.002 7:0.0 8:0.0 9:0.0 10:0.296 11:0.6983 12:0.0 
1.0 0.0 0.0 1:0.0 2:0.0 3:0.0 4:0.0011 5:0.0012 6:0.001 7:0.0 8:0.0 9:0.0 10:0.3135 11:0.6832 12:0.0 
1.0 1.0 0.0 1:0.0 2:0.0 3:0.0 4:8.0E-4 5:0.0011 6:5.0E-4 7:0.0 8:0.0 9:0.0 10:0.3134 11:0.6841 12:0.0 
1.0 0.0 0.0 1:0.0 2:0.0 3:0.0 4:0.0013 5:0.0011 6:6.0E-4 7:0.0 8:0.0 9:0.0 10:0.3819 11:0.6152 12:0.0 
0.0 1.0 0.0 1:0.0 2:0.0 3:0.0 4:1.0E-4 5:2.0E-4 6:2.0E-4 7:0.0 8:0.0 9:0.0 10:0.3932 11:0.6063 12:0.0 
0.0 1.0 0.0 1:0.0 2:0.0 3:0.0 4:0.0 5:0.0 6:0.0 7:0.0 8:0.0 9:0.0 10:0.3461 11:0.6539 12:0.0 
1.0 0.0 0.0 1:0.0 2:0.0 3:0.0 4:0.0019 5:6.0E-4 6:0.0014 7:0.0 8:0.0 9:0.0 10:0.2912 11:0.7049 12:0.0 
1.0 1.0 0.0 1:0.0 2:0.0 3:0.0 4:0.002 5:8.0E-4 6:0.0017 7:0.0 8:0.0 9:0.0 10:0.1752 11:0.8203 12:0.0 
1.0 0.0 0.0 1:0.0 2:0.0 3:0.0 4:8.0E-4 5:6.0E-4 6:4.0E-4 7:0.0 8:0.0 9:0.0 10:0.1919 11:0.8064 12:0.0 
1.0 1.0 0.0 1:0.0 2:0.0 3:0.0 4:0.0014 5:5.0E-4 6:4.0E-4 7:0.0 8:0.0 9:0.0 10:0.2121 11:0.7855 12:0.0 
1.0 1.0 0.0 1:0.0 2:0.0 3:0.0 4:9.0E-4 5:1.0E-4 6:2.0E-4 7:0.0 8:0.0 9:0.0 10:0.1351 11:0.8637 12:0.0 
1.0 0.0 0.0 1:0.0 2:0.0 3:0.0 4:4.0E-4 5:4.0E-4 6:3.0E-4 7:0.0 8:0.0 9:0.0 10:0.1279 11:0.8709 12:0.0 
1.0 1.0 0.0 1:0.0 2:0.0 3:0.0 4:6.0E-4 5:4.0E-4 6:3.0E-4 7:0.0 8:0.0 9:0.0 10:0.2226 11:0.7761 12:0.0 
1.0 1.0 0.0 1:0.0 2:0.0 3:0.0 4:0.0027 5:9.0E-4 6:8.0E-4 7:0.0 8:0.0 9:0.0 10:0.3003 11:0.6952 12:0.0 
1.0 1.0 0.0 1:0.0 2:0.0 3:0.0 4:0.0046 5:0.0019 6:0.0022 7:0.0 8:0.0 9:0.0 10:0.294 11:0.6973 12:0.0 
1.0 1.0 0.0 1:0.0 2:0.0 3:0.0 4:0.001 5:0.003 6:0.0033 7:0.0 8:0.0 9:0.0 10:0.1578 11:0.8349 12:0.0 
1.0 1.0 0.0 1:0.0 2:0.0 3:0.0 4:8.0E-4 5:0.0026 6:0.0023 7:0.0 8:0.0 9:0.0 10:0.1534 11:0.8409 12:0.0 
1.0 1.0 0.0 1:0.0 2:0.0 3:0.0 4:0.0043 5:0.004 6:0.0033 7:0.0 8:0.0 9:0.0 10:0.2812 11:0.7072 12:0.0 
1.0 1.0 0.0 1:0.0 2:0.0 3:0.0 4:0.0035 5:0.003 6:0.0029 7:0.0 8:0.0 9:0.0 10:0.3308 11:0.6597 12:0.0 
1.0 0.0 0.0 1:0.0 2:0.0 3:0.0 4:0.0018 5:6.0E-4 6:8.0E-4 7:0.0 8:0.0 9:0.0 10:0.2988 11:0.6981 12:0.0 
1.0 0.0 0.0 1:0.0 2:0.0 3:0.0 4:0.0014 5:8.0E-4 6:6.0E-4 7:0.0 8:0.0 9:0.0 10:0.3107 11:0.6864 12:0.0 
1.0 1.0 0.0 1:0.0 2:0.0 3:0.0 4:0.0012 5:0.0021 6:0.0063 7:0.0 8:0.0 9:0.0 10:0.2201 11:0.7703 12:0.0 
1.0 1.0 0.0 1:0.0 2:0.0 3:0.0 4:7.0E-4 5:0.0017 6:0.0067 7:0.0 8:0.0 9:0.0 10:0.0852 11:0.9057 12:0.0 
1.0 0.4410138767508429 0.0 1:0.0 2:0.0 3:0.0 4:0.0013 5:4.0E-4 6:0.0017 7:0.0 8:0.0 9:0.0 10:0.0939 11:0.9028 12:0.0 
1.0 1.0 0.0 1:0.0 2:0.0 3:0.0 4:0.0016 5:4.0E-4 6:0.0017 7:0.0 8:0.0 9:0.0 10:0.1053 11:0.891 12:0.0 
1.0 0.0 0.0 1:0.0 2:0.0 3:0.0 4:7.0E-4 5:3.0E-4 6:4.0E-4 7:0.0 8:0.0 9:0.0 10:0.1036 11:0.895 12:0.0 
1.0 0.0 0.0 1:0.0 2:0.0 3:0.0 4:7.0E-4 5:3.0E-4 6:5.0E-4 7:0.0 8:0.0 9:0.0 10:0.1074 11:0.8912 12:0.0 
1.0 0.0 0.0 1:0.0 2:0.0 3:0.0 4:6.0E-4 5:3.0E-4 6:6.0E-4 7:0.0 8:0.0 9:0.0 10:0.0988 11:0.8996 12:0.0 
1.0 0.0 0.0 1:0.0 2:0.0 3:0.0 4:7.0E-4 5:1.0E-4 6:7.0E-4 7:0.0 8:0.0 9:0.0 10:0.075 11:0.9233 12:0.0 
1.0 1.0 0.0 1:0.0 2:0.0 3:0.0 4:0.0021 5:3.0E-4 6:0.0013 7:0.0 8:0.0 9:0.0 10:0.1158 11:0.8804 12:0.0 
1.0 0.0 0.0 1:0.0 2:0.0 3:0.0 4:0.0014 5:3.0E-4 6:9.0E-4 7:0.0 8:0.0 9:0.0 10:0.1986 11:0.7987 12:0.0 
1.0 1.0 0.0 1:0.0 2:0.0 3:0.0 4:2.0E-4 5:0.0 6:1.0E-4 7:0.0 8:0.0 9:0.0 10:0.2283 11:0.7714 12:0.0 
1.0 0.0 0.0 1:0.0 2:0.0 3:0.0 4:1.0E-4 5:0.0 6:4.0E-4 7:0.0 8:0.0 9:0.0 10:0.232 11:0.7674 12:0.0 
1.0 0.0 0.0 1:0.0 2:0.0 3:0.0 4:6.0E-4 5:2.0E-4 6:7.0E-4 7:0.0 8:0.0 9:0.0 10:0.1963 11:0.8023 12:0.0 
1.0 0.0 0.0 1:0.0 2:0.0 3:0.0 4:8.0E-4 5:3.0E-4 6:0.001 7:0.0 8:0.0 9:0.0 10:0.1777 11:0.8202 12:0.0 
1.0 0.0 0.0 1:0.0 2:0.0 3:0.0 4:4.0E-4 5:1.0E-4 6:3.0E-4 7:0.0 8:0.0 9:0.0 10:0.1758 11:0.8234 12:0.0 
1.0 0.0 0.0 1:0.0 2:0.0 3:0.0 4:5.0E-4 5:0.0 6:2.0E-4 7:0.0 8:0.0 9:0.0 10:0.1077 11:0.8916 12:0.0 
1.0 0.0 0.0 1:0.0 2:0.0 3:0.0 4:6.0E-4 5:2.0E-4 6:5.0E-4 7:0.0 8:0.0 9:0.0 10:0.1099 11:0.8887 12:0.0 
1.0 0.0 0.0 1:0.0 2:0.0 3:0.0 4:0.0012 5:3.0E-4 6:8.0E-4 7:0.0 8:0.0 9:0.0 10:0.2961 11:0.7015 12:0.0 
1.0 0.0 0.0 1:0.0 2:0.0 3:0.0 4:0.0011 5:3.0E-4 6:4.0E-4 7:0.0 8:0.0 9:0.0 10:0.3247 11:0.6734 12:0.0 
1.0 0.0 0.0 1:0.0 2:0.0 3:0.0 4:0.0016 5:4.0E-4 6:7.0E-4 7:0.0 8:0.0 9:0.0 10:0.2022 11:0.7951 12:0.0 
1.0 0.0 0.0 1:0.0 2:0.0 3:0.0 4:0.0012 5:2.0E-4 6:8.0E-4 7:0.0 8:0.0 9:0.0 10:0.2134 11:0.7844 12:0.0 
1.0 0.0 0.0 1:0.0 2:0.0 3:0.0 4:5.0E-4 5:3.0E-4 6:0.0011 7:0.0 8:0.0 9:0.0 10:0.1993 11:0.7988 12:0.0 
1.0 0.0 0.0 1:0.0 2:0.0 3:0.0 4:5.0E-4 5:3.0E-4 6:9.0E-4 7:0.0 8:0.0 9:0.0 10:0.2285 11:0.7697 12:0.0 
1.0 0.0 0.0 1:0.0 2:0.0 3:0.0 4:0.001 5:9.0E-4 6:0.001 7:0.0 8:0.0 9:0.0 10:0.329 11:0.668 12:0.0 
1.0 0.0 0.0 1:0.0 2:0.0 3:0.0 4:7.0E-4 5:4.0E-4 6:7.0E-4 7:0.0 8:0.0 9:0.0 10:0.1379 11:0.8602 12:0.0 
1.0 0.0 0.0 1:0.0 2:0.0 3:0.0 4:9.0E-4 5:3.0E-4 6:8.0E-4 7:0.0 8:0.0 9:0.0 10:0.0939 11:0.9041 12:0.0 
1.0 1.0 0.0 1:0.0 2:0.0 3:0.0 4:0.0019 5:3.0E-4 6:0.0011 7:0.0 8:0.0 9:0.0 10:0.1109 11:0.8857 12:0.0 
1.0 0.0 0.0 1:0.0 2:0.0 3:0.0 4:0.002 5:4.0E-4 6:0.001 7:0.0 8:0.0 9:0.0 10:0.2098 11:0.7868 12:0.0 
1.0 1.0 0.0 1:0.0 2:0.0 3:0.0 4:3.0E-4 5:1.0E-4 6:2.0E-4 7:0.0 8:0.0 9:0.0 10:0.2174 11:0.7819 12:0.0 
1.0 0.0 0.0 1:0.0 2:0.0 3:0.0 4:2.0E-4 5:0.0 6:2.0E-4 7:0.0 8:0.0 9:0.0 10:0.1801 11:0.8195 12:0.0 
1.0 0.0 0.0 1:0.0 2:0.0 3:0.0 4:3.0E-4 5:0.0 6:2.0E-4 7:0.0 8:0.0 9:0.0 10:0.1444 11:0.8551 12:0.0 
1.0 0.0 0.0 1:0.0 2:0.0 3:0.0 4:0.001 5:1.0E-4 6:0.001 7:0.0 8:0.0 9:0.0 10:0.1363 11:0.8616 12:0.0 
1.0 1.0 0.0 1:0.0 2:0.0 3:0.0 4:9.0E-4 5:0.0036 6:0.0029 7:0.0 8:0.0 9:0.0 10:0.1179 11:0.8747 12:0.0 
1.0 1.0 0.0 1:0.0 2:0.0 3:0.0 4:7.0E-4 5:0.0034 6:0.0023 7:0.0 8:0.0 9:0.0 10:0.1444 11:0.8491 12:0.0 
1.0 0.0 0.0 1:0.0 2:0.0 3:0.0 4:1.0E-4 5:4.0E-4 6:9.0E-4 7:0.0 8:0.0 9:0.0 10:0.1253 11:0.8733 12:0.0 
1.0 0.0 0.0 1:0.0 2:0.0 3:0.0 4:7.0E-4 5:1.0E-4 6:5.0E-4 7:0.0 8:0.0 9:0.0 10:0.0939 11:0.9048 12:0.0 
1.0 0.0 0.0 1:0.0 2:0.0 3:0.0 4:2.0E-4 5:0.0 6:4.0E-4 7:0.0 8:0.0 9:0.0 10:0.1207 11:0.8786 12:0.0 
1.0 0.0 0.0 1:0.0 2:0.0 3:0.0 4:3.0E-4 5:0.0 6:2.0E-4 7:0.0 8:0.0 9:0.0 10:0.1157 11:0.8838 12:0.0 
1.0 0.0 0.0 1:0.0 2:0.0 3:0.0 4:3.0E-4 5:0.0 6:2.0E-4 7:0.0 8:0.0 9:0.0 10:0.128 11:0.8715 12:0.0 
1.0 0.0 0.0 1:0.0 2:0.0 3:0.0 4:2.0E-4 5:0.0 6:0.0 7:0.0 8:0.0 9:0.0 10:0.1287 11:0.871 12:0.0 
1.0 1.0 0.0 1:0.0 2:0.0 3:0.0 4:0.0 5:0.0 6:0.0 7:0.0 8:0.0 9:0.0 10:0.1275 11:0.8725 12:0.0 
1.0 1.0 0.0 1:0.0 2:0.0 3:0.0 4:0.0 5:0.0 6:0.0 7:0.0 8:0.0 9:0.0 10:0.132 11:0.868 12:0.0 
0.9325291352920224 0.0 0.0 1:0.0 2:0.0 3:0.0 4:3.0E-4 5:0.0 6:1.0E-4 7:0.0 8:0.0 9:0.0 10:0.108 11:0.8915 12:0.0 
1.0 1.0 0.0 1:0.0 2:0.0 3:0.0 4:2.0E-4 5:0.0 6:1.0E-4 7:0.0 8:0.0 9:0.0 10:0.1156 11:0.884 12:0.0 
1.0 0.0 0.0 1:0.0 2:0.0 3:0.0 4:0.0 5:0.0 6:1.0E-4 7:0.0 8:0.0 9:0.0 10:0.1472 11:0.8527 12:0.0 
1.0 0.0 0.0 1:0.0 2:0.0 3:0.0 4:1.0E-4 5:0.0 6:2.0E-4 7:0.0 8:0.0 9:0.0 10:0.162 11:0.8377 12:0.0 
1.0 0.0 0.0 1:0.0 2:0.0 3:0.0 4:1.0E-4 5:0.0 6:1.0E-4 7:0.0 8:0.0 9:0.0 10:0.1455 11:0.8543 12:0.0 
1.0 0.0 0.0 1:0.0 2:0.0 3:0.0 4:0.0 5:0.0 6:0.0 7:0.0 8:0.0 9:0.0 10:0.1401 11:0.8598 12:0.0 
1.0 0.0 0.0 1:0.0 2:0.0 3:0.0 4:8.0E-4 5:1.0E-4 6:9.0E-4 7:0.0 8:0.0 9:0.0 10:0.0867 11:0.9114 12:0.0 
1.0 0.0 0.0 1:0.0 2:0.0 3:0.0 4:4.0E-4 5:0.0 6:4.0E-4 7:0.0 8:0.0 9:0.0 10:0.0989 11:0.9002 12:0.0 
1.0 0.0 0.0 1:0.0 2:0.0 3:0.0 4:1.0E-4 5:0.0 6:1.0E-4 7:0.0 8:0.0 9:0.0 10:0.1238 11:0.8759 12:0.0 
1.0 1.0 0.0 1:0.0 2:0.0 3:0.0 4:0.0 5:0.0 6:0.0 7:0.0 8:0.0 9:0.0 10:0.131 11:0.869 12:0.0 
1.0 0.0 0.0 1:0.0 2:0.0 3:0.0 4:7.0E-4 5:4.0E-4 6:0.001 7:0.0 8:0.0 9:0.0 10:0.051 11:0.9469 12:0.0 
1.0 0.0 0.0 1:0.0 2:0.0 3:0.0 4:7.0E-4 5:4.0E-4 6:0.0017 7:0.0 8:0.0 9:0.0 10:0.059 11:0.9381 12:0.0 
1.0 0.0 0.0 1:0.0 2:0.0 3:0.0 4:5.0E-4 5:1.0E-4 6:3.0E-4 7:0.0 8:0.0 9:0.0 10:0.1035 11:0.8955 12:0.0 
1.0 0.0 0.0 1:0.0 2:0.0 3:0.0 4:5.0E-4 5:0.0 6:2.0E-4 7:0.0 8:0.0 9:0.0 10:0.1128 11:0.8864 12:0.0 
0.0 1.0 0.0 1:0.0 2:0.0 3:0.0 4:0.0 5:0.0 6:0.0 7:0.0 8:0.0 9:0.0 10:0.1179 11:0.8821 12:0.0 
1.0 0.0 0.0 1:0.0 2:0.0 3:0.0 4:0.0 5:0.0 6:0.0 7:0.0 8:0.0 9:0.0 10:0.1379 11:0.8621 12:0.0 
1.0 0.0 0.0 1:0.0 2:0.0 3:0.0 4:0.0 5:0.0 6:0.0 7:0.0 8:0.0 9:0.0 10:0.1486 11:0.8513 12:0.0 
1.0 0.0 0.0 1:0.0 2:0.0 3:0.0 4:0.0 5:0.0 6:0.0 7:0.0 8:0.0 9:0.0 10:0.1514 11:0.8486 12:0.0 
1.0 0.0 0.0 1:0.0 2:0.0 3:0.0 4:0.0 5:0.0 6:1.0E-4 7:0.0 8:0.0 9:0.0 10:0.1449 11:0.855 12:0.0 
1.0 1.0 0.0 1:0.0 2:0.0 3:0.0 4:0.0 5:0.0 6:0.0 7:0.0 8:0.0 9:0.0 10:0.1404 11:0.8596 12:0.0 
1.0 0.0 0.0 1:0.0 2:0.0 3:0.0 4:0.0 5:0.0 6:0.0 7:0.0 8:0.0 9:0.0 10:0.1473 11:0.8527 12:0.0 
1.0 1.0 0.0 1:0.0 2:0.0 3:0.0 4:0.0 5:0.0 6:0.0 7:0.0 8:0.0 9:0.0 10:0.1483 11:0.8516 12:0.0 
1.0 0.0 0.0 1:0.0 2:0.0 3:0.0 4:0.0 5:0.0 6:0.0 7:0.0 8:0.0 9:0.0 10:0.1443 11:0.8556 12:0.0 
1.0 1.0 0.0 1:0.0 2:0.0 3:0.0 4:0.0 5:0.0 6:0.0 7:0.0 8:0.0 9:0.0 10:0.1391 11:0.8609 12:0.0 
1.0 0.0 0.0 1:0.0 2:0.0 3:0.0 4:2.0E-4 5:1.0E-4 6:3.0E-4 7:0.0 8:0.0 9:0.0 10:0.1033 11:0.8961 12:0.0 
1.0 0.0 0.0 1:0.0 2:0.0 3:0.0 4:0.001 5:2.0E-4 6:6.0E-4 7:0.0 8:0.0 9:0.0 10:0.0599 11:0.9383 12:0.0 
1.0 0.0 0.0 1:0.0 2:0.0 3:0.0 4:8.0E-4 5:3.0E-4 6:5.0E-4 7:0.0 8:0.0 9:0.0 10:0.0775 11:0.921 12:0.0 
1.0 1.0 0.0 1:0.0 2:0.0 3:0.0 4:0.002 5:5.0E-4 6:0.0013 7:0.0 8:0.0 9:0.0 10:0.1913 11:0.8048 12:0.0 
1.0 0.0 0.0 1:0.0 2:0.0 3:0.0 4:0.0014 5:4.0E-4 6:0.0014 7:0.0 8:0.0 9:0.0 10:0.2053 11:0.7915 12:0.0 
1.0 0.0 0.0 1:0.0 2:0.0 3:0.0 4:1.0E-4 5:1.0E-4 6:3.0E-4 7:0.0 8:0.0 9:0.0 10:0.1258 11:0.8736 12:0.0 
1.0 0.0 0.0 1:0.0 2:0.0 3:0.0 4:0.0 5:0.0 6:0.0 7:0.0 8:0.0 9:0.0 10:0.1284 11:0.8715 12:0.0 
1.0 1.0 0.0 1:0.0 2:0.0 3:0.0 4:0.0 5:0.0 6:0.0 7:0.0 8:0.0 9:0.0 10:0.1458 11:0.8541 12:0.0 
1.0 0.0 0.0 1:0.0 2:0.0 3:0.0 4:0.0 5:0.0 6:0.0 7:0.0 8:0.0 9:0.0 10:0.1496 11:0.8504 12:0.0 
1.0 0.0 0.0 1:0.0 2:0.0 3:0.0 4:0.0 5:0.0 6:0.0 7:0.0 8:0.0 9:0.0 10:0.1608 11:0.8391 12:0.0 
1.0 1.0 0.0 1:0.0 2:0.0 3:0.0 4:3.0E-4 5:0.0 6:1.0E-4 7:0.0 8:0.0 9:0.0 10:0.195 11:0.8045 12:0.0 
1.0 1.0 0.0 1:0.0 2:0.0 3:0.0 4:3.0E-4 5:0.0 6:1.0E-4 7:0.0 8:0.0 9:0.0 10:0.1583 11:0.8411 12:0.0 
1.0 0.0 0.0 1:0.0 2:0.0 3:0.0 4:3.0E-4 5:1.0E-4 6:3.0E-4 7:0.0 8:0.0 9:0.0 10:0.1523 11:0.847 12:0.0 
1.0 0.0 0.0 1:0.0 2:0.0 3:0.0 4:9.0E-4 5:4.0E-4 6:5.0E-4 7:0.0 8:0.0 9:0.0 10:0.1869 11:0.8113 12:0.0 
1.0 0.0 0.0 1:0.0 2:0.0 3:0.0 4:0.0014 5:5.0E-4 6:0.0015 7:0.0 8:0.0 9:0.0 10:0.2082 11:0.7884 12:0.0 
1.0 0.0 0.0 1:0.0 2:0.0 3:0.0 4:0.0012 5:3.0E-4 6:0.001 7:0.0 8:0.0 9:0.0 10:0.2576 11:0.7398 12:0.0 
1.0 0.0 0.0 1:0.0 2:0.0 3:0.0 4:9.0E-4 5:3.0E-4 6:0.001 7:0.0 8:0.0 9:0.0 10:0.3835 11:0.6143 12:0.0 
1.0 0.0 0.0 1:0.0 2:0.0 3:0.0 4:0.0025 5:3.0E-4 6:0.001 7:0.0 8:0.0 9:0.0 10:0.4076 11:0.5885 12:0.0 
1.0 1.0 0.0 1:0.0 2:0.0 3:0.0 4:0.0015 5:1.0E-4 6:5.0E-4 7:0.0 8:0.0 9:0.0 10:0.2724 11:0.7254 12:0.0 
1.0 1.0 0.0 1:0.0 2:0.0 3:0.0 4:8.0E-4 5:1.0E-4 6:3.0E-4 7:0.0 8:0.0 9:0.0 10:0.2367 11:0.762 12:0.0 
1.0 0.0 0.0 1:0.0 2:0.0 3:0.0 4:5.0E-4 5:1.0E-4 6:3.0E-4 7:0.0 8:0.0 9:0.0 10:0.2315 11:0.7675 12:0.0 
1.0 1.0 0.0 1:0.0 2:0.0 3:0.0 4:6.0E-4 5:1.0E-4 6:5.0E-4 7:0.0 8:0.0 9:0.0 10:0.2716 11:0.7272 12:0.0 
1.0 1.0 0.0 1:0.0 2:0.0 3:0.0 4:6.0E-4 5:1.0E-4 6:3.0E-4 7:0.0 8:0.0 9:0.0 10:0.3061 11:0.6928 12:0.0 
1.0 0.0 0.0 1:0.0 2:0.0 3:0.0 4:0.0026 5:0.0016 6:0.0028 7:0.0 8:0.0 9:0.0 10:0.4379 11:0.5551 12:0.0 
1.0 0.0 0.0 1:0.0 2:0.0 3:0.0 4:0.0011 5:8.0E-4 6:0.0017 7:0.0 8:0.0 9:0.0 10:0.4032 11:0.5933 12:0.0 
0.0 1.0 0.0 1:0.0 2:0.0 3:0.0 4:8.0E-4 5:5.0E-4 6:7.0E-4 7:0.0 8:0.0 9:0.0 10:0.7361 11:0.2619 12:0.0 
0.0 1.0 0.0 1:0.0 2:0.0 3:0.0 4:2.0E-4 5:1.0E-4 6:1.0E-4 7:0.0 8:0.0 9:0.0 10:0.9112 11:0.0884 12:0.0 
0.0 1.0 0.0 1:0.0 2:0.0 3:0.0 4:1.0E-4 5:0.0 6:0.0 7:0.0 8:0.0 9:0.0 10:0.9248 11:0.0751 12:0.0 
0.0 1.0 0.0 1:0.0 2:0.0 3:0.0 4:0.0016 5:6.0E-4 6:7.0E-4 7:0.0 8:0.0 9:0.0 10:0.7385 11:0.2586 12:0.0 
1.0 1.0 0.0 1:0.0 2:0.0 3:0.0 4:0.0035 5:7.0E-4 6:0.0013 7:0.0 8:0.0 9:0.0 10:0.236 11:0.7585 12:0.0 
1.0 0.0 0.0 1:0.0 2:0.0 3:0.0 4:8.0E-4 5:1.0E-4 6:5.0E-4 7:0.0 8:0.0 9:0.0 10:0.1289 11:0.8696 12:0.0 
1.0 1.0 0.0 1:0.0 2:0.0 3:0.0 4:1.0E-4 5:0.0 6:2.0E-4 7:0.0 8:0.0 9:0.0 10:0.2021 11:0.7975 12:0.0 
1.0 1.0 0.0 1:0.0 2:0.0 3:0.0 4:4.0E-4 5:1.0E-4 6:4.0E-4 7:0.0 8:0.0 9:0.0 10:0.2928 11:0.7063 12:0.0 
0.0 1.0 0.0 1:0.0 2:0.0 3:0.0 4:2.0E-4 5:2.0E-4 6:2.0E-4 7:0.0 8:0.0 9:0.0 10:0.8638 11:0.1356 12:0.0 
0.0 1.0 0.0 1:0.0 2:0.0 3:0.0 4:1.0E-4 5:1.0E-4 6:1.0E-4 7:0.0 8:0.0 9:0.0 10:0.8721 11:0.1276 12:0.0 
0.0 1.0 0.0 1:0.0 2:0.0 3:0.0 4:4.0E-4 5:5.0E-4 6:3.0E-4 7:0.0 8:0.0 9:0.0 10:0.8137 11:0.1851 12:0.0 
0.0 1.0 0.0 1:0.0 2:0.0 3:0.0 4:0.0042 5:0.0019 6:0.0124 7:0.0 8:0.0 9:0.0 10:0.6527 11:0.3288 12:0.0 
1.0 1.0 0.0 1:0.0 2:0.0 3:0.0 4:0.0043 5:0.0016 6:0.0141 7:0.0 8:0.0 9:0.0 10:0.2457 11:0.7343 12:0.0 
1.0 0.0 0.0 1:0.0 2:0.0 3:0.0 4:0.0012 5:3.0E-4 6:0.001 7:0.0 8:0.0 9:0.0 10:0.0919 11:0.9056 12:0.0 
1.0 0.0 0.0 1:0.0 2:0.0 3:0.0 4:0.0014 5:2.0E-4 6:9.0E-4 7:0.0 8:0.0 9:0.0 10:0.0837 11:0.9138 12:0.0 
1.0 1.0 0.0 1:0.0 2:0.0 3:0.0 4:0.0014 5:9.0E-4 6:6.0E-4 7:0.0 8:0.0 9:0.0 10:0.0997 11:0.8972 12:0.0 
1.0 0.0 0.0 1:0.0 2:0.0 3:0.0 4:9.0E-4 5:0.001 6:5.0E-4 7:0.0 8:0.0 9:0.0 10:0.3446 11:0.653 12:0.0 
0.0 1.0 0.0 1:0.0 2:0.0 3:0.0 4:0.0 5:0.0 6:0.0 7:0.0 8:0.0 9:0.0 10:0.4061 11:0.5938 12:0.0 
1.0 1.0 0.0 1:0.0 2:0.0 3:0.0 4:2.0E-4 5:2.0E-4 6:2.0E-4 7:0.0 8:0.0 9:0.0 10:0.2937 11:0.7056 12:0.0 
1.0 1.0 0.0 1:0.0 2:0.0 3:0.0 4:2.0E-4 5:2.0E-4 6:2.0E-4 7:0.0 8:0.0 9:0.0 10:0.2399 11:0.7595 12:0.0 
1.0 1.0 0.0 1:0.0 2:0.0 3:0.0 4:1.0E-4 5:1.0E-4 6:4.0E-4 7:0.0 8:0.0 9:0.0 10:0.1994 11:0.8001 12:0.0 
1.0 1.0 0.0 1:0.0 2:0.0 3:0.0 4:0.0 5:0.0 6:0.0 7:0.0 8:0.0 9:0.0 10:0.1635 11:0.8364 12:0.0 
1.0 1.0 0.0 1:0.0 2:0.0 3:0.0 4:0.0 5:0.0 6:0.0 7:0.0 8:0.0 9:0.0 10:0.147 11:0.853 12:0.0 
1.0 0.0 0.0 1:0.0 2:0.0 3:0.0 4:0.0 5:0.0 6:0.0 7:0.0 8:0.0 9:0.0 10:0.1394 11:0.8605 12:0.0 
1.0 1.0 0.0 1:0.0 2:0.0 3:0.0 4:0.0 5:0.0 6:0.0 7:0.0 8:0.0 9:0.0 10:0.14 11:0.8599 12:0.0 
1.0 0.0 0.0 1:0.0 2:0.0 3:0.0 4:0.0 5:0.0 6:0.0 7:0.0 8:0.0 9:0.0 10:0.1427 11:0.8573 12:0.0 
1.0 0.0 0.0 1:0.0 2:0.0 3:0.0 4:0.0 5:0.0 6:0.0 7:0.0 8:0.0 9:0.0 10:0.1437 11:0.8562 12:0.0 
1.0 0.0 0.0 1:0.0 2:0.0 3:0.0 4:0.0 5:0.0 6:0.0 7:0.0 8:0.0 9:0.0 10:0.1384 11:0.8616 12:0.0 
0.0 1.0 0.0 1:0.0 2:0.0 3:0.0 4:0.0 5:0.0 6:0.0 7:0.0 8:0.0 9:0.0 10:0.1231 11:0.8769 12:0.0 
1.0 0.0 0.0 1:0.0 2:0.0 3:0.0 4:4.0E-4 5:1.0E-4 6:2.0E-4 7:0.0 8:0.0 9:0.0 10:0.1045 11:0.8949 12:0.0 
1.0 1.0 0.0 1:0.0 2:0.0 3:0.0 4:0.0013 5:8.0E-4 6:0.0014 7:0.0 8:0.0 9:0.0 10:0.1082 11:0.8882 12:0.0 
1.0 1.0 0.0 1:0.0 2:0.0 3:0.0 4:0.0012 5:8.0E-4 6:0.0013 7:0.0 8:0.0 9:0.0 10:0.1108 11:0.8859 12:0.0 
1.0 0.0 0.0 1:0.0 2:0.0 3:0.0 4:7.0E-4 5:0.0 6:5.0E-4 7:0.0 8:0.0 9:0.0 10:0.1183 11:0.8804 12:0.0 
1.0 0.0 0.0 1:0.0 2:0.0 3:0.0 4:4.0E-4 5:1.0E-4 6:5.0E-4 7:0.0 8:0.0 9:0.0 10:0.1706 11:0.8284 12:0.0 
1.0 0.0 0.0 1:0.0 2:0.0 3:0.0 4:3.0E-4 5:1.0E-4 6:2.0E-4 7:0.0 8:0.0 9:0.0 10:0.138 11:0.8613 12:0.0 
1.0 0.0 0.0 1:0.0 2:0.0 3:0.0 4:6.0E-4 5:1.0E-4 6:4.0E-4 7:0.0 8:0.0 9:0.0 10:0.1921 11:0.8068 12:0.0 
1.0 1.0 0.0 1:0.0 2:0.0 3:0.0 4:3.0E-4 5:1.0E-4 6:4.0E-4 7:0.0 8:0.0 9:0.0 10:0.2375 11:0.7617 12:0.0 
1.0 0.0 0.0 1:0.0 2:0.0 3:0.0 4:2.0E-4 5:1.0E-4 6:3.0E-4 7:0.0 8:0.0 9:0.0 10:0.2329 11:0.7664 12:0.0 
1.0 0.0 0.0 1:0.0 2:0.0 3:0.0 4:3.0E-4 5:1.0E-4 6:4.0E-4 7:0.0 8:0.0 9:0.0 10:0.2292 11:0.7698 12:0.0 
1.0 0.0 0.0 1:0.0 2:0.0 3:0.0 4:7.0E-4 5:2.0E-4 6:6.0E-4 7:0.0 8:0.0 9:0.0 10:0.1197 11:0.8788 12:0.0 
1.0 0.0 0.0 1:0.0 2:0.0 3:0.0 4:5.0E-4 5:1.0E-4 6:4.0E-4 7:0.0 8:0.0 9:0.0 10:0.1113 11:0.8877 12:0.0 
1.0 0.0 0.0 1:0.0 2:0.0 3:0.0 4:7.0E-4 5:2.0E-4 6:6.0E-4 7:0.0 8:0.0 9:0.0 10:0.114 11:0.8845 12:0.0 
1.0 0.0 0.0 1:0.0 2:0.0 3:0.0 4:0.0013 5:5.0E-4 6:9.0E-4 7:0.0 8:0.0 9:0.0 10:0.1362 11:0.8612 12:0.0 
1.0 1.0 0.0 1:0.0 2:0.0 3:0.0 4:0.001 5:5.0E-4 6:3.0E-4 7:0.0 8:0.0 9:0.0 10:0.3573 11:0.6408 12:0.0 
1.0 0.0 0.0 1:0.0 2:0.0 3:0.0 4:4.0E-4 5:6.0E-4 6:6.0E-4 7:0.0 8:0.0 9:0.0 10:0.3375 11:0.6609 12:0.0 
1.0 0.0 0.0 1:0.0 2:0.0 3:0.0 4:7.0E-4 5:6.0E-4 6:7.0E-4 7:0.0 8:0.0 9:0.0 10:0.1999 11:0.7981 12:0.0 
1.0 0.0 0.0 1:0.0 2:0.0 3:0.0 4:6.0E-4 5:2.0E-4 6:4.0E-4 7:0.0 8:0.0 9:0.0 10:0.1595 11:0.8392 12:0.0 
1.0 1.0 0.0 1:0.0 2:0.0 3:0.0 4:1.0E-4 5:1.0E-4 6:2.0E-4 7:0.0 8:0.0 9:0.0 10:0.1385 11:0.8611 12:0.0 
1.0 0.0 0.0 1:0.0 2:0.0 3:0.0 4:2.0E-4 5:0.0 6:1.0E-4 7:0.0 8:0.0 9:0.0 10:0.1322 11:0.8674 12:0.0 
1.0 0.0 0.0 1:0.0 2:0.0 3:0.0 4:9.0E-4 5:2.0E-4 6:9.0E-4 7:0.0 8:0.0 9:0.0 10:0.1614 11:0.8366 12:0.0 
1.0 0.0 0.0 1:0.0 2:0.0 3:0.0 4:9.0E-4 5:2.0E-4 6:7.0E-4 7:0.0 8:0.0 9:0.0 10:0.1243 11:0.8739 12:0.0 
1.0 0.0 0.0 1:0.0 2:0.0 3:0.0 4:4.0E-4 5:2.0E-4 6:6.0E-4 7:0.0 8:0.0 9:0.0 10:0.0825 11:0.9162 12:0.0 
1.0 0.0 0.0 1:0.0 2:0.0 3:0.0 4:8.0E-4 5:2.0E-4 6:6.0E-4 7:0.0 8:0.0 9:0.0 10:0.1047 11:0.8937 12:0.0 
1.0 0.0 0.0 1:0.0 2:0.0 3:0.0 4:4.0E-4 5:2.0E-4 6:2.0E-4 7:0.0 8:0.0 9:0.0 10:0.254 11:0.7452 12:0.0 
1.0 0.0 0.0 1:0.0 2:0.0 3:0.0 4:9.0E-4 5:4.0E-4 6:5.0E-4 7:0.0 8:0.0 9:0.0 10:0.2726 11:0.7257 12:0.0 
1.0 0.0 0.0 1:0.0 2:0.0 3:0.0 4:0.0013 5:7.0E-4 6:0.0014 7:0.0 8:0.0 9:0.0 10:0.2771 11:0.7195 12:0.0 
1.0 1.0 0.0 1:0.0 2:0.0 3:0.0 4:0.0016 5:6.0E-4 6:0.0024 7:0.0 8:0.0 9:0.0 10:0.2337 11:0.7617 12:0.0 
1.0 1.0 0.0 1:0.0 2:0.0 3:0.0 4:0.0015 5:3.0E-4 6:0.0016 7:0.0 8:0.0 9:0.0 10:0.1496 11:0.847 12:0.0 
1.0 0.0 0.0 1:0.0 2:0.0 3:0.0 4:0.0017 5:6.0E-4 6:0.0012 7:0.0 8:0.0 9:0.0 10:0.2485 11:0.748 12:0.0 
1.0 0.0 0.0 1:0.0 2:0.0 3:0.0 4:0.0015 5:7.0E-4 6:0.001 7:0.0 8:0.0 9:0.0 10:0.3812 11:0.6156 12:0.0 
1.0 1.0 0.0 1:0.0 2:0.0 3:0.0 4:0.0028 5:8.0E-4 6:0.0013 7:0.0 8:0.0 9:0.0 10:0.2228 11:0.7722 12:0.0 
1.0 0.0 0.0 1:0.0 2:0.0 3:0.0 4:0.0012 5:4.0E-4 6:0.001 7:0.0 8:0.0 9:0.0 10:0.1107 11:0.8867 12:0.0 
1.0 0.0 0.0 1:0.0 2:0.0 3:0.0 4:5.0E-4 5:0.0 6:3.0E-4 7:0.0 8:0.0 9:0.0 10:0.1107 11:0.8885 12:0.0 
1.0 1.0 0.0 1:0.0 2:0.0 3:0.0 4:3.0E-4 5:0.0 6:0.0 7:0.0 8:0.0 9:0.0 10:0.1333 11:0.8663 12:0.0 
1.0 1.0 0.0 1:0.0 2:0.0 3:0.0 4:2.0E-4 5:0.0 6:0.0 7:0.0 8:0.0 9:0.0 10:0.2147 11:0.785 12:0.0 
1.0 1.0 0.0 1:0.0 2:0.0 3:0.0 4:0.0 5:0.0 6:0.0 7:0.0 8:0.0 9:0.0 10:0.2751 11:0.7249 12:0.0 
1.0 0.0 0.0 1:0.0 2:0.0 3:0.0 4:0.0 5:0.0 6:0.0 7:0.0 8:0.0 9:0.0 10:0.2736 11:0.7264 12:0.0 
1.0 1.0 0.0 1:0.0 2:0.0 3:0.0 4:6.0E-4 5:0.0 6:1.0E-4 7:0.0 8:0.0 9:0.0 10:0.1784 11:0.8209 12:0.0 
1.0 0.0 0.0 1:0.0 2:0.0 3:0.0 4:2.0E-4 5:0.0 6:1.0E-4 7:0.0 8:0.0 9:0.0 10:0.1194 11:0.8802 12:0.0 
1.0 0.0 0.0 1:0.0 2:0.0 3:0.0 4:1.0E-4 5:0.0 6:0.0 7:0.0 8:0.0 9:0.0 10:0.1643 11:0.8356 12:0.0 
1.0 1.0 0.0 1:0.0 2:0.0 3:0.0 4:0.0 5:0.0 6:1.0E-4 7:0.0 8:0.0 9:0.0 10:0.1973 11:0.8025 12:0.0 
1.0 1.0 0.0 1:0.0 2:0.0 3:0.0 4:0.0015 5:2.0E-4 6:8.0E-4 7:0.0 8:0.0 9:0.0 10:0.1628 11:0.8347 12:0.0 
1.0 1.0 0.0 1:0.0 2:0.0 3:0.0 4:0.003 5:9.0E-4 6:8.0E-4 7:0.0 8:0.0 9:0.0 10:0.4316 11:0.5637 12:0.0 
0.0 1.0 0.0 1:0.0 2:0.0 3:0.0 4:1.0E-4 5:2.0E-4 6:2.0E-4 7:0.0 8:0.0 9:0.0 10:0.7557 11:0.2438 12:0.0 
0.0 1.0 0.0 1:0.0 2:0.0 3:0.0 4:2.0E-4 5:1.0E-4 6:3.0E-4 7:0.0 8:0.0 9:0.0 10:0.7577 11:0.2417 12:0.0 
1.0 0.0 0.0 1:0.0 2:0.0 3:0.0 4:0.0018 5:7.0E-4 6:0.001 7:0.0 8:0.0 9:0.0 10:0.2594 11:0.7371 12:0.0 
1.0 0.0 0.0 1:0.0 2:0.0 3:0.0 4:0.001 5:4.0E-4 6:0.0016 7:0.0 8:0.0 9:0.0 10:0.0791 11:0.9179 12:0.0 
1.0 0.0 0.0 1:0.0 2:0.0 3:0.0 4:0.0011 5:1.0E-4 6:0.0011 7:0.0 8:0.0 9:0.0 10:0.1375 11:0.8601 12:0.0 
1.0 0.0 0.0 1:0.0 2:0.0 3:0.0 4:3.0E-4 5:2.0E-4 6:6.0E-4 7:0.0 8:0.0 9:0.0 10:0.1907 11:0.8082 12:0.0 
1.0 0.0 0.0 1:0.0 2:0.0 3:0.0 4:4.0E-4 5:2.0E-4 6:8.0E-4 7:0.0 8:0.0 9:0.0 10:0.1431 11:0.8554 12:0.0 
1.0 0.0 0.0 1:0.0 2:0.0 3:0.0 4:5.0E-4 5:2.0E-4 6:8.0E-4 7:0.0 8:0.0 9:0.0 10:0.1593 11:0.8392 12:0.0 
1.0 0.0 0.0 1:0.0 2:0.0 3:0.0 4:4.0E-4 5:1.0E-4 6:4.0E-4 7:0.0 8:0.0 9:0.0 10:0.1913 11:0.8077 12:0.0 
0.0 1.0 0.0 1:0.0 2:0.0 3:0.0 4:0.0013 5:4.0E-4 6:4.0E-4 7:0.0 8:0.0 9:0.0 10:0.4244 11:0.5734 12:0.0 
0.0 1.0 0.0 1:0.0 2:0.0 3:0.0 4:0.0015 5:4.0E-4 6:4.0E-4 7:0.0 8:0.0 9:0.0 10:0.4268 11:0.5709 12:0.0 
1.0 0.0 0.0 1:0.0 2:0.0 3:0.0 4:0.0016 5:3.0E-4 6:6.0E-4 7:0.0 8:0.0 9:0.0 10:0.2097 11:0.7879 12:0.0 
1.0 0.0 0.0 1:0.0 2:0.0 3:0.0 4:0.0017 5:3.0E-4 6:8.0E-4 7:0.0 8:0.0 9:0.0 10:0.2294 11:0.7677 12:0.0 
1.0 0.0 0.0 1:0.0 2:0.0 3:0.0 4:3.0E-4 5:1.0E-4 6:4.0E-4 7:0.0 8:0.0 9:0.0 10:0.2493 11:0.7498 12:0.0 
1.0 1.0 0.0 1:0.0 2:0.0 3:0.0 4:0.0 5:0.0 6:0.0 7:0.0 8:0.0 9:0.0 10:0.2653 11:0.7346 12:0.0 
1.0 0.0 0.0 1:0.0 2:0.0 3:0.0 4:2.0E-4 5:0.0 6:2.0E-4 7:0.0 8:0.0 9:0.0 10:0.2285 11:0.7711 12:0.0 
1.0 1.0 0.0 1:0.0 2:0.0 3:0.0 4:2.0E-4 5:0.0 6:1.0E-4 7:0.0 8:0.0 9:0.0 10:0.2006 11:0.7991 12:0.0 
1.0 0.0 0.0 1:0.0 2:0.0 3:0.0 4:1.0E-4 5:0.0 6:1.0E-4 7:0.0 8:0.0 9:0.0 10:0.1567 11:0.843 12:0.0 
1.0 0.0 0.0 1:0.0 2:0.0 3:0.0 4:1.0E-4 5:0.0 6:1.0E-4 7:0.0 8:0.0 9:0.0 10:0.1536 11:0.8462 12:0.0 
1.0 1.0 0.0 1:0.0 2:0.0 3:0.0 4:1.0E-4 5:0.0 6:0.0 7:0.0 8:0.0 9:0.0 10:0.2067 11:0.7932 12:0.0 
1.0 0.0 0.0 1:0.0 2:0.0 3:0.0 4:2.0E-4 5:0.0 6:1.0E-4 7:0.0 8:0.0 9:0.0 10:0.1961 11:0.8036 12:0.0 
1.0 0.0 0.0 1:0.0 2:0.0 3:0.0 4:0.0013 5:1.0E-4 6:0.001 7:0.0 8:0.0 9:0.0 10:0.2524 11:0.7452 12:0.0 
1.0 0.0 0.0 1:0.0 2:0.0 3:0.0 4:0.001 5:1.0E-4 6:8.0E-4 7:0.0 8:0.0 9:0.0 10:0.3193 11:0.6789 12:0.0 
1.0 0.0 0.0 1:0.0 2:0.0 3:0.0 4:0.0 5:0.0 6:0.0 7:0.0 8:0.0 9:0.0 10:0.3351 11:0.6648 12:0.0 
1.0 0.0 0.0 1:0.0 2:0.0 3:0.0 4:0.0017 5:2.0E-4 6:8.0E-4 7:0.0 8:0.0 9:0.0 10:0.2122 11:0.7851 12:0.0 
1.0 0.0 0.0 1:0.0 2:0.0 3:0.0 4:0.0013 5:4.0E-4 6:0.001 7:0.0 8:0.0 9:0.0 10:0.089 11:0.9083 12:0.0 
1.0 0.0 0.0 1:0.0 2:0.0 3:0.0 4:7.0E-4 5:4.0E-4 6:8.0E-4 7:0.0 8:0.0 9:0.0 10:0.1263 11:0.8719 12:0.0 
1.0 0.0 0.0 1:0.0 2:0.0 3:0.0 4:3.0E-4 5:1.0E-4 6:8.0E-4 7:0.0 8:0.0 9:0.0 10:0.0875 11:0.9112 12:0.0 
1.0 0.0 0.0 1:0.0 2:0.0 3:0.0 4:6.0E-4 5:2.0E-4 6:0.0011 7:0.0 8:0.0 9:0.0 10:0.1106 11:0.8874 12:0.0 
1.0 0.0 0.0 1:0.0 2:0.0 3:0.0 4:7.0E-4 5:4.0E-4 6:0.0014 7:0.0 8:0.0 9:0.0 10:0.2268 11:0.7707 12:0.0 
1.0 0.0 0.0 1:0.0 2:0.0 3:0.0 4:6.0E-4 5:3.0E-4 6:0.0012 7:0.0 8:0.0 9:0.0 10:0.3394 11:0.6584 12:0.0 
1.0 0.0 0.0 1:0.0 2:0.0 3:0.0 4:5.0E-4 5:4.0E-4 6:9.0E-4 7:0.0 8:0.0 9:0.0 10:0.3636 11:0.6345 12:0.0 
1.0 0.0 0.0 1:0.0 2:0.0 3:0.0 4:3.0E-4 5:5.0E-4 6:0.0012 7:0.0 8:0.0 9:0.0 10:0.3656 11:0.6324 12:0.0 
1.0 0.0 0.0 1:0.0 2:0.0 3:0.0 4:0.0011 5:6.0E-4 6:0.0015 7:0.0 8:0.0 9:0.0 10:0.393 11:0.6038 12:0.0 
1.0 0.0 0.0 1:0.0 2:0.0 3:0.0 4:3.0E-4 5:3.0E-4 6:5.0E-4 7:0.0 8:0.0 9:0.0 10:0.2283 11:0.7705 12:0.0 
1.0 0.0 0.0 1:0.0 2:0.0 3:0.0 4:9.0E-4 5:2.0E-4 6:9.0E-4 7:0.0 8:0.0 9:0.0 10:0.1937 11:0.8043 12:0.0 
1.0 0.0 0.0 1:0.0 2:0.0 3:0.0 4:0.0012 5:3.0E-4 6:0.001 7:0.0 8:0.0 9:0.0 10:0.1726 11:0.8248 12:0.0 
1.0 0.0 0.0 1:0.0 2:0.0 3:0.0 4:7.0E-4 5:3.0E-4 6:7.0E-4 7:0.0 8:0.0 9:0.0 10:0.2207 11:0.7775 12:0.0 
1.0 0.0 0.0 1:0.0 2:0.0 3:0.0 4:6.0E-4 5:3.0E-4 6:4.0E-4 7:0.0 8:0.0 9:0.0 10:0.359 11:0.6397 12:0.0 
1.0 1.0 0.0 1:0.0 2:0.0 3:0.0 4:0.0011 5:2.0E-4 6:5.0E-4 7:0.0 8:0.0 9:0.0 10:0.2981 11:0.7001 12:0.0 
1.0 1.0 0.0 1:0.0 2:0.0 3:0.0 4:0.0011 5:8.0E-4 6:0.0016 7:0.0 8:0.0 9:0.0 10:0.12 11:0.8764 12:0.0 
1.0 1.0 0.0 1:0.0 2:0.0 3:0.0 4:0.0012 5:0.001 6:0.0018 7:0.0 8:0.0 9:0.0 10:0.1656 11:0.8305 12:0.0 
1.0 0.0 0.0 1:0.0 2:0.0 3:0.0 4:2.0E-4 5:3.0E-4 6:6.0E-4 7:0.0 8:0.0 9:0.0 10:0.2201 11:0.7788 12:0.0 
1.0 0.0 0.0 1:0.0 2:0.0 3:0.0 4:0.0 5:0.0 6:0.0 7:0.0 8:0.0 9:0.0 10:0.2461 11:0.7538 12:0.0 
1.0 0.0 0.0 1:0.0 2:0.0 3:0.0 4:4.0E-4 5:1.0E-4 6:4.0E-4 7:0.0 8:0.0 9:0.0 10:0.1807 11:0.8184 12:0.0 
1.0 0.0 0.0 1:0.0 2:0.0 3:0.0 4:7.0E-4 5:1.0E-4 6:0.001 7:0.0 8:0.0 9:0.0 10:0.1056 11:0.8926 12:0.0 
1.0 0.0 0.0 1:0.0 2:0.0 3:0.0 4:0.0016 5:5.0E-4 6:0.0014 7:0.0 8:0.0 9:0.0 10:0.3277 11:0.6689 12:0.0 
0.0 1.0 0.0 1:0.0 2:0.0 3:0.0 4:5.0E-4 5:0.0 6:2.0E-4 7:0.0 8:0.0 9:0.0 10:0.385 11:0.6142 12:0.0 
0.0 1.0 0.0 1:0.0 2:0.0 3:0.0 4:0.0 5:0.0 6:0.0 7:0.0 8:0.0 9:0.0 10:0.363 11:0.6369 12:0.0 
0.0 1.0 0.0 1:0.0 2:0.0 3:0.0 4:0.0 5:0.0 6:0.0 7:0.0 8:0.0 9:0.0 10:0.3856 11:0.6144 12:0.0 
0.0 1.0 0.0 1:0.0 2:0.0 3:0.0 4:2.0E-4 5:2.0E-4 6:4.0E-4 7:0.0 8:0.0 9:0.0 10:0.6436 11:0.3557 12:0.0 
1.0 0.0 0.0 1:0.0 2:0.0 3:0.0 4:0.0021 5:5.0E-4 6:0.001 7:0.0 8:0.0 9:0.0 10:0.3121 11:0.6844 12:0.0 
1.0 1.0 0.0 1:0.0 2:0.0 3:0.0 4:0.002 5:6.0E-4 6:0.0014 7:0.0 8:0.0 9:0.0 10:0.1713 11:0.8248 12:0.0 
1.0 0.0 0.0 1:0.0 2:0.0 3:0.0 4:0.0012 5:4.0E-4 6:8.0E-4 7:0.0 8:0.0 9:0.0 10:0.2507 11:0.7469 12:0.0 
1.0 1.0 0.0 1:0.0 2:0.0 3:0.0 4:0.0017 5:2.0E-4 6:7.0E-4 7:0.0 8:0.0 9:0.0 10:0.2206 11:0.7768 12:0.0 
1.0 1.0 0.0 1:0.0 2:0.0 3:0.0 4:0.0023 5:9.0E-4 6:0.001 7:0.0 8:0.0 9:0.0 10:0.2794 11:0.7164 12:0.0 
0.0 1.0 0.0 1:0.0 2:0.0 3:0.0 4:1.0E-4 5:0.0 6:1.0E-4 7:0.0 8:0.0 9:0.0 10:0.3729 11:0.6268 12:0.0 
1.0 0.0 0.0 1:0.0 2:0.0 3:0.0 4:9.0E-4 5:4.0E-4 6:8.0E-4 7:0.0 8:0.0 9:0.0 10:0.3551 11:0.6428 12:0.0 
1.0 0.0 0.0 1:0.0 2:0.0 3:0.0 4:0.0018 5:5.0E-4 6:0.0018 7:0.0 8:0.0 9:0.0 10:0.2466 11:0.7494 12:0.0 
1.0 1.0 0.0 1:0.0 2:0.0 3:0.0 4:0.002 5:3.0E-4 6:0.001 7:0.0 8:0.0 9:0.0 10:0.1305 11:0.8661 12:0.0 
1.0 0.0 0.0 1:0.0 2:0.0 3:0.0 4:0.0012 5:3.0E-4 6:9.0E-4 7:0.0 8:0.0 9:0.0 10:0.1287 11:0.8689 12:0.0 
1.0 0.0 0.0 1:0.0 2:0.0 3:0.0 4:8.0E-4 5:3.0E-4 6:8.0E-4 7:0.0 8:0.0 9:0.0 10:0.2107 11:0.7874 12:0.0 
1.0 0.0 0.0 1:0.0 2:0.0 3:0.0 4:7.0E-4 5:2.0E-4 6:5.0E-4 7:0.0 8:0.0 9:0.0 10:0.1906 11:0.8079 12:0.0 
1.0 0.0 0.0 1:0.0 2:0.0 3:0.0 4:8.0E-4 5:2.0E-4 6:4.0E-4 7:0.0 8:0.0 9:0.0 10:0.1251 11:0.8734 12:0.0 
1.0 0.0 0.0 1:0.0 2:0.0 3:0.0 4:8.0E-4 5:1.0E-4 6:5.0E-4 7:0.0 8:0.0 9:0.0 10:0.1871 11:0.8114 12:0.0 
1.0 0.0 0.0 1:0.0 2:0.0 3:0.0 4:9.0E-4 5:2.0E-4 6:6.0E-4 7:0.0 8:0.0 9:0.0 10:0.2278 11:0.7706 12:0.0 
0.0 1.0 0.0 1:0.0 2:0.0 3:0.0 4:2.0E-4 5:1.0E-4 6:6.0E-4 7:0.0 8:0.0 9:0.0 10:0.635 11:0.3642 12:0.0 
0.0 1.0 0.0 1:0.0 2:0.0 3:0.0 4:1.0E-4 5:1.0E-4 6:3.0E-4 7:0.0 8:0.0 9:0.0 10:0.6774 11:0.3222 12:0.0 
0.0 1.0 0.0 1:0.0 2:0.0 3:0.0 4:1.0E-4 5:1.0E-4 6:2.0E-4 7:0.0 8:0.0 9:0.0 10:0.7217 11:0.2778 12:0.0 
0.0 1.0 0.0 1:0.0 2:0.0 3:0.0 4:2.0E-4 5:3.0E-4 6:3.0E-4 7:0.0 8:0.0 9:0.0 10:0.7374 11:0.2617 12:0.0 
1.0 0.0 0.0 1:0.0 2:0.0 3:0.0 4:8.0E-4 5:4.0E-4 6:8.0E-4 7:0.0 8:0.0 9:0.0 10:0.1865 11:0.8115 12:0.0 
1.0 0.0 0.0 1:0.0 2:0.0 3:0.0 4:0.001 5:2.0E-4 6:7.0E-4 7:0.0 8:0.0 9:0.0 10:0.139 11:0.8591 12:0.0 
1.0 0.0 0.0 1:0.0 2:0.0 3:0.0 4:0.001 5:3.0E-4 6:0.001 7:0.0 8:0.0 9:0.0 10:0.0799 11:0.9179 12:0.0 
1.0 0.0 0.0 1:0.0 2:0.0 3:0.0 4:8.0E-4 5:4.0E-4 6:0.001 7:0.0 8:0.0 9:0.0 10:0.1163 11:0.8815 12:0.0 
1.0 0.0 0.0 1:0.0 2:0.0 3:0.0 4:3.0E-4 5:2.0E-4 6:7.0E-4 7:0.0 8:0.0 9:0.0 10:0.1733 11:0.8254 12:0.0 
1.0 0.0 0.0 1:0.0 2:0.0 3:0.0 4:3.0E-4 5:1.0E-4 6:7.0E-4 7:0.0 8:0.0 9:0.0 10:0.158 11:0.8409 12:0.0 
1.0 0.0 0.0 1:0.0 2:0.0 3:0.0 4:7.0E-4 5:1.0E-4 6:4.0E-4 7:0.0 8:0.0 9:0.0 10:0.1656 11:0.8332 12:0.0 
1.0 0.0 0.0 1:0.0 2:0.0 3:0.0 4:6.0E-4 5:3.0E-4 6:8.0E-4 7:0.0 8:0.0 9:0.0 10:0.1918 11:0.8065 12:0.0 
1.0 1.0 0.0 1:0.0 2:0.0 3:0.0 4:3.0E-4 5:2.0E-4 6:3.0E-4 7:0.0 8:0.0 9:0.0 10:0.2048 11:0.7944 12:0.0 
1.0 1.0 0.0 1:0.0 2:0.0 3:0.0 4:0.0 5:0.0 6:1.0E-4 7:0.0 8:0.0 9:0.0 10:0.2216 11:0.7783 12:0.0 
1.0 0.0 0.0 1:0.0 2:0.0 3:0.0 4:2.0E-4 5:0.0 6:5.0E-4 7:0.0 8:0.0 9:0.0 10:0.2274 11:0.7718 12:0.0 
1.0 0.0 0.0 1:0.0 2:0.0 3:0.0 4:5.0E-4 5:2.0E-4 6:5.0E-4 7:0.0 8:0.0 9:0.0 10:0.1647 11:0.8341 12:0.0 
1.0 1.0 0.0 1:0.0 2:0.0 3:0.0 4:0.0019 5:7.0E-4 6:0.0012 7:0.0 8:0.0 9:0.0 10:0.1214 11:0.8747 12:0.0 
1.0 0.0 0.0 1:0.0 2:0.0 3:0.0 4:0.0019 5:8.0E-4 6:0.0014 7:0.0 8:0.0 9:0.0 10:0.2811 11:0.7148 12:0.0 
1.0 1.0 0.0 1:0.0 2:0.0 3:0.0 4:0.0018 5:7.0E-4 6:8.0E-4 7:0.0 8:0.0 9:0.0 10:0.1611 11:0.8357 12:0.0 
1.0 0.0 0.0 1:0.0 2:0.0 3:0.0 4:0.0013 5:5.0E-4 6:0.0014 7:0.0 8:0.0 9:0.0 10:0.0908 11:0.906 12:0.0 
1.0 0.0 0.0 1:0.0 2:0.0 3:0.0 4:0.001 5:3.0E-4 6:0.001 7:0.0 8:0.0 9:0.0 10:0.102 11:0.8956 12:0.0 
1.0 0.0 0.0 1:0.0 2:0.0 3:0.0 4:6.0E-4 5:1.0E-4 6:4.0E-4 7:0.0 8:0.0 9:0.0 10:0.0965 11:0.9023 12:0.0 
1.0 0.0 0.0 1:0.0 2:0.0 3:0.0 4:5.0E-4 5:1.0E-4 6:6.0E-4 7:0.0 8:0.0 9:0.0 10:0.1591 11:0.8396 12:0.0 
1.0 0.0 0.0 1:0.0 2:0.0 3:0.0 4:3.0E-4 5:1.0E-4 6:5.0E-4 7:0.0 8:0.0 9:0.0 10:0.1968 11:0.8023 12:0.0 
1.0 0.0 0.0 1:0.0 2:0.0 3:0.0 4:8.0E-4 5:2.0E-4 6:7.0E-4 7:0.0 8:0.0 9:0.0 10:0.1699 11:0.8284 12:0.0 
1.0 0.0 0.0 1:0.0 2:0.0 3:0.0 4:9.0E-4 5:3.0E-4 6:0.0015 7:0.0 8:0.0 9:0.0 10:0.2128 11:0.7846 12:0.0 
1.0 0.0 0.0 1:0.0 2:0.0 3:0.0 4:5.0E-4 5:3.0E-4 6:0.0011 7:0.0 8:0.0 9:0.0 10:0.2344 11:0.7637 12:0.0 
1.0 0.0 0.0 1:0.0 2:0.0 3:0.0 4:8.0E-4 5:3.0E-4 6:7.0E-4 7:0.0 8:0.0 9:0.0 10:0.1723 11:0.826 12:0.0 
1.0 1.0 0.0 1:0.0 2:0.0 3:0.0 4:0.0018 5:9.0E-4 6:0.0013 7:0.0 8:0.0 9:0.0 10:0.1857 11:0.8103 12:0.0 
1.0 0.0 0.0 1:0.0 2:0.0 3:0.0 4:0.0021 5:9.0E-4 6:0.0011 7:0.0 8:0.0 9:0.0 10:0.369 11:0.6269 12:0.0 
0.0 1.0 0.0 1:0.0 2:0.0 3:0.0 4:0.0 5:0.0 6:0.0 7:0.0 8:0.0 9:0.0 10:0.3498 11:0.6501 12:0.0 
1.0 0.0 0.0 1:0.0 2:0.0 3:0.0 4:4.0E-4 5:1.0E-4 6:4.0E-4 7:0.0 8:0.0 9:0.0 10:0.3392 11:0.6599 12:0.0 
1.0 0.0 0.0 1:0.0 2:0.0 3:0.0 4:0.0014 5:5.0E-4 6:0.0016 7:0.0 8:0.0 9:0.0 10:0.1982 11:0.7983 12:0.0 
1.0 1.0 0.0 1:0.0 2:0.0 3:0.0 4:0.0012 5:5.0E-4 6:0.0018 7:0.0 8:0.0 9:0.0 10:0.1481 11:0.8483 12:0.0 
1.0 1.0 0.0 1:0.0 2:0.0 3:0.0 4:0.0018 5:6.0E-4 6:0.0016 7:0.0 8:0.0 9:0.0 10:0.1493 11:0.8467 12:0.0 
1.0 1.0 0.0 1:0.0 2:0.0 3:0.0 4:0.0015 5:6.0E-4 6:0.0013 7:0.0 8:0.0 9:0.0 10:0.1444 11:0.8523 12:0.0 
1.0 0.0 0.0 1:0.0 2:0.0 3:0.0 4:9.0E-4 5:2.0E-4 6:6.0E-4 7:0.0 8:0.0 9:0.0 10:0.1223 11:0.8759 12:0.0 
1.0 0.0 0.0 1:0.0 2:0.0 3:0.0 4:6.0E-4 5:2.0E-4 6:6.0E-4 7:0.0 8:0.0 9:0.0 10:0.074 11:0.9245 12:0.0 
1.0 0.0 0.0 1:0.0 2:0.0 3:0.0 4:3.0E-4 5:5.0E-4 6:6.0E-4 7:0.0 8:0.0 9:0.0 10:0.0711 11:0.9275 12:0.0 
1.0 0.0 0.0 1:0.0 2:0.0 3:0.0 4:5.0E-4 5:5.0E-4 6:8.0E-4 7:0.0 8:0.0 9:0.0 10:0.132 11:0.8662 12:0.0 
1.0 0.0 0.0 1:0.0 2:0.0 3:0.0 4:6.0E-4 5:3.0E-4 6:7.0E-4 7:0.0 8:0.0 9:0.0 10:0.1335 11:0.8648 12:0.0 
1.0 0.0 0.0 1:0.0 2:0.0 3:0.0 4:5.0E-4 5:2.0E-4 6:5.0E-4 7:0.0 8:0.0 9:0.0 10:0.1299 11:0.8689 12:0.0 
1.0 0.0 0.0 1:0.0 2:0.0 3:0.0 4:0.001 5:4.0E-4 6:9.0E-4 7:0.0 8:0.0 9:0.0 10:0.1213 11:0.8763 12:0.0 
1.0 0.0 0.0 1:0.0 2:0.0 3:0.0 4:0.0012 5:6.0E-4 6:0.0011 7:0.0 8:0.0 9:0.0 10:0.1126 11:0.8844 12:0.0 
1.0 0.0 0.0 1:0.0 2:0.0 3:0.0 4:5.0E-4 5:3.0E-4 6:0.001 7:0.0 8:0.0 9:0.0 10:0.1518 11:0.8463 12:0.0 
1.0 0.0 0.0 1:0.0 2:0.0 3:0.0 4:4.0E-4 5:1.0E-4 6:7.0E-4 7:0.0 8:0.0 9:0.0 10:0.1809 11:0.8179 12:0.0 
1.0 0.0 0.0 1:0.0 2:0.0 3:0.0 4:8.0E-4 5:3.0E-4 6:6.0E-4 7:0.0 8:0.0 9:0.0 10:0.1361 11:0.8621 12:0.0 
1.0 0.0 0.0 1:0.0 2:0.0 3:0.0 4:9.0E-4 5:5.0E-4 6:0.001 7:0.0 8:0.0 9:0.0 10:0.1069 11:0.8906 12:0.0 
1.0 0.0 0.0 1:0.0 2:0.0 3:0.0 4:8.0E-4 5:4.0E-4 6:0.0011 7:0.0 8:0.0 9:0.0 10:0.1089 11:0.8888 12:0.0 
1.0 0.0 0.0 1:0.0 2:0.0 3:0.0 4:5.0E-4 5:1.0E-4 6:6.0E-4 7:0.0 8:0.0 9:0.0 10:0.1307 11:0.868 12:0.0 
1.0 0.0 0.0 1:0.0 2:0.0 3:0.0 4:6.0E-4 5:1.0E-4 6:5.0E-4 7:0.0 8:0.0 9:0.0 10:0.1565 11:0.8423 12:0.0 
1.0 0.0 0.0 1:0.0 2:0.0 3:0.0 4:8.0E-4 5:2.0E-4 6:8.0E-4 7:0.0 8:0.0 9:0.0 10:0.121 11:0.8771 12:0.0 
1.0 0.0 0.0 1:0.0 2:0.0 3:0.0 4:6.0E-4 5:1.0E-4 6:9.0E-4 7:0.0 8:0.0 9:0.0 10:0.0729 11:0.9255 12:0.0 
1.0 0.0 0.0 1:0.0 2:0.0 3:0.0 4:6.0E-4 5:0.0 6:3.0E-4 7:0.0 8:0.0 9:0.0 10:0.1359 11:0.8633 12:0.0 
1.0 1.0 0.0 1:0.0 2:0.0 3:0.0 4:0.0 5:0.0 6:1.0E-4 7:0.0 8:0.0 9:0.0 10:0.1591 11:0.8407 12:0.0 
1.0 0.0 0.0 1:0.0 2:0.0 3:0.0 4:2.0E-4 5:1.0E-4 6:3.0E-4 7:0.0 8:0.0 9:0.0 10:0.1954 11:0.804 12:0.0 
1.0 0.0 0.0 1:0.0 2:0.0 3:0.0 4:5.0E-4 5:2.0E-4 6:6.0E-4 7:0.0 8:0.0 9:0.0 10:0.3463 11:0.6525 12:0.0 
0.0 1.0 0.0 1:0.0 2:0.0 3:0.0 4:2.0E-4 5:0.0 6:3.0E-4 7:0.0 8:0.0 9:0.0 10:0.4312 11:0.5682 12:0.0 
1.0 0.0 0.0 1:0.0 2:0.0 3:0.0 4:1.0E-4 5:1.0E-4 6:3.0E-4 7:0.0 8:0.0 9:0.0 10:0.3463 11:0.6531 12:0.0 
1.0 1.0 0.0 1:0.0 2:0.0 3:0.0 4:1.0E-4 5:0.0 6:2.0E-4 7:0.0 8:0.0 9:0.0 10:0.2819 11:0.7177 12:0.0 
1.0 0.0 0.0 1:0.0 2:0.0 3:0.0 4:0.0 5:0.0 6:0.0 7:0.0 8:0.0 9:0.0 10:0.23 11:0.77 12:0.0 
1.0 1.0 0.0 1:0.0 2:0.0 3:0.0 4:1.0E-4 5:0.0 6:1.0E-4 7:0.0 8:0.0 9:0.0 10:0.2055 11:0.7942 12:0.0 
1.0 0.0 0.0 1:0.0 2:0.0 3:0.0 4:1.0E-4 5:0.0 6:0.0 7:0.0 8:0.0 9:0.0 10:0.1779 11:0.8219 12:0.0 
1.0 0.0 0.0 1:0.0 2:0.0 3:0.0 4:7.0E-4 5:1.0E-4 6:4.0E-4 7:0.0 8:0.0 9:0.0 10:0.1701 11:0.8288 12:0.0 
1.0 0.0 0.0 1:0.0 2:0.0 3:0.0 4:8.0E-4 5:1.0E-4 6:5.0E-4 7:0.0 8:0.0 9:0.0 10:0.163 11:0.8355 12:0.0 
1.0 0.0 0.0 1:0.0 2:0.0 3:0.0 4:0.001 5:2.0E-4 6:7.0E-4 7:0.0 8:0.0 9:0.0 10:0.1263 11:0.8717 12:0.0 
1.0 1.0 0.0 1:0.0 2:0.0 3:0.0 4:0.0017 5:2.0E-4 6:0.0011 7:0.0 8:0.0 9:0.0 10:0.1597 11:0.8373 12:0.0 
1.0 0.0 0.0 1:0.0 2:0.0 3:0.0 4:0.0014 5:2.0E-4 6:8.0E-4 7:0.0 8:0.0 9:0.0 10:0.2046 11:0.7929 12:0.0 
1.0 0.0 0.0 1:0.0 2:0.0 3:0.0 4:7.0E-4 5:6.0E-4 6:4.0E-4 7:0.0 8:0.0 9:0.0 10:0.2476 11:0.7508 12:0.0 
0.0 1.0 0.0 1:0.0 2:0.0 3:0.0 4:0.0014 5:0.0012 6:4.0E-4 7:0.0 8:0.0 9:0.0 10:0.6442 11:0.3528 12:0.0 
0.0 1.0 0.0 1:0.0 2:0.0 3:0.0 4:1.0E-4 5:1.0E-4 6:2.0E-4 7:0.0 8:0.0 9:0.0 10:0.9063 11:0.0934 12:0.0 
0.0 1.0 0.0 1:0.0 2:0.0 3:0.0 4:1.0E-4 5:0.0 6:1.0E-4 7:0.0 8:0.0 9:0.0 10:0.8976 11:0.1022 12:0.0 
0.0 1.0 0.0 1:0.0 2:0.0 3:0.0 4:0.0 5:0.0 6:0.0 7:0.0 8:0.0 9:0.0 10:0.8806 11:0.1193 12:0.0 
0.0 1.0 0.0 1:0.0 2:0.0 3:0.0 4:0.0 5:0.0 6:1.0E-4 7:0.0 8:0.0 9:0.0 10:0.8677 11:0.132 12:0.0 
0.0 1.0 0.0 1:0.0 2:0.0 3:0.0 4:3.0E-4 5:3.0E-4 6:3.0E-4 7:0.0 8:0.0 9:0.0 10:0.7796 11:0.2196 12:0.0 
1.0 0.0 0.0 1:0.0 2:0.0 3:0.0 4:0.0 5:0.0 6:1.0E-4 7:0.0 8:0.0 9:0.0 10:0.175 11:0.8249 12:0.0 
1.0 1.0 0.0 1:0.0 2:0.0 3:0.0 4:0.0 5:0.0 6:0.0 7:0.0 8:0.0 9:0.0 10:0.1747 11:0.8252 12:0.0 
1.0 0.0 0.0 1:0.0 2:0.0 3:0.0 4:8.0E-4 5:1.0E-4 6:4.0E-4 7:0.0 8:0.0 9:0.0 10:0.1487 11:0.85 12:0.0 
1.0 0.0 0.0 1:0.0 2:0.0 3:0.0 4:9.0E-4 5:1.0E-4 6:4.0E-4 7:0.0 8:0.0 9:0.0 10:0.1035 11:0.8951 12:0.0 
1.0 0.0 0.0 1:0.0 2:0.0 3:0.0 4:3.0E-4 5:0.0 6:1.0E-4 7:0.0 8:0.0 9:0.0 10:0.1383 11:0.8612 12:0.0 
1.0 0.0 0.0 1:0.0 2:0.0 3:0.0 4:3.0E-4 5:2.0E-4 6:6.0E-4 7:0.0 8:0.0 9:0.0 10:0.1849 11:0.814 12:0.0 
1.0 0.0 0.0 1:0.0 2:0.0 3:0.0 4:9.0E-4 5:4.0E-4 6:0.001 7:0.0 8:0.0 9:0.0 10:0.1362 11:0.8614 12:0.0 
1.0 0.0 0.0 1:0.0 2:0.0 3:0.0 4:8.0E-4 5:1.0E-4 6:0.001 7:0.0 8:0.0 9:0.0 10:0.1036 11:0.8943 12:0.0 
1.0 0.0 0.0 1:0.0 2:0.0 3:0.0 4:0.0013 5:2.0E-4 6:9.0E-4 7:0.0 8:0.0 9:0.0 10:0.1579 11:0.8396 12:0.0 
1.0 0.0 0.0 1:0.0 2:0.0 3:0.0 4:0.0013 5:3.0E-4 6:8.0E-4 7:0.0 8:0.0 9:0.0 10:0.2019 11:0.7957 12:0.0 
1.0 0.0 0.0 1:0.0 2:0.0 3:0.0 4:9.0E-4 5:5.0E-4 6:0.0011 7:0.0 8:0.0 9:0.0 10:0.2268 11:0.7708 12:0.0 
1.0 0.0 0.0 1:0.0 2:0.0 3:0.0 4:6.0E-4 5:1.0E-4 6:4.0E-4 7:0.0 8:0.0 9:0.0 10:0.3367 11:0.6622 12:0.0 
1.0 1.0 0.0 1:0.0 2:0.0 3:0.0 4:0.0011 5:2.0E-4 6:2.0E-4 7:0.0 8:0.0 9:0.0 10:0.2704 11:0.728 12:0.0 
1.0 0.0 0.0 1:0.0 2:0.0 3:0.0 4:9.0E-4 5:2.0E-4 6:6.0E-4 7:0.0 8:0.0 9:0.0 10:0.1476 11:0.8508 12:0.0 
1.0 0.0 0.0 1:0.0 2:0.0 3:0.0 4:0.0012 5:1.0E-4 6:8.0E-4 7:0.0 8:0.0 9:0.0 10:0.0984 11:0.8994 12:0.0 
1.0 1.0 0.0 1:0.0 2:0.0 3:0.0 4:0.001 5:2.0E-4 6:3.0E-4 7:0.0 8:0.0 9:0.0 10:0.1777 11:0.8208 12:0.0 
1.0 0.0 0.0 1:0.0 2:0.0 3:0.0 4:8.0E-4 5:2.0E-4 6:5.0E-4 7:0.0 8:0.0 9:0.0 10:0.238 11:0.7605 12:0.0 
1.0 0.0 0.0 1:0.0 2:0.0 3:0.0 4:0.001 5:4.0E-4 6:9.0E-4 7:0.0 8:0.0 9:0.0 10:0.2529 11:0.7448 12:0.0 
1.0 0.0 0.0 1:0.0 2:0.0 3:0.0 4:7.0E-4 5:3.0E-4 6:0.001 7:0.0 8:0.0 9:0.0 10:0.258 11:0.74 12:0.0 
1.0 0.0 0.0 1:0.0 2:0.0 3:0.0 4:9.0E-4 5:2.0E-4 6:8.0E-4 7:0.0 8:0.0 9:0.0 10:0.2069 11:0.7912 12:0.0 
1.0 0.0 0.0 1:0.0 2:0.0 3:0.0 4:9.0E-4 5:2.0E-4 6:5.0E-4 7:0.0 8:0.0 9:0.0 10:0.107 11:0.8914 12:0.0 
1.0 0.0 0.0 1:0.0 2:0.0 3:0.0 4:6.0E-4 5:1.0E-4 6:5.0E-4 7:0.0 8:0.0 9:0.0 10:0.0997 11:0.8991 12:0.0 
1.0 0.0 0.0 1:0.0 2:0.0 3:0.0 4:6.0E-4 5:2.0E-4 6:6.0E-4 7:0.0 8:0.0 9:0.0 10:0.1273 11:0.8712 12:0.0 
1.0 1.0 0.0 1:0.0 2:0.0 3:0.0 4:4.0E-4 5:1.0E-4 6:2.0E-4 7:0.0 8:0.0 9:0.0 10:0.1629 11:0.8363 12:0.0 
1.0 0.0 0.0 1:0.0 2:0.0 3:0.0 4:3.0E-4 5:1.0E-4 6:4.0E-4 7:0.0 8:0.0 9:0.0 10:0.1372 11:0.8619 12:0.0 
1.0 0.0 0.0 1:0.0 2:0.0 3:0.0 4:8.0E-4 5:4.0E-4 6:0.0013 7:0.0 8:0.0 9:0.0 10:0.1319 11:0.8656 12:0.0 
1.0 0.0 0.0 1:0.0 2:0.0 3:0.0 4:8.0E-4 5:3.0E-4 6:0.0011 7:0.0 8:0.0 9:0.0 10:0.1423 11:0.8555 12:0.0 
1.0 0.0 0.0 1:0.0 2:0.0 3:0.0 4:4.0E-4 5:2.0E-4 6:6.0E-4 7:0.0 8:0.0 9:0.0 10:0.1434 11:0.8554 12:0.0 
1.0 0.0 0.0 1:0.0 2:0.0 3:0.0 4:6.0E-4 5:2.0E-4 6:6.0E-4 7:0.0 8:0.0 9:0.0 10:0.1147 11:0.8839 12:0.0 
1.0 0.0 0.0 1:0.0 2:0.0 3:0.0 4:0.0011 5:3.0E-4 6:6.0E-4 7:0.0 8:0.0 9:0.0 10:0.1523 11:0.8456 12:0.0 
1.0 0.0 0.0 1:0.0 2:0.0 3:0.0 4:0.0012 5:3.0E-4 6:9.0E-4 7:0.0 8:0.0 9:0.0 10:0.2045 11:0.793 12:0.0 
1.0 0.0 0.0 1:0.0 2:0.0 3:0.0 4:9.0E-4 5:1.0E-4 6:5.0E-4 7:0.0 8:0.0 9:0.0 10:0.1838 11:0.8147 12:0.0 
1.0 1.0 0.0 1:0.0 2:0.0 3:0.0 4:4.0E-4 5:1.0E-4 6:3.0E-4 7:0.0 8:0.0 9:0.0 10:0.1853 11:0.8139 12:0.0 
1.0 0.0 0.0 1:0.0 2:0.0 3:0.0 4:9.0E-4 5:3.0E-4 6:5.0E-4 7:0.0 8:0.0 9:0.0 10:0.1364 11:0.8618 12:0.0 
1.0 0.0 0.0 1:0.0 2:0.0 3:0.0 4:0.0014 5:6.0E-4 6:0.001 7:0.0 8:0.0 9:0.0 10:0.138 11:0.859 12:0.0 
1.0 1.0 0.0 1:0.0 2:0.0 3:0.0 4:0.0021 5:6.0E-4 6:0.0019 7:0.0 8:0.0 9:0.0 10:0.163 11:0.8323 12:0.0 
1.0 0.0 0.0 1:0.0 2:0.0 3:0.0 4:6.0E-4 5:4.0E-4 6:6.0E-4 7:0.0 8:0.0 9:0.0 10:0.2532 11:0.7452 12:0.0 
1.0 1.0 0.0 1:0.0 2:0.0 3:0.0 4:2.0E-4 5:1.0E-4 6:1.0E-4 7:0.0 8:0.0 9:0.0 10:0.2744 11:0.7253 12:0.0 
1.0 0.0 0.0 1:0.0 2:0.0 3:0.0 4:5.0E-4 5:1.0E-4 6:2.0E-4 7:0.0 8:0.0 9:0.0 10:0.2016 11:0.7975 12:0.0 
1.0 1.0 0.0 1:0.0 2:0.0 3:0.0 4:0.0012 5:1.0E-4 6:4.0E-4 7:0.0 8:0.0 9:0.0 10:0.1585 11:0.8397 12:0.0 
1.0 0.0 0.0 1:0.0 2:0.0 3:0.0 4:6.0E-4 5:1.0E-4 6:5.0E-4 7:0.0 8:0.0 9:0.0 10:0.1636 11:0.8352 12:0.0 
1.0 0.0 0.0 1:0.0 2:0.0 3:0.0 4:5.0E-4 5:1.0E-4 6:4.0E-4 7:0.0 8:0.0 9:0.0 10:0.183 11:0.816 12:0.0 
1.0 0.0 0.0 1:0.0 2:0.0 3:0.0 4:3.0E-4 5:1.0E-4 6:3.0E-4 7:0.0 8:0.0 9:0.0 10:0.2412 11:0.758 12:0.0 
1.0 0.0 0.0 1:0.0 2:0.0 3:0.0 4:6.0E-4 5:3.0E-4 6:7.0E-4 7:0.0 8:0.0 9:0.0 10:0.2397 11:0.7587 12:0.0 
1.0 0.0 0.0 1:0.0 2:0.0 3:0.0 4:8.0E-4 5:3.0E-4 6:6.0E-4 7:0.0 8:0.0 9:0.0 10:0.3131 11:0.6852 12:0.0 
1.0 1.0 0.0 1:0.0 2:0.0 3:0.0 4:0.0013 5:3.0E-4 6:5.0E-4 7:0.0 8:0.0 9:0.0 10:0.2663 11:0.7315 12:0.0 
1.0 0.0 0.0 1:0.0 2:0.0 3:0.0 4:8.0E-4 5:1.0E-4 6:7.0E-4 7:0.0 8:0.0 9:0.0 10:0.138 11:0.8603 12:0.0 
1.0 0.0 0.0 1:0.0 2:0.0 3:0.0 4:6.0E-4 5:1.0E-4 6:5.0E-4 7:0.0 8:0.0 9:0.0 10:0.1492 11:0.8495 12:0.0 
1.0 0.0 0.0 1:0.0 2:0.0 3:0.0 4:4.0E-4 5:1.0E-4 6:3.0E-4 7:0.0 8:0.0 9:0.0 10:0.1519 11:0.8472 12:0.0 
1.0 1.0 0.0 1:0.0 2:0.0 3:0.0 4:2.0E-4 5:0.0 6:0.0 7:0.0 8:0.0 9:0.0 10:0.1609 11:0.8389 12:0.0 
1.0 0.0 0.0 1:0.0 2:0.0 3:0.0 4:2.0E-4 5:1.0E-4 6:1.0E-4 7:0.0 8:0.0 9:0.0 10:0.1327 11:0.8668 12:0.0 
1.0 1.0 0.0 1:0.0 2:0.0 3:0.0 4:0.0 5:0.0 6:0.0 7:0.0 8:0.0 9:0.0 10:0.1257 11:0.8743 12:0.0 
1.0 0.0 0.0 1:0.0 2:0.0 3:0.0 4:0.0 5:0.0 6:0.0 7:0.0 8:0.0 9:0.0 10:0.151 11:0.8489 12:0.0 
1.0 1.0 0.0 1:0.0 2:0.0 3:0.0 4:0.0012 5:6.0E-4 6:0.0018 7:0.0 8:0.0 9:0.0 10:0.1882 11:0.8081 12:0.0 
1.0 1.0 0.0 1:0.0 2:0.0 3:0.0 4:0.0017 5:7.0E-4 6:0.0022 7:0.0 8:0.0 9:0.0 10:0.211 11:0.7844 12:0.0 
1.0 0.0 0.0 1:0.0 2:0.0 3:0.0 4:0.0011 5:2.0E-4 6:9.0E-4 7:0.0 8:0.0 9:0.0 10:0.2166 11:0.7812 12:0.0 
1.0 0.0 0.0 1:0.0 2:0.0 3:0.0 4:7.0E-4 5:1.0E-4 6:8.0E-4 7:0.0 8:0.0 9:0.0 10:0.1679 11:0.8305 12:0.0 
1.0 1.0 0.0 1:0.0 2:0.0 3:0.0 4:0.0013 5:0.001 6:0.0012 7:0.0 8:0.0 9:0.0 10:0.1105 11:0.886 12:0.0 
1.0 1.0 0.0 1:0.0 2:0.0 3:0.0 4:0.0015 5:0.001 6:0.0015 7:0.0 8:0.0 9:0.0 10:0.154 11:0.8419 12:0.0 
1.0 1.0 0.0 1:0.0 2:0.0 3:0.0 4:0.0011 5:5.0E-4 6:0.0017 7:0.0 8:0.0 9:0.0 10:0.1428 11:0.8539 12:0.0 
1.0 0.0 0.0 1:0.0 2:0.0 3:0.0 4:8.0E-4 5:3.0E-4 6:9.0E-4 7:0.0 8:0.0 9:0.0 10:0.1008 11:0.8972 12:0.0 
1.0 0.0 0.0 1:0.0 2:0.0 3:0.0 4:7.0E-4 5:2.0E-4 6:8.0E-4 7:0.0 8:0.0 9:0.0 10:0.1343 11:0.864 12:0.0 
1.0 0.0 0.0 1:0.0 2:0.0 3:0.0 4:8.0E-4 5:4.0E-4 6:9.0E-4 7:0.0 8:0.0 9:0.0 10:0.2094 11:0.7885 12:0.0 
1.0 0.0 0.0 1:0.0 2:0.0 3:0.0 4:9.0E-4 5:2.0E-4 6:7.0E-4 7:0.0 8:0.0 9:0.0 10:0.3475 11:0.6506 12:0.0 
0.0 1.0 0.0 1:0.0 2:0.0 3:0.0 4:1.0E-4 5:1.0E-4 6:3.0E-4 7:0.0 8:0.0 9:0.0 10:0.655 11:0.3445 12:0.0 
0.0 1.0 0.0 1:0.0 2:0.0 3:0.0 4:2.0E-4 5:2.0E-4 6:5.0E-4 7:0.0 8:0.0 9:0.0 10:0.6506 11:0.3485 12:0.0 
0.0 1.0 0.0 1:0.0 2:0.0 3:0.0 4:0.0 5:0.0 6:0.0 7:0.0 8:0.0 9:0.0 10:0.4184 11:0.5816 12:0.0 
1.0 1.0 0.0 1:0.0 2:0.0 3:0.0 4:2.0E-4 5:0.0 6:1.0E-4 7:0.0 8:0.0 9:0.0 10:0.3462 11:0.6534 12:0.0 
1.0 1.0 0.0 1:0.0 2:0.0 3:0.0 4:2.0E-4 5:0.0 6:1.0E-4 7:0.0 8:0.0 9:0.0 10:0.2585 11:0.7411 12:0.0 
1.0 0.0 0.0 1:0.0 2:0.0 3:0.0 4:8.0E-4 5:4.0E-4 6:9.0E-4 7:0.0 8:0.0 9:0.0 10:0.3036 11:0.6943 12:0.0 
1.0 0.0 0.0 1:0.0 2:0.0 3:0.0 4:0.001 5:6.0E-4 6:0.0014 7:0.0 8:0.0 9:0.0 10:0.3777 11:0.6193 12:0.0 
1.0 0.0 0.0 1:0.0 2:0.0 3:0.0 4:0.001 5:5.0E-4 6:0.001 7:0.0 8:0.0 9:0.0 10:0.3575 11:0.6401 12:0.0 
1.0 0.0 0.0 1:0.0 2:0.0 3:0.0 4:0.0016 5:5.0E-4 6:0.002 7:0.0 8:0.0 9:0.0 10:0.2738 11:0.7222 12:0.0 
1.0 0.0 0.0 1:0.0 2:0.0 3:0.0 4:9.0E-4 5:1.0E-4 6:8.0E-4 7:0.0 8:0.0 9:0.0 10:0.1857 11:0.8123 12:0.0 
1.0 0.0 0.0 1:0.0 2:0.0 3:0.0 4:3.0E-4 5:2.0E-4 6:8.0E-4 7:0.0 8:0.0 9:0.0 10:0.1585 11:0.8403 12:0.0 
1.0 0.0 0.0 1:0.0 2:0.0 3:0.0 4:3.0E-4 5:0.0 6:3.0E-4 7:0.0 8:0.0 9:0.0 10:0.1955 11:0.8038 12:0.0 
1.0 0.0 0.0 1:0.0 2:0.0 3:0.0 4:1.0E-4 5:2.0E-4 6:2.0E-4 7:0.0 8:0.0 9:0.0 10:0.2368 11:0.7628 12:0.0 
1.0 0.0 0.0 1:0.0 2:0.0 3:0.0 4:8.0E-4 5:3.0E-4 6:7.0E-4 7:0.0 8:0.0 9:0.0 10:0.188 11:0.8102 12:0.0 
1.0 0.0 0.0 1:0.0 2:0.0 3:0.0 4:9.0E-4 5:1.0E-4 6:6.0E-4 7:0.0 8:0.0 9:0.0 10:0.1144 11:0.884 12:0.0 
1.0 0.0 0.0 1:0.0 2:0.0 3:0.0 4:5.0E-4 5:1.0E-4 6:5.0E-4 7:0.0 8:0.0 9:0.0 10:0.1176 11:0.8814 12:0.0 
1.0 1.0 0.0 1:0.0 2:0.0 3:0.0 4:0.0022 5:0.0011 6:0.0011 7:0.0 8:0.0 9:0.0 10:0.3306 11:0.6649 12:0.0 
0.0 1.0 0.0 1:0.0 2:0.0 3:0.0 4:0.0016 5:9.0E-4 6:8.0E-4 7:0.0 8:0.0 9:0.0 10:0.7038 11:0.2929 12:0.0 
0.0 1.0 0.0 1:0.0 2:0.0 3:0.0 4:2.0E-4 5:1.0E-4 6:2.0E-4 7:0.0 8:0.0 9:0.0 10:0.8895 11:0.11 12:0.0 
0.0 1.0 0.0 1:0.0 2:0.0 3:0.0 4:0.001 5:9.0E-4 6:6.0E-4 7:0.0 8:0.0 9:0.0 10:0.6979 11:0.2995 12:0.0 
1.0 1.0 0.0 1:0.0 2:0.0 3:0.0 4:3.0E-4 5:2.0E-4 6:1.0E-4 7:0.0 8:0.0 9:0.0 10:0.2865 11:0.7128 12:0.0 
1.0 1.0 0.0 1:0.0 2:0.0 3:0.0 4:1.0E-4 5:0.0 6:1.0E-4 7:0.0 8:0.0 9:0.0 10:0.2424 11:0.7573 12:0.0 
1.0 0.0 0.0 1:0.0 2:0.0 3:0.0 4:1.0E-4 5:0.0 6:1.0E-4 7:0.0 8:0.0 9:0.0 10:0.215 11:0.7848 12:0.0 
1.0 1.0 0.0 1:0.0 2:0.0 3:0.0 4:5.0E-4 5:1.0E-4 6:2.0E-4 7:0.0 8:0.0 9:0.0 10:0.2351 11:0.764 12:0.0 
1.0 0.0 0.0 1:0.0 2:0.0 3:0.0 4:0.001 5:4.0E-4 6:7.0E-4 7:0.0 8:0.0 9:0.0 10:0.29 11:0.7078 12:0.0 
1.0 0.0 0.0 1:0.0 2:0.0 3:0.0 4:0.001 5:3.0E-4 6:9.0E-4 7:0.0 8:0.0 9:0.0 10:0.3169 11:0.6808 12:0.0 
1.0 0.0 0.0 1:0.0 2:0.0 3:0.0 4:0.0011 5:5.0E-4 6:0.0013 7:0.0 8:0.0 9:0.0 10:0.2655 11:0.7317 12:0.0 
1.0 1.0 0.0 1:0.0 2:0.0 3:0.0 4:8.0E-4 5:3.0E-4 6:4.0E-4 7:0.0 8:0.0 9:0.0 10:0.2836 11:0.7149 12:0.0 
1.0 0.0 0.0 1:0.0 2:0.0 3:0.0 4:0.0017 5:2.0E-4 6:0.001 7:0.0 8:0.0 9:0.0 10:0.2156 11:0.7816 12:0.0 
1.0 0.0 0.0 1:0.0 2:0.0 3:0.0 4:0.0013 5:3.0E-4 6:7.0E-4 7:0.0 8:0.0 9:0.0 10:0.132 11:0.8657 12:0.0 
1.0 0.0 0.0 1:0.0 2:0.0 3:0.0 4:6.0E-4 5:2.0E-4 6:6.0E-4 7:0.0 8:0.0 9:0.0 10:0.1625 11:0.8361 12:0.0 
1.0 0.0 0.0 1:0.0 2:0.0 3:0.0 4:3.0E-4 5:1.0E-4 6:3.0E-4 7:0.0 8:0.0 9:0.0 10:0.1657 11:0.8336 12:0.0 
1.0 1.0 0.0 1:0.0 2:0.0 3:0.0 4:2.0E-4 5:0.0 6:1.0E-4 7:0.0 8:0.0 9:0.0 10:0.183 11:0.8167 12:0.0 
1.0 1.0 0.0 1:0.0 2:0.0 3:0.0 4:3.0E-4 5:1.0E-4 6:1.0E-4 7:0.0 8:0.0 9:0.0 10:0.2215 11:0.778 12:0.0 
1.0 0.0 0.0 1:0.0 2:0.0 3:0.0 4:4.0E-4 5:2.0E-4 6:5.0E-4 7:0.0 8:0.0 9:0.0 10:0.2521 11:0.7468 12:0.0 
1.0 0.0 0.0 1:0.0 2:0.0 3:0.0 4:0.0013 5:3.0E-4 6:0.001 7:0.0 8:0.0 9:0.0 10:0.3237 11:0.6736 12:0.0 
1.0 0.0 0.0 1:0.0 2:0.0 3:0.0 4:0.0014 5:3.0E-4 6:0.0015 7:0.0 8:0.0 9:0.0 10:0.2652 11:0.7317 12:0.0 
1.0 0.0 0.0 1:0.0 2:0.0 3:0.0 4:6.0E-4 5:2.0E-4 6:7.0E-4 7:0.0 8:0.0 9:0.0 10:0.194 11:0.8044 12:0.0 
1.0 0.0 0.0 1:0.0 2:0.0 3:0.0 4:0.001 5:3.0E-4 6:0.0012 7:0.0 8:0.0 9:0.0 10:0.2065 11:0.791 12:0.0 
1.0 0.0 0.0 1:0.0 2:0.0 3:0.0 4:0.0012 5:5.0E-4 6:0.0011 7:0.0 8:0.0 9:0.0 10:0.3755 11:0.6217 12:0.0 
0.0 1.0 0.0 1:0.0 2:0.0 3:0.0 4:0.0 5:0.0 6:2.0E-4 7:0.0 8:0.0 9:0.0 10:0.4212 11:0.5785 12:0.0 
0.0 1.0 0.0 1:0.0 2:0.0 3:0.0 4:0.0 5:0.0 6:0.0 7:0.0 8:0.0 9:0.0 10:0.4081 11:0.5919 12:0.0 
1.0 1.0 0.0 1:0.0 2:0.0 3:0.0 4:5.0E-4 5:2.0E-4 6:4.0E-4 7:0.0 8:0.0 9:0.0 10:0.3213 11:0.6776 12:0.0 
1.0 0.0 0.0 1:0.0 2:0.0 3:0.0 4:2.0E-4 5:1.0E-4 6:4.0E-4 7:0.0 8:0.0 9:0.0 10:0.3101 11:0.6891 12:0.0 
1.0 1.0 0.0 1:0.0 2:0.0 3:0.0 4:1.0E-4 5:0.0 6:2.0E-4 7:0.0 8:0.0 9:0.0 10:0.3302 11:0.6695 12:0.0 
1.0 1.0 0.0 1:0.0 2:0.0 3:0.0 4:2.0E-4 5:1.0E-4 6:3.0E-4 7:0.0 8:0.0 9:0.0 10:0.3147 11:0.6847 12:0.0 
1.0 0.0 0.0 1:0.0 2:0.0 3:0.0 4:9.0E-4 5:5.0E-4 6:8.0E-4 7:0.0 8:0.0 9:0.0 10:0.2762 11:0.7215 12:0.0 
1.0 0.0 0.0 1:0.0 2:0.0 3:0.0 4:9.0E-4 5:4.0E-4 6:9.0E-4 7:0.0 8:0.0 9:0.0 10:0.2136 11:0.7841 12:0.0 
1.0 1.0 0.0 1:0.0 2:0.0 3:0.0 4:2.0E-4 5:0.0 6:1.0E-4 7:0.0 8:0.0 9:0.0 10:0.167 11:0.8327 12:0.0 
1.0 1.0 0.0 1:0.0 2:0.0 3:0.0 4:0.0 5:0.0 6:1.0E-4 7:0.0 8:0.0 9:0.0 10:0.1843 11:0.8156 12:0.0 
1.0 0.0 0.0 1:0.0 2:0.0 3:0.0 4:1.0E-4 5:0.0 6:3.0E-4 7:0.0 8:0.0 9:0.0 10:0.1832 11:0.8163 12:0.0 
1.0 0.0 0.0 1:0.0 2:0.0 3:0.0 4:1.0E-4 5:0.0 6:3.0E-4 7:0.0 8:0.0 9:0.0 10:0.1818 11:0.8178 12:0.0 
1.0 0.0 0.0 1:0.0 2:0.0 3:0.0 4:0.0 5:0.0 6:1.0E-4 7:0.0 8:0.0 9:0.0 10:0.1912 11:0.8087 12:0.0 
1.0 0.0 0.0 1:0.0 2:0.0 3:0.0 4:3.0E-4 5:1.0E-4 6:3.0E-4 7:0.0 8:0.0 9:0.0 10:0.2225 11:0.7768 12:0.0 
1.0 0.0 0.0 1:0.0 2:0.0 3:0.0 4:6.0E-4 5:4.0E-4 6:6.0E-4 7:0.0 8:0.0 9:0.0 10:0.1996 11:0.7989 12:0.0 
1.0 0.0 0.0 1:0.0 2:0.0 3:0.0 4:0.0012 5:5.0E-4 6:0.001 7:0.0 8:0.0 9:0.0 10:0.169 11:0.8284 12:0.0 
1.0 0.0 0.0 1:0.0 2:0.0 3:0.0 4:0.0011 5:4.0E-4 6:0.0016 7:0.0 8:0.0 9:0.0 10:0.1368 11:0.8601 12:0.0 
1.0 0.0 0.0 1:0.0 2:0.0 3:0.0 4:0.0019 5:0.0012 6:0.0022 7:0.0 8:0.0 9:0.0 10:0.3101 11:0.6846 12:0.0 
0.0 1.0 0.0 1:0.0 2:0.0 3:0.0 4:0.0023 5:0.0023 6:0.0017 7:0.0 8:0.0 9:0.0 10:0.623 11:0.3707 12:0.0 
0.0 1.0 0.0 1:0.0 2:0.0 3:0.0 4:0.0026 5:0.0025 6:0.0014 7:0.0 8:0.0 9:0.0 10:0.5173 11:0.4761 12:0.0 
1.0 0.0 0.0 1:0.0 2:0.0 3:0.0 4:9.0E-4 5:9.0E-4 6:0.0017 7:0.0 8:0.0 9:0.0 10:0.3142 11:0.6823 12:0.0 
1.0 0.0 0.0 1:0.0 2:0.0 3:0.0 4:0.0018 5:5.0E-4 6:0.0019 7:0.0 8:0.0 9:0.0 10:0.2481 11:0.7477 12:0.0 
1.0 0.0 0.0 1:0.0 2:0.0 3:0.0 4:9.0E-4 5:2.0E-4 6:4.0E-4 7:0.0 8:0.0 9:0.0 10:0.2154 11:0.7831 12:0.0 
1.0 0.0 0.0 1:0.0 2:0.0 3:0.0 4:7.0E-4 5:2.0E-4 6:6.0E-4 7:0.0 8:0.0 9:0.0 10:0.2722 11:0.7263 12:0.0 
0.0 1.0 0.0 1:0.0 2:0.0 3:0.0 4:1.0E-4 5:1.0E-4 6:5.0E-4 7:0.0 8:0.0 9:0.0 10:0.7679 11:0.2313 12:0.0 
0.0 1.0 0.0 1:0.0 2:0.0 3:0.0 4:2.0E-4 5:2.0E-4 6:1.0E-4 7:0.0 8:0.0 9:0.0 10:0.647 11:0.3526 12:0.0 
1.0 0.0 0.0 1:0.0 2:0.0 3:0.0 4:0.001 5:4.0E-4 6:0.001 7:0.0 8:0.0 9:0.0 10:0.3956 11:0.602 12:0.0 
1.0 0.0 0.0 1:0.0 2:0.0 3:0.0 4:0.0013 5:3.0E-4 6:9.0E-4 7:0.0 8:0.0 9:0.0 10:0.2098 11:0.7877 12:0.0 
1.0 0.0 0.0 1:0.0 2:0.0 3:0.0 4:7.0E-4 5:3.0E-4 6:9.0E-4 7:0.0 8:0.0 9:0.0 10:0.2045 11:0.7936 12:0.0 
1.0 0.0 0.0 1:0.0 2:0.0 3:0.0 4:6.0E-4 5:2.0E-4 6:7.0E-4 7:0.0 8:0.0 9:0.0 10:0.2041 11:0.7944 12:0.0 
1.0 0.0 0.0 1:0.0 2:0.0 3:0.0 4:6.0E-4 5:0.0 6:3.0E-4 7:0.0 8:0.0 9:0.0 10:0.1785 11:0.8206 12:0.0 
1.0 0.0 0.0 1:0.0 2:0.0 3:0.0 4:3.0E-4 5:0.0 6:4.0E-4 7:0.0 8:0.0 9:0.0 10:0.1915 11:0.8077 12:0.0 
1.0 0.0 0.0 1:0.0 2:0.0 3:0.0 4:6.0E-4 5:1.0E-4 6:7.0E-4 7:0.0 8:0.0 9:0.0 10:0.1767 11:0.8219 12:0.0 
1.0 0.0 0.0 1:0.0 2:0.0 3:0.0 4:3.0E-4 5:0.0 6:3.0E-4 7:0.0 8:0.0 9:0.0 10:0.1895 11:0.8098 12:0.0 
1.0 0.0 0.0 1:0.0 2:0.0 3:0.0 4:8.0E-4 5:3.0E-4 6:6.0E-4 7:0.0 8:0.0 9:0.0 10:0.1595 11:0.8389 12:0.0 
1.0 0.0 0.0 1:0.0 2:0.0 3:0.0 4:0.002 5:8.0E-4 6:9.0E-4 7:0.0 8:0.0 9:0.0 10:0.3622 11:0.6341 12:0.0 
0.0 1.0 0.0 1:0.0 2:0.0 3:0.0 4:8.0E-4 5:3.0E-4 6:0.001 7:0.0 8:0.0 9:0.0 10:0.6599 11:0.338 12:0.0 
0.0 1.0 0.0 1:0.0 2:0.0 3:0.0 4:4.0E-4 5:2.0E-4 6:6.0E-4 7:0.0 8:0.0 9:0.0 10:0.7501 11:0.2488 12:0.0 
0.0 1.0 0.0 1:0.0 2:0.0 3:0.0 4:5.0E-4 5:1.0E-4 6:5.0E-4 7:0.0 8:0.0 9:0.0 10:0.707 11:0.2919 12:0.0 
0.0 1.0 0.0 1:0.0 2:0.0 3:0.0 4:3.0E-4 5:2.0E-4 6:3.0E-4 7:0.0 8:0.0 9:0.0 10:0.6775 11:0.3217 12:0.0 
1.0 1.0 0.0 1:0.0 2:0.0 3:0.0 4:0.0014 5:6.0E-4 6:6.0E-4 7:0.0 8:0.0 9:0.0 10:0.2974 11:0.7001 12:0.0 
1.0 0.0 0.0 1:0.0 2:0.0 3:0.0 4:0.001 5:2.0E-4 6:6.0E-4 7:0.0 8:0.0 9:0.0 10:0.3081 11:0.6901 12:0.0 
1.0 0.0 0.0 1:0.0 2:0.0 3:0.0 4:0.0011 5:3.0E-4 6:5.0E-4 7:0.0 8:0.0 9:0.0 10:0.3708 11:0.6274 12:0.0 
1.0 0.0 0.0 1:0.0 2:0.0 3:0.0 4:8.0E-4 5:2.0E-4 6:7.0E-4 7:0.0 8:0.0 9:0.0 10:0.2074 11:0.7909 12:0.0 
0.0 1.0 0.0 1:0.0 2:0.0 3:0.0 4:0.0025 5:9.0E-4 6:9.0E-4 7:0.0 8:0.0 9:0.0 10:0.4546 11:0.541 12:0.0 
0.0 1.0 0.0 1:0.0 2:0.0 3:0.0 4:0.0011 5:7.0E-4 6:7.0E-4 7:0.0 8:0.0 9:0.0 10:0.7474 11:0.2501 12:0.0 
0.0 1.0 0.0 1:0.0 2:0.0 3:0.0 4:1.0E-4 5:1.0E-4 6:1.0E-4 7:0.0 8:0.0 9:0.0 10:0.8435 11:0.1563 12:0.0 
0.0 1.0 0.0 1:0.0 2:0.0 3:0.0 4:1.0E-4 5:1.0E-4 6:1.0E-4 7:0.0 8:0.0 9:0.0 10:0.823 11:0.1768 12:0.0 
0.0 1.0 0.0 1:0.0 2:0.0 3:0.0 4:0.001 5:4.0E-4 6:0.0012 7:0.0 8:0.0 9:0.0 10:0.6461 11:0.3513 12:0.0 
0.0 1.0 0.0 1:0.0 2:0.0 3:0.0 4:2.0E-4 5:0.0 6:2.0E-4 7:0.0 8:0.0 9:0.0 10:0.3865 11:0.613 12:0.0 
0.0 1.0 0.0 1:0.0 2:0.0 3:0.0 4:1.0E-4 5:0.0 6:2.0E-4 7:0.0 8:0.0 9:0.0 10:0.3761 11:0.6235 12:0.0 
1.0 0.0 0.0 1:0.0 2:0.0 3:0.0 4:3.0E-4 5:1.0E-4 6:4.0E-4 7:0.0 8:0.0 9:0.0 10:0.2982 11:0.7011 12:0.0 
1.0 0.0 0.0 1:0.0 2:0.0 3:0.0 4:4.0E-4 5:1.0E-4 6:1.0E-4 7:0.0 8:0.0 9:0.0 10:0.3514 11:0.6481 12:0.0 
0.0 1.0 0.0 1:0.0 2:0.0 3:0.0 4:4.0E-4 5:3.0E-4 6:4.0E-4 7:0.0 8:0.0 9:0.0 10:0.82 11:0.1789 12:0.0 
0.0 1.0 1.0 1:0.0 2:0.0 3:0.0 4:2.0E-4 5:2.0E-4 6:2.0E-4 7:0.0 8:0.0 9:0.0 10:0.93 11:0.0694 12:0.0 
0.0 1.0 0.0 1:0.0 2:0.0 3:0.0 4:0.0017 5:0.0017 6:0.0012 7:0.0 8:0.0 9:0.0 10:0.7168 11:0.2786 12:0.0 
1.0 0.0 0.0 1:0.0 2:0.0 3:0.0 4:0.0015 5:9.0E-4 6:0.0012 7:0.0 8:0.0 9:0.0 10:0.2996 11:0.6967 12:0.0 
1.0 0.0 0.0 1:0.0 2:0.0 3:0.0 4:0.0013 5:4.0E-4 6:9.0E-4 7:0.0 8:0.0 9:0.0 10:0.257 11:0.7404 12:0.0 
1.0 1.0 0.0 1:0.0 2:0.0 3:0.0 4:0.0021 5:0.0016 6:0.0043 7:0.0 8:0.0 9:0.0 10:0.2771 11:0.7149 12:0.0 
1.0 1.0 0.0 1:0.0 2:0.0 3:0.0 4:0.0021 5:0.0022 6:0.0049 7:0.0 8:0.0 9:0.0 10:0.3017 11:0.689 12:0.0 
0.0 1.0 0.0 1:0.0 2:0.0 3:0.0 4:0.0011 5:5.0E-4 6:6.0E-4 7:0.0 8:0.0 9:0.0 10:0.6758 11:0.322 12:0.0 
0.0 1.0 0.0 1:0.0 2:0.0 3:0.0 4:0.001 5:6.0E-4 6:0.001 7:0.0 8:0.0 9:0.0 10:0.7335 11:0.2638 12:0.0 
1.0 0.0 0.0 1:0.0 2:0.0 3:0.0 4:0.0012 5:4.0E-4 6:0.0014 7:0.0 8:0.0 9:0.0 10:0.1922 11:0.8047 12:0.0 
1.0 0.0 0.0 1:0.0 2:0.0 3:0.0 4:9.0E-4 5:4.0E-4 6:0.001 7:0.0 8:0.0 9:0.0 10:0.2243 11:0.7734 12:0.0 
1.0 0.0 0.0 1:0.0 2:0.0 3:0.0 4:0.0012 5:4.0E-4 6:9.0E-4 7:0.0 8:0.0 9:0.0 10:0.1936 11:0.8039 12:0.0 
1.0 0.0 0.0 1:0.0 2:0.0 3:0.0 4:0.0021 5:6.0E-4 6:0.0013 7:0.0 8:0.0 9:0.0 10:0.3473 11:0.6488 12:0.0 
0.0 1.0 0.0 1:0.0 2:0.0 3:0.0 4:5.0E-4 5:3.0E-4 6:9.0E-4 7:0.0 8:0.0 9:0.0 10:0.6871 11:0.3113 12:0.0 
0.0 1.0 0.0 1:0.0 2:0.0 3:0.0 4:3.0E-4 5:2.0E-4 6:8.0E-4 7:0.0 8:0.0 9:0.0 10:0.7339 11:0.2648 12:0.0 
1.0 0.0 0.0 1:0.0 2:0.0 3:0.0 4:0.0011 5:4.0E-4 6:0.0011 7:0.0 8:0.0 9:0.0 10:0.3314 11:0.666 12:0.0 
1.0 0.0 0.0 1:0.0 2:0.0 3:0.0 4:0.0016 5:7.0E-4 6:0.0014 7:0.0 8:0.0 9:0.0 10:0.253 11:0.7432 12:0.0 
1.0 0.0 0.0 1:0.0 2:0.0 3:0.0 4:0.0016 5:4.0E-4 6:0.0011 7:0.0 8:0.0 9:0.0 10:0.2757 11:0.7212 12:0.0 
1.0 0.0 0.0 1:0.0 2:0.0 3:0.0 4:0.0016 5:3.0E-4 6:0.001 7:0.0 8:0.0 9:0.0 10:0.2918 11:0.7053 12:0.0 
1.0 1.0 0.0 1:0.0 2:0.0 3:0.0 4:7.0E-4 5:2.0E-4 6:4.0E-4 7:0.0 8:0.0 9:0.0 10:0.2588 11:0.7398 12:0.0 
1.0 0.0 0.0 1:0.0 2:0.0 3:0.0 4:5.0E-4 5:1.0E-4 6:6.0E-4 7:0.0 8:0.0 9:0.0 10:0.1906 11:0.8082 12:0.0 
1.0 0.0 0.0 1:0.0 2:0.0 3:0.0 4:8.0E-4 5:1.0E-4 6:7.0E-4 7:0.0 8:0.0 9:0.0 10:0.1652 11:0.8332 12:0.0 
1.0 1.0 0.0 1:0.0 2:0.0 3:0.0 4:4.0E-4 5:1.0E-4 6:4.0E-4 7:0.0 8:0.0 9:0.0 10:0.2655 11:0.7335 12:0.0 
1.0 0.0 0.0 1:0.0 2:0.0 3:0.0 4:4.0E-4 5:1.0E-4 6:4.0E-4 7:0.0 8:0.0 9:0.0 10:0.2588 11:0.7403 12:0.0 
1.0 0.0 0.0 1:0.0 2:0.0 3:0.0 4:0.0011 5:2.0E-4 6:5.0E-4 7:0.0 8:0.0 9:0.0 10:0.2212 11:0.7769 12:0.0 
1.0 0.0 0.0 1:0.0 2:0.0 3:0.0 4:0.0013 5:4.0E-4 6:7.0E-4 7:0.0 8:0.0 9:0.0 10:0.2035 11:0.7941 12:0.0 
1.0 0.0 0.0 1:0.0 2:0.0 3:0.0 4:9.0E-4 5:3.0E-4 6:6.0E-4 7:0.0 8:0.0 9:0.0 10:0.0968 11:0.9014 12:0.0 
1.0 0.0 0.0 1:0.0 2:0.0 3:0.0 4:3.0E-4 5:0.0 6:2.0E-4 7:0.0 8:0.0 9:0.0 10:0.1247 11:0.8749 12:0.0 
1.0 0.0 0.0 1:0.0 2:0.0 3:0.0 4:6.0E-4 5:2.0E-4 6:0.001 7:0.0 8:0.0 9:0.0 10:0.183 11:0.8152 12:0.0 
1.0 0.0 0.0 1:0.0 2:0.0 3:0.0 4:0.0011 5:4.0E-4 6:0.0014 7:0.0 8:0.0 9:0.0 10:0.2289 11:0.7683 12:0.0 
1.0 0.0 0.0 1:0.0 2:0.0 3:0.0 4:7.0E-4 5:3.0E-4 6:8.0E-4 7:0.0 8:0.0 9:0.0 10:0.2722 11:0.7261 12:0.0 
1.0 0.0 0.0 1:0.0 2:0.0 3:0.0 4:3.0E-4 5:1.0E-4 6:4.0E-4 7:0.0 8:0.0 9:0.0 10:0.2647 11:0.7345 12:0.0 
1.0 1.0 0.0 1:0.0 2:0.0 3:0.0 4:0.0 5:0.0 6:0.0 7:0.0 8:0.0 9:0.0 10:0.2391 11:0.7608 12:0.0 
1.0 0.0 0.0 1:0.0 2:0.0 3:0.0 4:1.0E-4 5:0.0 6:2.0E-4 7:0.0 8:0.0 9:0.0 10:0.2541 11:0.7456 12:0.0 
1.0 0.0 0.0 1:0.0 2:0.0 3:0.0 4:0.0012 5:4.0E-4 6:0.001 7:0.0 8:0.0 9:0.0 10:0.3662 11:0.6312 12:0.0 
1.0 0.0 0.0 1:0.0 2:0.0 3:0.0 4:3.0E-4 5:0.0 6:2.0E-4 7:0.0 8:0.0 9:0.0 10:0.235 11:0.7645 12:0.0 
1.0 1.0 0.0 1:0.0 2:0.0 3:0.0 4:0.0 5:0.0 6:1.0E-4 7:0.0 8:0.0 9:0.0 10:0.1909 11:0.8089 12:0.0 
1.0 0.0 0.0 1:0.0 2:0.0 3:0.0 4:7.0E-4 5:2.0E-4 6:3.0E-4 7:0.0 8:0.0 9:0.0 10:0.2527 11:0.7461 12:0.0 
1.0 0.0 0.0 1:0.0 2:0.0 3:0.0 4:6.0E-4 5:2.0E-4 6:4.0E-4 7:0.0 8:0.0 9:0.0 10:0.3372 11:0.6616 12:0.0 
1.0 0.0 0.0 1:0.0 2:0.0 3:0.0 4:7.0E-4 5:3.0E-4 6:8.0E-4 7:0.0 8:0.0 9:0.0 10:0.2437 11:0.7544 12:0.0 
1.0 0.0 0.0 1:0.0 2:0.0 3:0.0 4:6.0E-4 5:3.0E-4 6:0.0011 7:0.0 8:0.0 9:0.0 10:0.1975 11:0.8004 12:0.0 
1.0 0.0 0.0 1:0.0 2:0.0 3:0.0 4:5.0E-4 5:3.0E-4 6:0.0011 7:0.0 8:0.0 9:0.0 10:0.1981 11:0.8 12:0.0 
1.0 0.0 0.0 1:0.0 2:0.0 3:0.0 4:5.0E-4 5:2.0E-4 6:3.0E-4 7:0.0 8:0.0 9:0.0 10:0.2337 11:0.7653 12:0.0 
1.0 1.0 0.0 1:0.0 2:0.0 3:0.0 4:0.0014 5:6.0E-4 6:6.0E-4 7:0.0 8:0.0 9:0.0 10:0.3882 11:0.6092 12:0.0 
0.0 0.18373620680675493 0.0 1:0.0 2:0.0 3:0.0 4:0.0018 5:0.0011 6:0.002 7:0.0 8:0.0 9:0.0 10:0.5949 11:0.4002 12:0.0 
0.0 1.0 0.0 1:0.0 2:0.0 3:0.0 4:0.0012 5:6.0E-4 6:6.0E-4 7:0.0 8:0.0 9:0.0 10:0.7245 11:0.2731 12:0.0 
0.0 1.0 0.0 1:0.0 2:0.0 3:0.0 4:2.0E-4 5:0.0 6:1.0E-4 7:0.0 8:0.0 9:0.0 10:0.6722 11:0.3275 12:0.0 
0.0 1.0 0.0 1:0.0 2:0.0 3:0.0 4:2.0E-4 5:1.0E-4 6:1.0E-4 7:0.0 8:0.0 9:0.0 10:0.6818 11:0.3179 12:0.0 
0.0 1.0 0.0 1:0.0 2:0.0 3:0.0 4:6.0E-4 5:5.0E-4 6:3.0E-4 7:0.0 8:0.0 9:0.0 10:0.8004 11:0.1982 12:0.0 
0.0 1.0 0.0 1:0.0 2:0.0 3:0.0 4:4.0E-4 5:5.0E-4 6:1.0E-4 7:0.0 8:0.0 9:0.0 10:0.8531 11:0.1459 12:0.0 
1.0 0.0 0.0 1:0.0 2:0.0 3:0.0 4:0.0016 5:3.0E-4 6:0.001 7:0.0 8:0.0 9:0.0 10:0.1668 11:0.8303 12:0.0 
1.0 0.0 0.0 1:0.0 2:0.0 3:0.0 4:0.0018 5:4.0E-4 6:0.001 7:0.0 8:0.0 9:0.0 10:0.2334 11:0.7634 12:0.0 
1.0 0.0 0.0 1:0.0 2:0.0 3:0.0 4:0.0011 5:4.0E-4 6:0.0013 7:0.0 8:0.0 9:0.0 10:0.1854 11:0.8118 12:0.0 
1.0 0.0 0.0 1:0.0 2:0.0 3:0.0 4:0.0011 5:3.0E-4 6:0.0012 7:0.0 8:0.0 9:0.0 10:0.2109 11:0.7865 12:0.0 
1.0 0.0 0.0 1:0.0 2:0.0 3:0.0 4:0.001 5:4.0E-4 6:0.0018 7:0.0 8:0.0 9:0.0 10:0.2185 11:0.7783 12:0.0 
1.0 0.0 0.0 1:0.0 2:0.0 3:0.0 4:6.0E-4 5:3.0E-4 6:0.0013 7:0.0 8:0.0 9:0.0 10:0.2144 11:0.7833 12:0.0 
1.0 0.0 0.0 1:0.0 2:0.0 3:0.0 4:8.0E-4 5:4.0E-4 6:7.0E-4 7:0.0 8:0.0 9:0.0 10:0.22 11:0.7781 12:0.0 
1.0 0.0 0.0 1:0.0 2:0.0 3:0.0 4:0.0017 5:5.0E-4 6:9.0E-4 7:0.0 8:0.0 9:0.0 10:0.191 11:0.8059 12:0.0 
1.0 1.0 0.0 1:0.0 2:0.0 3:0.0 4:0.0018 5:6.0E-4 6:0.0018 7:0.0 8:0.0 9:0.0 10:0.1585 11:0.8373 12:0.0 
1.0 1.0 0.0 1:0.0 2:0.0 3:0.0 4:0.0018 5:6.0E-4 6:0.002 7:0.0 8:0.0 9:0.0 10:0.2185 11:0.7771 12:0.0 
1.0 0.0 0.0 1:0.0 2:0.0 3:0.0 4:0.0013 5:3.0E-4 6:0.0012 7:0.0 8:0.0 9:0.0 10:0.2341 11:0.763 12:0.0 
1.0 0.0 0.0 1:0.0 2:0.0 3:0.0 4:7.0E-4 5:2.0E-4 6:8.0E-4 7:0.0 8:0.0 9:0.0 10:0.2024 11:0.7959 12:0.0 
1.0 0.0 0.0 1:0.0 2:0.0 3:0.0 4:7.0E-4 5:2.0E-4 6:9.0E-4 7:0.0 8:0.0 9:0.0 10:0.2091 11:0.7891 12:0.0 
1.0 0.0 0.0 1:0.0 2:0.0 3:0.0 4:7.0E-4 5:3.0E-4 6:9.0E-4 7:0.0 8:0.0 9:0.0 10:0.1705 11:0.8276 12:0.0 
1.0 0.0 0.0 1:0.0 2:0.0 3:0.0 4:7.0E-4 5:1.0E-4 6:7.0E-4 7:0.0 8:0.0 9:0.0 10:0.2167 11:0.7818 12:0.0 
1.0 0.0 0.0 1:0.0 2:0.0 3:0.0 4:6.0E-4 5:2.0E-4 6:4.0E-4 7:0.0 8:0.0 9:0.0 10:0.1956 11:0.8033 12:0.0 
1.0 0.0 0.0 1:0.0 2:0.0 3:0.0 4:2.0E-4 5:2.0E-4 6:3.0E-4 7:0.0 8:0.0 9:0.0 10:0.1179 11:0.8814 12:0.0 
1.0 0.0 0.0 1:0.0 2:0.0 3:0.0 4:7.0E-4 5:3.0E-4 6:5.0E-4 7:0.0 8:0.0 9:0.0 10:0.2313 11:0.7673 12:0.0 
1.0 0.0 0.0 1:0.0 2:0.0 3:0.0 4:9.0E-4 5:1.0E-4 6:6.0E-4 7:0.0 8:0.0 9:0.0 10:0.2994 11:0.699 12:0.0 
1.0 1.0 0.0 1:0.0 2:0.0 3:0.0 4:9.0E-4 5:1.0E-4 6:3.0E-4 7:0.0 8:0.0 9:0.0 10:0.1916 11:0.807 12:0.0 
1.0 0.0 0.0 1:0.0 2:0.0 3:0.0 4:0.0 5:0.0 6:1.0E-4 7:0.0 8:0.0 9:0.0 10:0.1369 11:0.8629 12:0.0 
1.0 0.0 0.0 1:0.0 2:0.0 3:0.0 4:3.0E-4 5:1.0E-4 6:3.0E-4 7:0.0 8:0.0 9:0.0 10:0.2287 11:0.7705 12:0.0 
1.0 0.0 0.0 1:0.0 2:0.0 3:0.0 4:6.0E-4 5:2.0E-4 6:4.0E-4 7:0.0 8:0.0 9:0.0 10:0.2529 11:0.7459 12:0.0 
1.0 0.0 0.0 1:0.0 2:0.0 3:0.0 4:7.0E-4 5:2.0E-4 6:8.0E-4 7:0.0 8:0.0 9:0.0 10:0.2421 11:0.7562 12:0.0 
1.0 0.0 0.0 1:0.0 2:0.0 3:0.0 4:3.0E-4 5:0.0 6:6.0E-4 7:0.0 8:0.0 9:0.0 10:0.282 11:0.7171 12:0.0 
1.0 0.0 0.0 1:0.0 2:0.0 3:0.0 4:2.0E-4 5:1.0E-4 6:5.0E-4 7:0.0 8:0.0 9:0.0 10:0.3164 11:0.6828 12:0.0 
1.0 1.0 0.0 1:0.0 2:0.0 3:0.0 4:0.002 5:4.0E-4 6:0.0013 7:0.0 8:0.0 9:0.0 10:0.1742 11:0.8222 12:0.0 
1.0 0.0 0.0 1:0.0 2:0.0 3:0.0 4:9.0E-4 5:2.0E-4 6:6.0E-4 7:0.0 8:0.0 9:0.0 10:0.2439 11:0.7544 12:0.0 
1.0 0.0 0.0 1:0.0 2:0.0 3:0.0 4:1.0E-4 5:0.0 6:0.0 7:0.0 8:0.0 9:0.0 10:0.3052 11:0.6947 12:0.0 
1.0 1.0 0.0 1:0.0 2:0.0 3:0.0 4:1.0E-4 5:0.0 6:1.0E-4 7:0.0 8:0.0 9:0.0 10:0.2795 11:0.7202 12:0.0 
1.0 1.0 0.0 1:0.0 2:0.0 3:0.0 4:0.0 5:0.0 6:0.0 7:0.0 8:0.0 9:0.0 10:0.2671 11:0.7328 12:0.0 
1.0 0.0 0.0 1:0.0 2:0.0 3:0.0 4:0.0 5:0.0 6:0.0 7:0.0 8:0.0 9:0.0 10:0.2805 11:0.7194 12:0.0 
1.0 1.0 0.0 1:0.0 2:0.0 3:0.0 4:0.0 5:0.0 6:0.0 7:0.0 8:0.0 9:0.0 10:0.258 11:0.742 12:0.0 
1.0 0.0 0.0 1:0.0 2:0.0 3:0.0 4:0.0 5:0.0 6:1.0E-4 7:0.0 8:0.0 9:0.0 10:0.205 11:0.7948 12:0.0 
1.0 0.0 0.0 1:0.0 2:0.0 3:0.0 4:0.0 5:0.0 6:1.0E-4 7:0.0 8:0.0 9:0.0 10:0.1633 11:0.8365 12:0.0 
1.0 0.0 0.0 1:0.0 2:0.0 3:0.0 4:0.0 5:0.0 6:0.0 7:0.0 8:0.0 9:0.0 10:0.1644 11:0.8356 12:0.0 
1.0 0.0 0.0 1:0.0 2:0.0 3:0.0 4:0.0 5:0.0 6:0.0 7:0.0 8:0.0 9:0.0 10:0.1762 11:0.8237 12:0.0 
1.0 0.0 0.0 1:0.0 2:0.0 3:0.0 4:0.0 5:0.0 6:0.0 7:0.0 8:0.0 9:0.0 10:0.1816 11:0.8184 12:0.0 
1.0 1.0 0.0 1:0.0 2:0.0 3:0.0 4:0.0 5:0.0 6:0.0 7:0.0 8:0.0 9:0.0 10:0.2051 11:0.7948 12:0.0 
1.0 1.0 0.0 1:0.0 2:0.0 3:0.0 4:1.0E-4 5:0.0 6:3.0E-4 7:0.0 8:0.0 9:0.0 10:0.2082 11:0.7914 12:0.0 
1.0 0.0 0.0 1:0.0 2:0.0 3:0.0 4:6.0E-4 5:3.0E-4 6:0.0011 7:0.0 8:0.0 9:0.0 10:0.1523 11:0.8457 12:0.0 
1.0 0.0 0.0 1:0.0 2:0.0 3:0.0 4:6.0E-4 5:2.0E-4 6:7.0E-4 7:0.0 8:0.0 9:0.0 10:0.1093 11:0.8892 12:0.0 
1.0 0.0 0.0 1:0.0 2:0.0 3:0.0 4:1.0E-4 5:0.0 6:1.0E-4 7:0.0 8:0.0 9:0.0 10:0.1205 11:0.8792 12:0.0 
1.0 1.0 0.0 1:0.0 2:0.0 3:0.0 4:0.0 5:0.0 6:0.0 7:0.0 8:0.0 9:0.0 10:0.1402 11:0.8597 12:0.0 
1.0 0.0 0.0 1:0.0 2:0.0 3:0.0 4:0.0 5:0.0 6:0.0 7:0.0 8:0.0 9:0.0 10:0.1435 11:0.8565 12:0.0 
1.0 0.0 0.0 1:0.0 2:0.0 3:0.0 4:0.0 5:0.0 6:0.0 7:0.0 8:0.0 9:0.0 10:0.1328 11:0.8671 12:0.0 
0.0 1.0 0.0 1:0.0 2:0.0 3:0.0 4:0.0 5:0.0 6:0.0 7:0.0 8:0.0 9:0.0 10:0.1215 11:0.8784 12:0.0 
0.0 1.0 0.0 1:0.0 2:0.0 3:0.0 4:0.0 5:0.0 6:0.0 7:0.0 8:0.0 9:0.0 10:0.1178 11:0.8822 12:0.0 
0.0 1.0 0.0 1:0.0 2:0.0 3:0.0 4:0.0 5:0.0 6:0.0 7:0.0 8:0.0 9:0.0 10:0.1208 11:0.8791 12:0.0 
1.0 0.0 0.0 1:0.0 2:0.0 3:0.0 4:1.0E-4 5:0.0 6:3.0E-4 7:0.0 8:0.0 9:0.0 10:0.1309 11:0.8687 12:0.0 
1.0 0.0 0.0 1:0.0 2:0.0 3:0.0 4:4.0E-4 5:4.0E-4 6:9.0E-4 7:0.0 8:0.0 9:0.0 10:0.0991 11:0.8992 12:0.0 
1.0 0.0 0.0 1:0.0 2:0.0 3:0.0 4:4.0E-4 5:1.0E-4 6:0.001 7:0.0 8:0.0 9:0.0 10:0.0858 11:0.9127 12:0.0 
1.0 1.0 0.0 1:0.0 2:0.0 3:0.0 4:0.001 5:0.001 6:0.0033 7:0.0 8:0.0 9:0.0 10:0.1217 11:0.873 12:0.0 
1.0 1.0 0.0 1:0.0 2:0.0 3:0.0 4:1.0E-4 5:3.0E-4 6:2.0E-4 7:0.0 8:0.0 9:0.0 10:0.2181 11:0.7813 12:0.0 
1.0 1.0 0.0 1:0.0 2:0.0 3:0.0 4:0.0028 5:0.0011 6:0.0033 7:0.0 8:0.0 9:0.0 10:0.1738 11:0.819 12:0.0 
1.0 1.0 0.0 1:0.0 2:0.0 3:0.0 4:0.0018 5:6.0E-4 6:0.0015 7:0.0 8:0.0 9:0.0 10:0.1178 11:0.8783 12:0.0 
1.0 0.0 0.0 1:0.0 2:0.0 3:0.0 4:8.0E-4 5:3.0E-4 6:7.0E-4 7:0.0 8:0.0 9:0.0 10:0.1046 11:0.8937 12:0.0 
1.0 0.0 0.0 1:0.0 2:0.0 3:0.0 4:5.0E-4 5:2.0E-4 6:5.0E-4 7:0.0 8:0.0 9:0.0 10:0.1169 11:0.8818 12:0.0 
1.0 0.0 0.0 1:0.0 2:0.0 3:0.0 4:3.0E-4 5:2.0E-4 6:4.0E-4 7:0.0 8:0.0 9:0.0 10:0.0871 11:0.9119 12:0.0 
1.0 0.0 0.0 1:0.0 2:0.0 3:0.0 4:4.0E-4 5:1.0E-4 6:5.0E-4 7:0.0 8:0.0 9:0.0 10:0.1986 11:0.8004 12:0.0 
1.0 0.0 0.0 1:0.0 2:0.0 3:0.0 4:3.0E-4 5:1.0E-4 6:4.0E-4 7:0.0 8:0.0 9:0.0 10:0.3576 11:0.6416 12:0.0 
1.0 0.0 0.0 1:0.0 2:0.0 3:0.0 4:7.0E-4 5:3.0E-4 6:8.0E-4 7:0.0 8:0.0 9:0.0 10:0.1683 11:0.83 12:0.0 
1.0 0.0 0.0 1:0.0 2:0.0 3:0.0 4:2.0E-4 5:0.0 6:3.0E-4 7:0.0 8:0.0 9:0.0 10:0.1352 11:0.8642 12:0.0 
1.0 0.0 0.0 1:0.0 2:0.0 3:0.0 4:3.0E-4 5:0.0 6:5.0E-4 7:0.0 8:0.0 9:0.0 10:0.2118 11:0.7873 12:0.0 
1.0 1.0 0.0 1:0.0 2:0.0 3:0.0 4:1.0E-4 5:0.0 6:3.0E-4 7:0.0 8:0.0 9:0.0 10:0.2685 11:0.7311 12:0.0 
1.0 0.0 0.0 1:0.0 2:0.0 3:0.0 4:9.0E-4 5:2.0E-4 6:6.0E-4 7:0.0 8:0.0 9:0.0 10:0.2335 11:0.7649 12:0.0 
1.0 0.0 0.0 1:0.0 2:0.0 3:0.0 4:0.0012 5:3.0E-4 6:9.0E-4 7:0.0 8:0.0 9:0.0 10:0.2302 11:0.7675 12:0.0 
0.0 1.0 0.0 1:0.0 2:0.0 3:0.0 4:4.0E-4 5:3.0E-4 6:4.0E-4 7:0.0 8:0.0 9:0.0 10:0.6646 11:0.3343 12:0.0 
0.0 1.0 0.0 1:0.0 2:0.0 3:0.0 4:0.0 5:1.0E-4 6:1.0E-4 7:0.0 8:0.0 9:0.0 10:0.739 11:0.2608 12:0.0 
1.0 0.0 0.0 1:0.0 2:0.0 3:0.0 4:0.0012 5:5.0E-4 6:9.0E-4 7:0.0 8:0.0 9:0.0 10:0.3212 11:0.6762 12:0.0 
1.0 0.0 0.0 1:0.0 2:0.0 3:0.0 4:9.0E-4 5:2.0E-4 6:6.0E-4 7:0.0 8:0.0 9:0.0 10:0.1824 11:0.8159 12:0.0 
1.0 0.0 0.0 1:0.0 2:0.0 3:0.0 4:0.0011 5:2.0E-4 6:6.0E-4 7:0.0 8:0.0 9:0.0 10:0.138 11:0.86 12:0.0 
1.0 0.0 0.0 1:0.0 2:0.0 3:0.0 4:0.001 5:1.0E-4 6:3.0E-4 7:0.0 8:0.0 9:0.0 10:0.1561 11:0.8424 12:0.0 
1.0 0.0 0.0 1:0.0 2:0.0 3:0.0 4:9.0E-4 5:1.0E-4 6:4.0E-4 7:0.0 8:0.0 9:0.0 10:0.2144 11:0.7842 12:0.0 
0.7506327186595269 0.0 0.0 1:0.0 2:0.0 3:0.0 4:0.0022 5:0.0011 6:7.0E-4 7:0.0 8:0.0 9:0.0 10:0.4235 11:0.5725 12:0.0 
0.0 1.0 0.0 1:0.0 2:0.0 3:0.0 4:0.001 5:5.0E-4 6:8.0E-4 7:0.0 8:0.0 9:0.0 10:0.6975 11:0.3003 12:0.0 
0.0 1.0 0.0 1:0.0 2:0.0 3:0.0 4:3.0E-4 5:2.0E-4 6:4.0E-4 7:0.0 8:0.0 9:0.0 10:0.7591 11:0.24 12:0.0 
0.0 1.0 0.0 1:0.0 2:0.0 3:0.0 4:3.0E-4 5:1.0E-4 6:2.0E-4 7:0.0 8:0.0 9:0.0 10:0.7792 11:0.2202 12:0.0 
0.0 1.0 0.0 1:0.0 2:0.0 3:0.0 4:8.0E-4 5:4.0E-4 6:7.0E-4 7:0.0 8:0.0 9:0.0 10:0.6337 11:0.3643 12:0.0 
0.0 1.0 0.0 1:0.0 2:0.0 3:1.0E-4 4:0.004 5:0.0064 6:0.0014 7:0.0 8:0.0 9:0.0 10:0.6379 11:0.3502 12:0.0 
1.0 1.0 0.0 1:0.0 2:0.0 3:0.0 4:0.0025 5:0.0091 6:0.0036 7:0.0 8:0.0 9:0.0 10:0.4633 11:0.5215 12:0.0 
1.0 1.0 0.0 1:0.0 2:0.0 3:0.0 4:0.0014 5:0.0018 6:0.0024 7:0.0 8:0.0 9:0.0 10:0.2232 11:0.7713 12:0.0 
1.0 0.0 0.0 1:0.0 2:0.0 3:0.0 4:2.0E-4 5:1.0E-4 6:2.0E-4 7:0.0 8:0.0 9:0.0 10:0.1591 11:0.8404 12:0.0 
1.0 1.0 0.0 1:0.0 2:0.0 3:0.0 4:0.0 5:0.0 6:0.0 7:0.0 8:0.0 9:0.0 10:0.1673 11:0.8326 12:0.0 
1.0 1.0 0.0 1:0.0 2:0.0 3:0.0 4:0.0 5:1.0E-4 6:1.0E-4 7:0.0 8:0.0 9:0.0 10:0.1453 11:0.8544 12:0.0 
1.0 0.0 0.0 1:0.0 2:0.0 3:0.0 4:0.0 5:1.0E-4 6:2.0E-4 7:0.0 8:0.0 9:0.0 10:0.1598 11:0.8398 12:0.0 
1.0 1.0 0.0 1:0.0 2:0.0 3:0.0 4:2.0E-4 5:1.0E-4 6:2.0E-4 7:0.0 8:0.0 9:0.0 10:0.2142 11:0.7852 12:0.0 
1.0 0.0 0.0 1:0.0 2:0.0 3:0.0 4:4.0E-4 5:1.0E-4 6:4.0E-4 7:0.0 8:0.0 9:0.0 10:0.1861 11:0.813 12:0.0 
1.0 1.0 0.0 1:0.0 2:0.0 3:0.0 4:0.0014 5:0.0011 6:0.0013 7:0.0 8:0.0 9:0.0 10:0.1526 11:0.8436 12:0.0 
1.0 0.0 0.0 1:0.0 2:0.0 3:0.0 4:0.0016 5:0.001 6:0.0016 7:0.0 8:0.0 9:0.0 10:0.2862 11:0.7096 12:0.0 
1.0 0.0 0.0 1:0.0 2:0.0 3:0.0 4:3.0E-4 5:2.0E-4 6:4.0E-4 7:0.0 8:0.0 9:0.0 10:0.3393 11:0.6598 12:0.0 
1.0 1.0 0.0 1:0.0 2:0.0 3:0.0 4:3.0E-4 5:2.0E-4 6:4.0E-4 7:0.0 8:0.0 9:0.0 10:0.2262 11:0.7729 12:0.0 
1.0 0.0 0.0 1:0.0 2:0.0 3:0.0 4:7.0E-4 5:5.0E-4 6:0.0011 7:0.0 8:0.0 9:0.0 10:0.1922 11:0.8054 12:0.0 
1.0 0.0 0.0 1:0.0 2:0.0 3:0.0 4:7.0E-4 5:5.0E-4 6:0.0012 7:0.0 8:0.0 9:0.0 10:0.2516 11:0.7459 12:0.0 
0.0 1.0 0.0 1:0.0 2:0.0 3:0.0 4:0.0011 5:3.0E-4 6:0.0014 7:0.0 8:0.0 9:0.0 10:0.7018 11:0.2954 12:0.0 
0.0 1.0 0.0 1:0.0 2:0.0 3:0.0 4:3.0E-4 5:2.0E-4 6:6.0E-4 7:0.0 8:0.0 9:0.0 10:0.7186 11:0.2802 12:0.0 
1.0 1.0 0.0 1:0.0 2:0.0 3:0.0 4:3.0E-4 5:1.0E-4 6:4.0E-4 7:0.0 8:0.0 9:0.0 10:0.2564 11:0.7428 12:0.0 
1.0 0.0 0.0 1:0.0 2:0.0 3:0.0 4:0.0016 5:2.0E-4 6:6.0E-4 7:0.0 8:0.0 9:0.0 10:0.2346 11:0.763 12:0.0 
1.0 0.0 0.0 1:0.0 2:0.0 3:0.0 4:0.0014 5:2.0E-4 6:7.0E-4 7:0.0 8:0.0 9:0.0 10:0.2699 11:0.7278 12:0.0 
1.0 0.0 0.0 1:0.0 2:0.0 3:0.0 4:0.0011 5:2.0E-4 6:7.0E-4 7:0.0 8:0.0 9:0.0 10:0.3743 11:0.6237 12:0.0 
1.0 0.0 0.0 1:0.0 2:0.0 3:0.0 4:0.0015 5:2.0E-4 6:7.0E-4 7:0.0 8:0.0 9:0.0 10:0.342 11:0.6555 12:0.0 
1.0 0.0 0.0 1:0.0 2:0.0 3:0.0 4:0.0025 5:5.0E-4 6:0.0016 7:0.0 8:0.0 9:0.0 10:0.4138 11:0.5815 12:0.0 
1.0 0.0 0.0 1:0.0 2:0.0 3:0.0 4:4.0E-4 5:2.0E-4 6:8.0E-4 7:0.0 8:0.0 9:0.0 10:0.3419 11:0.6566 12:0.0 
1.0 0.0 0.0 1:0.0 2:0.0 3:0.0 4:7.0E-4 5:3.0E-4 6:5.0E-4 7:0.0 8:0.0 9:0.0 10:0.2649 11:0.7336 12:0.0 
1.0 1.0 0.0 1:0.0 2:0.0 3:0.0 4:3.0E-4 5:1.0E-4 6:2.0E-4 7:0.0 8:0.0 9:0.0 10:0.1674 11:0.8319 12:0.0 
1.0 1.0 0.0 1:0.0 2:0.0 3:0.0 4:0.001 5:1.0E-4 6:3.0E-4 7:0.0 8:0.0 9:0.0 10:0.2271 11:0.7715 12:0.0 
1.0 0.0 0.0 1:0.0 2:0.0 3:0.0 4:0.0011 5:2.0E-4 6:4.0E-4 7:0.0 8:0.0 9:0.0 10:0.2052 11:0.7931 12:0.0 
1.0 0.0 0.0 1:0.0 2:0.0 3:0.0 4:0.0011 5:4.0E-4 6:0.0011 7:0.0 8:0.0 9:0.0 10:0.1365 11:0.8608 12:0.0 
1.0 0.0 0.0 1:0.0 2:0.0 3:0.0 4:0.001 5:5.0E-4 6:0.0013 7:0.0 8:0.0 9:0.0 10:0.1613 11:0.8359 12:0.0 
1.0 0.0 0.0 1:0.0 2:0.0 3:0.0 4:8.0E-4 5:5.0E-4 6:4.0E-4 7:0.0 8:0.0 9:0.0 10:0.3593 11:0.6389 12:0.0 
1.0 0.0 0.0 1:0.0 2:0.0 3:0.0 4:0.0014 5:8.0E-4 6:0.001 7:0.0 8:0.0 9:0.0 10:0.3316 11:0.6652 12:0.0 
1.0 0.0 0.0 1:0.0 2:0.0 3:0.0 4:0.0012 5:7.0E-4 6:0.001 7:0.0 8:0.0 9:0.0 10:0.315 11:0.6821 12:0.0 
0.0 1.0 0.0 1:0.0 2:0.0 3:0.0 4:0.0017 5:7.0E-4 6:0.0014 7:0.0 8:0.0 9:0.0 10:0.6532 11:0.343 12:0.0 
1.0 1.0 0.0 1:0.0 2:0.0 3:0.0 4:0.0015 5:9.0E-4 6:0.0015 7:0.0 8:0.0 9:0.0 10:0.1763 11:0.8199 12:0.0 
1.0 0.0 0.0 1:0.0 2:0.0 3:0.0 4:6.0E-4 5:2.0E-4 6:5.0E-4 7:0.0 8:0.0 9:0.0 10:0.2418 11:0.7569 12:0.0 
1.0 0.0 0.0 1:0.0 2:0.0 3:0.0 4:4.0E-4 5:0.0 6:5.0E-4 7:0.0 8:0.0 9:0.0 10:0.2032 11:0.7959 12:0.0 
1.0 0.0 0.0 1:0.0 2:0.0 3:0.0 4:3.0E-4 5:1.0E-4 6:6.0E-4 7:0.0 8:0.0 9:0.0 10:0.183 11:0.8161 12:0.0 
1.0 0.0 0.0 1:0.0 2:0.0 3:0.0 4:4.0E-4 5:4.0E-4 6:7.0E-4 7:0.0 8:0.0 9:0.0 10:0.142 11:0.8566 12:0.0 
1.0 0.0 0.0 1:0.0 2:0.0 3:0.0 4:3.0E-4 5:3.0E-4 6:5.0E-4 7:0.0 8:0.0 9:0.0 10:0.1247 11:0.8743 12:0.0 
1.0 0.0 0.0 1:0.0 2:0.0 3:0.0 4:1.0E-4 5:0.0 6:2.0E-4 7:0.0 8:0.0 9:0.0 10:0.161 11:0.8386 12:0.0 
1.0 1.0 0.0 1:0.0 2:0.0 3:0.0 4:2.0E-4 5:0.0 6:2.0E-4 7:0.0 8:0.0 9:0.0 10:0.2191 11:0.7804 12:0.0 
1.0 0.0 0.0 1:0.0 2:0.0 3:0.0 4:4.0E-4 5:2.0E-4 6:6.0E-4 7:0.0 8:0.0 9:0.0 10:0.2503 11:0.7485 12:0.0 
1.0 0.0 0.0 1:0.0 2:0.0 3:0.0 4:0.001 5:4.0E-4 6:0.001 7:0.0 8:0.0 9:0.0 10:0.2802 11:0.7174 12:0.0 
1.0 0.0 0.0 1:0.0 2:0.0 3:0.0 4:7.0E-4 5:4.0E-4 6:9.0E-4 7:0.0 8:0.0 9:0.0 10:0.2852 11:0.7129 12:0.0 
1.0 0.0 0.0 1:0.0 2:0.0 3:0.0 4:7.0E-4 5:3.0E-4 6:7.0E-4 7:0.0 8:0.0 9:0.0 10:0.2843 11:0.714 12:0.0 
1.0 0.0 0.0 1:0.0 2:0.0 3:0.0 4:9.0E-4 5:3.0E-4 6:6.0E-4 7:0.0 8:0.0 9:0.0 10:0.1884 11:0.8099 12:0.0 
1.0 0.0 0.0 1:0.0 2:0.0 3:0.0 4:4.0E-4 5:1.0E-4 6:4.0E-4 7:0.0 8:0.0 9:0.0 10:0.1125 11:0.8865 12:0.0 
1.0 0.0 0.0 1:0.0 2:0.0 3:0.0 4:0.001 5:4.0E-4 6:0.0013 7:0.0 8:0.0 9:0.0 10:0.1775 11:0.8197 12:0.0 
1.0 1.0 0.0 1:0.0 2:0.0 3:0.0 4:0.0015 5:7.0E-4 6:0.0021 7:0.0 8:0.0 9:0.0 10:0.2445 11:0.7511 12:0.0 
1.0 1.0 0.0 1:0.0 2:0.0 3:0.0 4:0.0014 5:5.0E-4 6:0.0022 7:0.0 8:0.0 9:0.0 10:0.214 11:0.7819 12:0.0 
1.0 0.0 0.0 1:0.0 2:0.0 3:0.0 4:0.0011 5:2.0E-4 6:0.0012 7:0.0 8:0.0 9:0.0 10:0.1231 11:0.8744 12:0.0 
1.0 0.0 0.0 1:0.0 2:0.0 3:0.0 4:4.0E-4 5:1.0E-4 6:4.0E-4 7:0.0 8:0.0 9:0.0 10:0.1947 11:0.8044 12:0.0 
1.0 0.0 0.0 1:0.0 2:0.0 3:0.0 4:5.0E-4 5:2.0E-4 6:5.0E-4 7:0.0 8:0.0 9:0.0 10:0.2533 11:0.7456 12:0.0 
1.0 0.0 0.0 1:0.0 2:0.0 3:0.0 4:0.0011 5:4.0E-4 6:0.0012 7:0.0 8:0.0 9:0.0 10:0.2876 11:0.7098 12:0.0 
0.0 1.0 0.0 1:0.0 2:0.0 3:0.0 4:0.0 5:0.0 6:1.0E-4 7:0.0 8:0.0 9:0.0 10:0.4303 11:0.5695 12:0.0 
0.0 1.0 0.0 1:0.0 2:0.0 3:0.0 4:0.0 5:0.0 6:0.0 7:0.0 8:0.0 9:0.0 10:0.4183 11:0.5816 12:0.0 
0.0 1.0 0.0 1:0.0 2:0.0 3:0.0 4:0.0 5:0.0 6:0.0 7:0.0 8:0.0 9:0.0 10:0.3929 11:0.6071 12:0.0 
0.0 1.0 0.0 1:0.0 2:0.0 3:0.0 4:1.0E-4 5:0.0 6:2.0E-4 7:0.0 8:0.0 9:0.0 10:0.3765 11:0.6233 12:0.0 
0.0 1.0 0.0 1:0.0 2:0.0 3:0.0 4:0.0 5:0.0 6:1.0E-4 7:0.0 8:0.0 9:0.0 10:0.4067 11:0.5932 12:0.0 
1.0 1.0 0.0 1:0.0 2:0.0 3:0.0 4:3.0E-4 5:0.0 6:2.0E-4 7:0.0 8:0.0 9:0.0 10:0.3138 11:0.6856 12:0.0 
1.0 0.0 0.0 1:0.0 2:0.0 3:0.0 4:8.0E-4 5:2.0E-4 6:8.0E-4 7:0.0 8:0.0 9:0.0 10:0.2362 11:0.762 12:0.0 
1.0 0.0 0.0 1:0.0 2:0.0 3:0.0 4:6.0E-4 5:1.0E-4 6:7.0E-4 7:0.0 8:0.0 9:0.0 10:0.1689 11:0.8297 12:0.0 
1.0 0.0 0.0 1:0.0 2:0.0 3:0.0 4:1.0E-4 5:0.0 6:2.0E-4 7:0.0 8:0.0 9:0.0 10:0.1528 11:0.8469 12:0.0 
1.0 0.0 0.0 1:0.0 2:0.0 3:0.0 4:2.0E-4 5:1.0E-4 6:2.0E-4 7:0.0 8:0.0 9:0.0 10:0.1662 11:0.8332 12:0.0 
1.0 0.0 0.0 1:0.0 2:0.0 3:0.0 4:3.0E-4 5:1.0E-4 6:3.0E-4 7:0.0 8:0.0 9:0.0 10:0.1671 11:0.8323 12:0.0 
1.0 0.0 0.0 1:0.0 2:0.0 3:0.0 4:4.0E-4 5:1.0E-4 6:3.0E-4 7:0.0 8:0.0 9:0.0 10:0.166 11:0.8331 12:0.0 
1.0 0.0 0.0 1:0.0 2:0.0 3:0.0 4:0.0012 5:4.0E-4 6:0.0012 7:0.0 8:0.0 9:0.0 10:0.227 11:0.7701 12:0.0 
1.0 0.0 0.0 1:0.0 2:0.0 3:0.0 4:0.0012 5:4.0E-4 6:0.0013 7:0.0 8:0.0 9:0.0 10:0.2279 11:0.7691 12:0.0 
1.0 0.0 0.0 1:0.0 2:0.0 3:0.0 4:7.0E-4 5:2.0E-4 6:0.001 7:0.0 8:0.0 9:0.0 10:0.1654 11:0.8327 12:0.0 
1.0 0.0 0.0 1:0.0 2:0.0 3:0.0 4:8.0E-4 5:3.0E-4 6:0.0012 7:0.0 8:0.0 9:0.0 10:0.1836 11:0.8141 12:0.0 
1.0 0.0 0.0 1:0.0 2:0.0 3:0.0 4:9.0E-4 5:5.0E-4 6:0.0011 7:0.0 8:0.0 9:0.0 10:0.3132 11:0.6844 12:0.0 
0.0 1.0 0.0 1:0.0 2:0.0 3:0.0 4:0.001 5:5.0E-4 6:7.0E-4 7:0.0 8:0.0 9:0.0 10:0.6662 11:0.3316 12:0.0 
0.0 1.0 0.0 1:0.0 2:0.0 3:0.0 4:7.0E-4 5:4.0E-4 6:8.0E-4 7:0.0 8:0.0 9:0.0 10:0.6782 11:0.3199 12:0.0 
0.0 1.0 0.0 1:0.0 2:0.0 3:0.0 4:2.0E-4 5:2.0E-4 6:3.0E-4 7:0.0 8:0.0 9:0.0 10:0.6991 11:0.3003 12:0.0 
0.0 1.0 0.0 1:0.0 2:0.0 3:0.0 4:2.0E-4 5:0.0 6:2.0E-4 7:0.0 8:0.0 9:0.0 10:0.6821 11:0.3175 12:0.0 
0.0 1.0 0.0 1:0.0 2:0.0 3:0.0 4:1.0E-4 5:2.0E-4 6:1.0E-4 7:0.0 8:0.0 9:0.0 10:0.6441 11:0.3555 12:0.0 
1.0 0.0 0.0 1:0.0 2:0.0 3:0.0 4:0.0014 5:8.0E-4 6:0.0015 7:0.0 8:0.0 9:0.0 10:0.217 11:0.7794 12:0.0 
1.0 1.0 0.0 1:0.0 2:0.0 3:0.0 4:8.0E-4 5:2.0E-4 6:5.0E-4 7:0.0 8:0.0 9:0.0 10:0.2018 11:0.7967 12:0.0 
1.0 0.0 0.0 1:0.0 2:0.0 3:0.0 4:2.0E-4 5:0.0 6:2.0E-4 7:0.0 8:0.0 9:0.0 10:0.2946 11:0.705 12:0.0 
1.0 1.0 0.0 1:0.0 2:0.0 3:0.0 4:0.0 5:0.0 6:1.0E-4 7:0.0 8:0.0 9:0.0 10:0.307 11:0.6929 12:0.0 
1.0 1.0 0.0 1:0.0 2:0.0 3:0.0 4:0.0 5:0.0 6:1.0E-4 7:0.0 8:0.0 9:0.0 10:0.3031 11:0.6968 12:0.0 
1.0 1.0 0.0 1:0.0 2:0.0 3:0.0 4:1.0E-4 5:1.0E-4 6:2.0E-4 7:0.0 8:0.0 9:0.0 10:0.3369 11:0.6627 12:0.0 
1.0 0.0 0.0 1:0.0 2:0.0 3:0.0 4:0.0013 5:4.0E-4 6:9.0E-4 7:0.0 8:0.0 9:0.0 10:0.2395 11:0.7579 12:0.0 
1.0 0.0 0.0 1:0.0 2:0.0 3:0.0 4:0.001 5:2.0E-4 6:8.0E-4 7:0.0 8:0.0 9:0.0 10:0.1861 11:0.8119 12:0.0 
1.0 0.0 0.0 1:0.0 2:0.0 3:0.0 4:3.0E-4 5:2.0E-4 6:7.0E-4 7:0.0 8:0.0 9:0.0 10:0.2269 11:0.7719 12:0.0 
1.0 0.0 0.0 1:0.0 2:0.0 3:0.0 4:0.0014 5:3.0E-4 6:0.001 7:0.0 8:0.0 9:0.0 10:0.2905 11:0.7068 12:0.0 
0.0 1.0 0.0 1:0.0 2:0.0 3:0.0 4:0.0014 5:6.0E-4 6:7.0E-4 7:0.0 8:0.0 9:0.0 10:0.7936 11:0.2038 12:0.0 
0.0 1.0 0.0 1:0.0 2:0.0 3:0.0 4:0.0011 5:8.0E-4 6:5.0E-4 7:0.0 8:0.0 9:0.0 10:0.7645 11:0.233 12:0.0 
1.0 1.0 0.0 1:0.0 2:0.0 3:0.0 4:0.0025 5:0.0011 6:0.0015 7:0.0 8:0.0 9:0.0 10:0.3512 11:0.6437 12:0.0 
1.0 0.0 0.0 1:0.0 2:0.0 3:0.0 4:9.0E-4 5:4.0E-4 6:0.0013 7:0.0 8:0.0 9:0.0 10:0.1486 11:0.8488 12:0.0 
1.0 0.0 0.0 1:0.0 2:0.0 3:0.0 4:9.0E-4 5:3.0E-4 6:0.0011 7:0.0 8:0.0 9:0.0 10:0.2067 11:0.7909 12:0.0 
1.0 0.0 0.0 1:0.0 2:0.0 3:0.0 4:7.0E-4 5:3.0E-4 6:0.001 7:0.0 8:0.0 9:0.0 10:0.2256 11:0.7724 12:0.0 
1.0 0.0 0.0 1:0.0 2:0.0 3:0.0 4:3.0E-4 5:1.0E-4 6:3.0E-4 7:0.0 8:0.0 9:0.0 10:0.2223 11:0.7769 12:0.0 
1.0 0.0 0.0 1:0.0 2:0.0 3:0.0 4:4.0E-4 5:2.0E-4 6:5.0E-4 7:0.0 8:0.0 9:0.0 10:0.2155 11:0.7833 12:0.0 
1.0 1.0 0.0 1:0.0 2:0.0 3:0.0 4:3.0E-4 5:1.0E-4 6:3.0E-4 7:0.0 8:0.0 9:0.0 10:0.1957 11:0.8036 12:0.0 
1.0 0.0 0.0 1:0.0 2:0.0 3:0.0 4:5.0E-4 5:3.0E-4 6:0.0012 7:0.0 8:0.0 9:0.0 10:0.1539 11:0.8442 12:0.0 
1.0 1.0 0.0 1:0.0 2:0.0 3:0.0 4:0.0016 5:0.0042 6:0.0019 7:0.0 8:0.0 9:0.0 10:0.2569 11:0.7354 12:0.0 
1.0 1.0 0.0 1:0.0 2:0.0 3:0.0 4:0.0016 5:0.0043 6:0.0046 7:0.0 8:0.0 9:0.0 10:0.2714 11:0.718 12:0.0 
1.0 0.0 0.0 1:0.0 2:0.0 3:0.0 4:0.0011 5:6.0E-4 6:0.0016 7:0.0 8:0.0 9:0.0 10:0.3128 11:0.6839 12:0.0 
0.0 1.0 0.0 1:0.0 2:0.0 3:0.0 4:4.0E-4 5:1.0E-4 6:4.0E-4 7:0.0 8:0.0 9:0.0 10:0.4407 11:0.5583 12:0.0 
1.0 0.0 0.0 1:0.0 2:0.0 3:0.0 4:0.0021 5:5.0E-4 6:9.0E-4 7:0.0 8:0.0 9:0.0 10:0.3637 11:0.6329 12:0.0 
1.0 1.0 0.0 1:0.0 2:0.0 3:0.0 4:0.0038 5:9.0E-4 6:0.0022 7:0.0 8:0.0 9:0.0 10:0.418 11:0.5752 12:0.0 
1.0 1.0 0.0 1:0.0 2:0.0 3:0.0 4:0.0034 5:7.0E-4 6:0.0024 7:0.0 8:0.0 9:0.0 10:0.3231 11:0.6703 12:0.0 
1.0 0.0 0.0 1:0.0 2:0.0 3:0.0 4:0.0013 5:2.0E-4 6:9.0E-4 7:0.0 8:0.0 9:0.0 10:0.241 11:0.7567 12:0.0 
1.0 0.0 0.0 1:0.0 2:0.0 3:0.0 4:0.0013 5:3.0E-4 6:0.0011 7:0.0 8:0.0 9:0.0 10:0.246 11:0.7511 12:0.0 
1.0 0.0 0.0 1:0.0 2:0.0 3:0.0 4:0.0014 5:5.0E-4 6:0.0017 7:0.0 8:0.0 9:0.0 10:0.2862 11:0.7102 12:0.0 
1.0 0.0 0.0 1:0.0 2:0.0 3:0.0 4:0.0013 5:4.0E-4 6:0.001 7:0.0 8:0.0 9:0.0 10:0.2788 11:0.7185 12:0.0 
1.0 0.0 0.0 1:0.0 2:0.0 3:0.0 4:7.0E-4 5:4.0E-4 6:8.0E-4 7:0.0 8:0.0 9:0.0 10:0.2818 11:0.7163 12:0.0 
0.0 1.0 0.0 1:0.0 2:0.0 3:0.0 4:0.0017 5:9.0E-4 6:0.0015 7:0.0 8:0.0 9:0.0 10:0.6443 11:0.3517 12:0.0 
0.0 1.0 0.0 1:0.0 2:0.0 3:0.0 4:0.0014 5:8.0E-4 6:0.0016 7:0.0 8:0.0 9:0.0 10:0.684 11:0.3122 12:0.0 
0.0 1.0 0.0 1:0.0 2:0.0 3:0.0 4:4.0E-4 5:2.0E-4 6:5.0E-4 7:0.0 8:0.0 9:0.0 10:0.7155 11:0.2835 12:0.0 
0.0 1.0 0.0 1:0.0 2:0.0 3:0.0 4:4.0E-4 5:2.0E-4 6:4.0E-4 7:0.0 8:0.0 9:0.0 10:0.7984 11:0.2006 12:0.0 
0.0 1.0 0.0 1:0.0 2:0.0 3:0.0 4:0.0013 5:0.0011 6:0.002 7:0.0 8:0.0 9:0.0 10:0.6545 11:0.3411 12:0.0 
1.0 0.0 0.0 1:0.0 2:0.0 3:0.0 4:0.0015 5:9.0E-4 6:0.0021 7:0.0 8:0.0 9:0.0 10:0.3375 11:0.658 12:0.0 
1.0 0.0 0.0 1:0.0 2:0.0 3:0.0 4:0.0018 5:9.0E-4 6:0.0018 7:0.0 8:0.0 9:0.0 10:0.274 11:0.7214 12:0.0 
1.0 0.0 0.0 1:0.0 2:0.0 3:0.0 4:0.0018 5:9.0E-4 6:0.0019 7:0.0 8:0.0 9:0.0 10:0.2858 11:0.7096 12:0.0 
1.0 0.0 0.0 1:0.0 2:0.0 3:0.0 4:6.0E-4 5:4.0E-4 6:0.001 7:0.0 8:0.0 9:0.0 10:0.3562 11:0.6419 12:0.0 
1.0 0.0 0.0 1:0.0 2:0.0 3:0.0 4:5.0E-4 5:3.0E-4 6:6.0E-4 7:0.0 8:0.0 9:0.0 10:0.3229 11:0.6757 12:0.0 
1.0 0.0 0.0 1:0.0 2:0.0 3:0.0 4:0.0011 5:6.0E-4 6:8.0E-4 7:0.0 8:0.0 9:0.0 10:0.3801 11:0.6174 12:0.0 
0.0 1.0 0.0 1:0.0 2:0.0 3:0.0 4:4.0E-4 5:2.0E-4 6:2.0E-4 7:0.0 8:0.0 9:0.0 10:0.6833 11:0.3158 12:0.0 
0.0 1.0 0.0 1:0.0 2:0.0 3:0.0 4:3.0E-4 5:2.0E-4 6:2.0E-4 7:0.0 8:0.0 9:0.0 10:0.7125 11:0.2868 12:0.0 
0.0 1.0 0.0 1:0.0 2:0.0 3:0.0 4:4.0E-4 5:3.0E-4 6:5.0E-4 7:0.0 8:0.0 9:0.0 10:0.67 11:0.3288 12:0.0 
1.0 0.0 0.0 1:0.0 2:0.0 3:0.0 4:0.0012 5:9.0E-4 6:0.0014 7:0.0 8:0.0 9:0.0 10:0.4134 11:0.5832 12:0.0 
1.0 0.0 0.0 1:0.0 2:0.0 3:0.0 4:7.0E-4 5:3.0E-4 6:0.0012 7:0.0 8:0.0 9:0.0 10:0.1757 11:0.8221 12:0.0 
1.0 0.0 0.0 1:0.0 2:0.0 3:0.0 4:9.0E-4 5:3.0E-4 6:0.001 7:0.0 8:0.0 9:0.0 10:0.2423 11:0.7555 12:0.0 
1.0 0.0 0.0 1:0.0 2:0.0 3:0.0 4:5.0E-4 5:3.0E-4 6:8.0E-4 7:0.0 8:0.0 9:0.0 10:0.335 11:0.6634 12:0.0 
1.0 0.0 0.0 1:0.0 2:0.0 3:0.0 4:7.0E-4 5:2.0E-4 6:6.0E-4 7:0.0 8:0.0 9:0.0 10:0.307 11:0.6915 12:0.0 
1.0 0.0 0.0 1:0.0 2:0.0 3:0.0 4:0.001 5:5.0E-4 6:0.0011 7:0.0 8:0.0 9:0.0 10:0.2409 11:0.7565 12:0.0 
1.0 0.0 0.0 1:0.0 2:0.0 3:0.0 4:0.0011 5:8.0E-4 6:0.0016 7:0.0 8:0.0 9:0.0 10:0.2329 11:0.7636 12:0.0 
1.0 0.0 0.0 1:0.0 2:0.0 3:0.0 4:7.0E-4 5:4.0E-4 6:0.001 7:0.0 8:0.0 9:0.0 10:0.2309 11:0.767 12:0.0 
1.0 1.0 0.0 1:0.0 2:0.0 3:0.0 4:7.0E-4 5:1.0E-4 6:4.0E-4 7:0.0 8:0.0 9:0.0 10:0.2111 11:0.7876 12:0.0 
1.0 0.0 0.0 1:0.0 2:0.0 3:0.0 4:9.0E-4 5:2.0E-4 6:6.0E-4 7:0.0 8:0.0 9:0.0 10:0.1992 11:0.799 12:0.0 
1.0 0.0 0.0 1:0.0 2:0.0 3:0.0 4:0.0019 5:4.0E-4 6:0.0011 7:0.0 8:0.0 9:0.0 10:0.2901 11:0.7066 12:0.0 
1.0 0.0 0.0 1:0.0 2:0.0 3:0.0 4:8.0E-4 5:4.0E-4 6:0.0014 7:0.0 8:0.0 9:0.0 10:0.2629 11:0.7346 12:0.0 
1.0 0.0 0.0 1:0.0 2:0.0 3:0.0 4:0.0011 5:3.0E-4 6:0.0014 7:0.0 8:0.0 9:0.0 10:0.1655 11:0.8317 12:0.0 
1.0 0.0 0.0 1:0.0 2:0.0 3:0.0 4:9.0E-4 5:3.0E-4 6:0.001 7:0.0 8:0.0 9:0.0 10:0.148 11:0.8497 12:0.0 
1.0 0.0 0.0 1:0.0 2:0.0 3:0.0 4:0.0011 5:4.0E-4 6:0.0011 7:0.0 8:0.0 9:0.0 10:0.1824 11:0.815 12:0.0 
1.0 0.0 0.0 1:0.0 2:0.0 3:0.0 4:4.0E-4 5:1.0E-4 6:5.0E-4 7:0.0 8:0.0 9:0.0 10:0.1756 11:0.8233 12:0.0 
1.0 0.0 0.0 1:0.0 2:0.0 3:0.0 4:5.0E-4 5:1.0E-4 6:7.0E-4 7:0.0 8:0.0 9:0.0 10:0.1912 11:0.8075 12:0.0 
1.0 0.0 0.0 1:0.0 2:0.0 3:0.0 4:9.0E-4 5:3.0E-4 6:8.0E-4 7:0.0 8:0.0 9:0.0 10:0.2301 11:0.7679 12:0.0 
1.0 0.0 0.0 1:0.0 2:0.0 3:0.0 4:8.0E-4 5:4.0E-4 6:9.0E-4 7:0.0 8:0.0 9:0.0 10:0.2831 11:0.7148 12:0.0 
1.0 0.0 0.0 1:0.0 2:0.0 3:0.0 4:5.0E-4 5:4.0E-4 6:9.0E-4 7:0.0 8:0.0 9:0.0 10:0.3065 11:0.6916 12:0.0 
1.0 0.0 0.0 1:0.0 2:0.0 3:0.0 4:9.0E-4 5:5.0E-4 6:0.001 7:0.0 8:0.0 9:0.0 10:0.2844 11:0.7132 12:0.0 
1.0 0.0 0.0 1:0.0 2:0.0 3:0.0 4:6.0E-4 5:4.0E-4 6:8.0E-4 7:0.0 8:0.0 9:0.0 10:0.256 11:0.7422 12:0.0 
1.0 1.0 0.0 1:0.0 2:0.0 3:0.0 4:3.0E-4 5:0.0 6:4.0E-4 7:0.0 8:0.0 9:0.0 10:0.2024 11:0.7968 12:0.0 
1.0 0.0 0.0 1:0.0 2:0.0 3:0.0 4:0.0012 5:4.0E-4 6:0.0014 7:0.0 8:0.0 9:0.0 10:0.2261 11:0.7708 12:0.0 
1.0 0.0 0.0 1:0.0 2:0.0 3:0.0 4:0.0011 5:3.0E-4 6:0.001 7:0.0 8:0.0 9:0.0 10:0.1996 11:0.7979 12:0.0 
1.0 0.0 0.0 1:0.0 2:0.0 3:0.0 4:0.001 5:4.0E-4 6:0.0016 7:0.0 8:0.0 9:0.0 10:0.192 11:0.8049 12:0.0 
1.0 0.0 0.0 1:0.0 2:0.0 3:0.0 4:0.0011 5:3.0E-4 6:0.0015 7:0.0 8:0.0 9:0.0 10:0.2368 11:0.7603 12:0.0 
1.0 1.0 0.0 1:0.0 2:0.0 3:0.0 4:0.0 5:0.0 6:1.0E-4 7:0.0 8:0.0 9:0.0 10:0.2282 11:0.7716 12:0.0 
1.0 0.0 0.0 1:0.0 2:0.0 3:0.0 4:3.0E-4 5:1.0E-4 6:3.0E-4 7:0.0 8:0.0 9:0.0 10:0.3242 11:0.6751 12:0.0 
0.0 1.0 0.0 1:0.0 2:0.0 3:0.0 4:4.0E-4 5:1.0E-4 6:2.0E-4 7:0.0 8:0.0 9:0.0 10:0.4499 11:0.5493 12:0.0 
0.0 1.0 0.0 1:0.0 2:0.0 3:0.0 4:7.0E-4 5:3.0E-4 6:4.0E-4 7:0.0 8:0.0 9:0.0 10:0.4564 11:0.5423 12:0.0 
1.0 0.0 0.0 1:0.0 2:0.0 3:0.0 4:7.0E-4 5:2.0E-4 6:0.0012 7:0.0 8:0.0 9:0.0 10:0.2644 11:0.7335 12:0.0 
1.0 0.0 0.0 1:0.0 2:0.0 3:0.0 4:0.0011 5:4.0E-4 6:0.0014 7:0.0 8:0.0 9:0.0 10:0.2025 11:0.7947 12:0.0 
1.0 0.0 0.0 1:0.0 2:0.0 3:0.0 4:0.0012 5:3.0E-4 6:9.0E-4 7:0.0 8:0.0 9:0.0 10:0.1771 11:0.8206 12:0.0 
1.0 0.0 0.0 1:0.0 2:0.0 3:0.0 4:8.0E-4 5:1.0E-4 6:9.0E-4 7:0.0 8:0.0 9:0.0 10:0.1761 11:0.8222 12:0.0 
1.0 0.0 0.0 1:0.0 2:0.0 3:0.0 4:6.0E-4 5:2.0E-4 6:9.0E-4 7:0.0 8:0.0 9:0.0 10:0.1388 11:0.8595 12:0.0 
1.0 0.0 0.0 1:0.0 2:0.0 3:0.0 4:6.0E-4 5:1.0E-4 6:5.0E-4 7:0.0 8:0.0 9:0.0 10:0.1729 11:0.8258 12:0.0 
0.0 1.0 0.0 1:0.0 2:0.0 3:0.0 4:0.0013 5:5.0E-4 6:7.0E-4 7:0.0 8:0.0 9:0.0 10:0.4418 11:0.5556 12:0.0 
0.0 1.0 0.0 1:0.0 2:0.0 3:0.0 4:6.0E-4 5:5.0E-4 6:4.0E-4 7:0.0 8:0.0 9:0.0 10:0.7767 11:0.2216 12:0.0 
0.0 1.0 0.0 1:0.0 2:0.0 3:0.0 4:8.0E-4 5:7.0E-4 6:4.0E-4 7:0.0 8:0.0 9:0.0 10:0.682 11:0.3161 12:0.0 
1.0 0.0 0.0 1:0.0 2:0.0 3:0.0 4:0.0013 5:6.0E-4 6:0.0013 7:0.0 8:0.0 9:0.0 10:0.3664 11:0.6304 12:0.0 
1.0 0.0 0.0 1:0.0 2:0.0 3:0.0 4:0.0012 5:3.0E-4 6:0.0011 7:0.0 8:0.0 9:0.0 10:0.2708 11:0.7266 12:0.0 
1.0 0.0 0.0 1:0.0 2:0.0 3:0.0 4:6.0E-4 5:1.0E-4 6:8.0E-4 7:0.0 8:0.0 9:0.0 10:0.1977 11:0.8008 12:0.0 
1.0 1.0 0.0 1:0.0 2:0.0 3:0.0 4:0.0012 5:0.001 6:0.0027 7:0.0 8:0.0 9:0.0 10:0.2513 11:0.7438 12:0.0 
1.0 1.0 0.0 1:0.0 2:0.0 3:0.0 4:0.0013 5:8.0E-4 6:0.002 7:0.0 8:0.0 9:0.0 10:0.2306 11:0.7653 12:0.0 
1.0 1.0 0.0 1:0.0 2:0.0 3:0.0 4:5.0E-4 5:1.0E-4 6:4.0E-4 7:0.0 8:0.0 9:0.0 10:0.1851 11:0.8139 12:0.0 
1.0 0.0 0.0 1:0.0 2:0.0 3:0.0 4:9.0E-4 5:3.0E-4 6:0.001 7:0.0 8:0.0 9:0.0 10:0.2587 11:0.7391 12:0.0 
1.0 0.0 0.0 1:0.0 2:0.0 3:0.0 4:0.0015 5:4.0E-4 6:0.0012 7:0.0 8:0.0 9:0.0 10:0.2944 11:0.7026 12:0.0 
1.0 0.0 0.0 1:0.0 2:0.0 3:0.0 4:0.001 5:3.0E-4 6:6.0E-4 7:0.0 8:0.0 9:0.0 10:0.3175 11:0.6806 12:0.0 
1.0 0.0 0.0 1:0.0 2:0.0 3:0.0 4:6.0E-4 5:3.0E-4 6:6.0E-4 7:0.0 8:0.0 9:0.0 10:0.3703 11:0.6281 12:0.0 
1.0 0.0 0.0 1:0.0 2:0.0 3:0.0 4:5.0E-4 5:2.0E-4 6:6.0E-4 7:0.0 8:0.0 9:0.0 10:0.3143 11:0.6844 12:0.0 
0.0 1.0 0.0 1:0.0 2:0.0 3:0.0 4:0.0015 5:0.0016 6:0.0024 7:0.0 8:0.0 9:0.0 10:0.708 11:0.2866 12:0.0 
0.0 1.0 0.0 1:0.0 2:0.0 3:0.0 4:6.0E-4 5:5.0E-4 6:0.001 7:0.0 8:0.0 9:0.0 10:0.6653 11:0.3325 12:0.0 
0.0 1.0 0.0 1:0.0 2:0.0 3:0.0 4:3.0E-4 5:1.0E-4 6:1.0E-4 7:0.0 8:0.0 9:0.0 10:0.6738 11:0.3256 12:0.0 
0.0 1.0 0.0 1:0.0 2:0.0 3:0.0 4:1.0E-4 5:1.0E-4 6:0.0 7:0.0 8:0.0 9:0.0 10:0.7022 11:0.2977 12:0.0 
0.0 1.0 0.0 1:0.0 2:0.0 3:0.0 4:1.0E-4 5:1.0E-4 6:2.0E-4 7:0.0 8:0.0 9:0.0 10:0.7078 11:0.2918 12:0.0 
0.0 1.0 0.0 1:0.0 2:0.0 3:0.0 4:0.0 5:0.0 6:2.0E-4 7:0.0 8:0.0 9:0.0 10:0.36 11:0.6398 12:0.0 
0.0 1.0 0.0 1:0.0 2:0.0 3:0.0 4:0.0 5:0.0 6:1.0E-4 7:0.0 8:0.0 9:0.0 10:0.3588 11:0.6411 12:0.0 
1.0 1.0 0.0 1:0.0 2:0.0 3:0.0 4:2.0E-4 5:1.0E-4 6:2.0E-4 7:0.0 8:0.0 9:0.0 10:0.3432 11:0.6562 12:0.0 
1.0 0.0 0.0 1:0.0 2:0.0 3:0.0 4:9.0E-4 5:3.0E-4 6:5.0E-4 7:0.0 8:0.0 9:0.0 10:0.2342 11:0.7641 12:0.0 
1.0 0.0 0.0 1:0.0 2:0.0 3:0.0 4:0.0012 5:2.0E-4 6:9.0E-4 7:0.0 8:0.0 9:0.0 10:0.1906 11:0.8071 12:0.0 
1.0 0.0 0.0 1:0.0 2:0.0 3:0.0 4:0.0012 5:3.0E-4 6:0.0011 7:0.0 8:0.0 9:0.0 10:0.2748 11:0.7225 12:0.0 
1.0 0.0 0.0 1:0.0 2:0.0 3:0.0 4:7.0E-4 5:3.0E-4 6:9.0E-4 7:0.0 8:0.0 9:0.0 10:0.2916 11:0.7064 12:0.0 
1.0 0.0 0.0 1:0.0 2:0.0 3:0.0 4:9.0E-4 5:5.0E-4 6:0.0014 7:0.0 8:0.0 9:0.0 10:0.3116 11:0.6856 12:0.0 
1.0 0.0 0.0 1:0.0 2:0.0 3:0.0 4:0.0011 5:6.0E-4 6:0.0013 7:0.0 8:0.0 9:0.0 10:0.3356 11:0.6613 12:0.0 
1.0 0.0 0.0 1:0.0 2:0.0 3:0.0 4:8.0E-4 5:4.0E-4 6:6.0E-4 7:0.0 8:0.0 9:0.0 10:0.2595 11:0.7386 12:0.0 
1.0 0.0 0.0 1:0.0 2:0.0 3:0.0 4:3.0E-4 5:2.0E-4 6:6.0E-4 7:0.0 8:0.0 9:0.0 10:0.1606 11:0.8383 12:0.0 
1.0 0.0 0.0 1:0.0 2:0.0 3:0.0 4:4.0E-4 5:2.0E-4 6:7.0E-4 7:0.0 8:0.0 9:0.0 10:0.1532 11:0.8455 12:0.0 
1.0 0.0 0.0 1:0.0 2:0.0 3:0.0 4:9.0E-4 5:4.0E-4 6:0.0013 7:0.0 8:0.0 9:0.0 10:0.2446 11:0.7528 12:0.0 
1.0 0.0 0.0 1:0.0 2:0.0 3:0.0 4:5.0E-4 5:3.0E-4 6:0.0012 7:0.0 8:0.0 9:0.0 10:0.2981 11:0.6999 12:0.0 
1.0 1.0 0.0 1:0.0 2:0.0 3:0.0 4:2.0E-4 5:1.0E-4 6:4.0E-4 7:0.0 8:0.0 9:0.0 10:0.2474 11:0.7518 12:0.0 
1.0 0.0 0.0 1:0.0 2:0.0 3:0.0 4:6.0E-4 5:2.0E-4 6:7.0E-4 7:0.0 8:0.0 9:0.0 10:0.1963 11:0.8023 12:0.0 
1.0 0.0 0.0 1:0.0 2:0.0 3:0.0 4:9.0E-4 5:3.0E-4 6:0.001 7:0.0 8:0.0 9:0.0 10:0.1937 11:0.8041 12:0.0 
1.0 0.0 0.0 1:0.0 2:0.0 3:0.0 4:0.0013 5:3.0E-4 6:0.0013 7:0.0 8:0.0 9:0.0 10:0.227 11:0.7701 12:0.0 
1.0 0.0 0.0 1:0.0 2:0.0 3:0.0 4:0.0016 5:4.0E-4 6:0.001 7:0.0 8:0.0 9:0.0 10:0.2357 11:0.7613 12:0.0 
1.0 0.0 0.0 1:0.0 2:0.0 3:0.0 4:0.0012 5:3.0E-4 6:8.0E-4 7:0.0 8:0.0 9:0.0 10:0.257 11:0.7406 12:0.0 
1.0 0.0 0.0 1:0.0 2:0.0 3:0.0 4:5.0E-4 5:2.0E-4 6:5.0E-4 7:0.0 8:0.0 9:0.0 10:0.2201 11:0.7787 12:0.0 
1.0 0.0 0.0 1:0.0 2:0.0 3:0.0 4:5.0E-4 5:3.0E-4 6:0.003 7:0.0 8:0.0 9:0.0 10:0.2104 11:0.7858 12:0.0 
1.0 0.0 0.0 1:0.0 2:0.0 3:0.0 4:3.0E-4 5:1.0E-4 6:0.0029 7:0.0 8:0.0 9:0.0 10:0.2268 11:0.7698 12:0.0 
1.0 1.0 0.0 1:0.0 2:0.0 3:0.0 4:0.0 5:0.0 6:2.0E-4 7:0.0 8:0.0 9:0.0 10:0.1871 11:0.8126 12:0.0 
1.0 0.0 0.0 1:0.0 2:0.0 3:0.0 4:3.0E-4 5:1.0E-4 6:7.0E-4 7:0.0 8:0.0 9:0.0 10:0.1958 11:0.8031 12:0.0 
1.0 0.0 0.0 1:0.0 2:0.0 3:0.0 4:8.0E-4 5:4.0E-4 6:0.001 7:0.0 8:0.0 9:0.0 10:0.244 11:0.7538 12:0.0 
1.0 0.0 0.0 1:0.0 2:0.0 3:0.0 4:8.0E-4 5:4.0E-4 6:0.0013 7:0.0 8:0.0 9:0.0 10:0.2682 11:0.7293 12:0.0 
1.0 0.0 0.0 1:0.0 2:0.0 3:0.0 4:6.0E-4 5:3.0E-4 6:9.0E-4 7:0.0 8:0.0 9:0.0 10:0.2643 11:0.7339 12:0.0 
1.0 0.0 0.0 1:0.0 2:0.0 3:0.0 4:0.0016 5:4.0E-4 6:0.0023 7:0.0 8:0.0 9:0.0 10:0.3958 11:0.5999 12:0.0 
1.0 0.0 0.0 1:0.0 2:0.0 3:0.0 4:7.0E-4 5:5.0E-4 6:9.0E-4 7:0.0 8:0.0 9:0.0 10:0.2389 11:0.759 12:0.0 
1.0 0.0 0.0 1:0.0 2:0.0 3:0.0 4:5.0E-4 5:3.0E-4 6:8.0E-4 7:0.0 8:0.0 9:0.0 10:0.2578 11:0.7406 12:0.0 
1.0 0.0 0.0 1:0.0 2:0.0 3:0.0 4:0.001 5:2.0E-4 6:7.0E-4 7:0.0 8:0.0 9:0.0 10:0.2545 11:0.7436 12:0.0 
1.0 0.0 0.0 1:0.0 2:0.0 3:0.0 4:0.001 5:2.0E-4 6:9.0E-4 7:0.0 8:0.0 9:0.0 10:0.2357 11:0.7622 12:0.0 
1.0 1.0 0.0 1:0.0 2:0.0 3:0.0 4:2.0E-4 5:1.0E-4 6:2.0E-4 7:0.0 8:0.0 9:0.0 10:0.3046 11:0.6949 12:0.0 
1.0 0.0 0.0 1:0.0 2:0.0 3:0.0 4:2.0E-4 5:1.0E-4 6:5.0E-4 7:0.0 8:0.0 9:0.0 10:0.3341 11:0.6651 12:0.0 
1.0 0.0 0.0 1:0.0 2:0.0 3:0.0 4:6.0E-4 5:3.0E-4 6:0.001 7:0.0 8:0.0 9:0.0 10:0.3388 11:0.6593 12:0.0 
0.0 1.0 0.0 1:0.0 2:0.0 3:0.0 4:9.0E-4 5:5.0E-4 6:0.001 7:0.0 8:0.0 9:0.0 10:0.6256 11:0.372 12:0.0 
1.0 0.0 0.0 1:0.0 2:0.0 3:0.0 4:0.0018 5:7.0E-4 6:0.0018 7:0.0 8:0.0 9:0.0 10:0.2605 11:0.7351 12:0.0 
1.0 0.0 0.0 1:0.0 2:0.0 3:0.0 4:0.0017 5:6.0E-4 6:0.0012 7:0.0 8:0.0 9:0.0 10:0.2794 11:0.7172 12:0.0 
1.0 1.0 0.0 1:0.0 2:0.0 3:0.0 4:0.001 5:3.0E-4 6:7.0E-4 7:0.0 8:0.0 9:0.0 10:0.2978 11:0.7001 12:0.0 
1.0 0.0 0.0 1:0.0 2:0.0 3:0.0 4:0.0011 5:3.0E-4 6:0.001 7:0.0 8:0.0 9:0.0 10:0.2474 11:0.7502 12:0.0 
1.0 0.0 0.0 1:0.0 2:0.0 3:0.0 4:0.0025 5:6.0E-4 6:0.002 7:0.0 8:0.0 9:0.0 10:0.3218 11:0.6731 12:0.0 
1.0 1.0 0.0 1:0.0 2:0.0 3:0.0 4:0.002 5:4.0E-4 6:0.0014 7:0.0 8:0.0 9:0.0 10:0.2313 11:0.7648 12:0.0 
1.0 0.0 0.0 1:0.0 2:0.0 3:0.0 4:6.0E-4 5:1.0E-4 6:4.0E-4 7:0.0 8:0.0 9:0.0 10:0.1934 11:0.8055 12:0.0 
1.0 0.0 0.0 1:0.0 2:0.0 3:0.0 4:3.0E-4 5:1.0E-4 6:4.0E-4 7:0.0 8:0.0 9:0.0 10:0.124 11:0.8753 12:0.0 
1.0 0.0 0.0 1:0.0 2:0.0 3:0.0 4:5.0E-4 5:3.0E-4 6:6.0E-4 7:0.0 8:0.0 9:0.0 10:0.0749 11:0.9237 12:0.0 
1.0 0.0 0.0 1:0.0 2:0.0 3:0.0 4:2.0E-4 5:0.0 6:2.0E-4 7:0.0 8:0.0 9:0.0 10:0.1579 11:0.8418 12:0.0 
1.0 0.0 0.0 1:0.0 2:0.0 3:0.0 4:3.0E-4 5:0.0 6:2.0E-4 7:0.0 8:0.0 9:0.0 10:0.1433 11:0.8561 12:0.0 
1.0 1.0 0.0 1:0.0 2:0.0 3:0.0 4:0.0012 5:2.0E-4 6:5.0E-4 7:0.0 8:0.0 9:0.0 10:0.2823 11:0.7158 12:0.0 
1.0 0.0 0.0 1:0.0 2:0.0 3:0.0 4:0.0011 5:2.0E-4 6:5.0E-4 7:0.0 8:0.0 9:0.0 10:0.2638 11:0.7343 12:0.0 
1.0 0.0 0.0 1:0.0 2:0.0 3:0.0 4:1.0E-4 5:0.0 6:1.0E-4 7:0.0 8:0.0 9:0.0 10:0.1195 11:0.8802 12:0.0 
1.0 0.0 0.0 1:0.0 2:0.0 3:0.0 4:1.0E-4 5:0.0 6:1.0E-4 7:0.0 8:0.0 9:0.0 10:0.171 11:0.8288 12:0.0 
1.0 0.0 0.0 1:0.0 2:0.0 3:0.0 4:2.0E-4 5:0.0 6:3.0E-4 7:0.0 8:0.0 9:0.0 10:0.1548 11:0.8447 12:0.0 
1.0 0.0 0.0 1:0.0 2:0.0 3:0.0 4:4.0E-4 5:2.0E-4 6:0.0016 7:0.0 8:0.0 9:0.0 10:0.1413 11:0.8565 12:0.0 
1.0 0.0 0.0 1:0.0 2:0.0 3:0.0 4:2.0E-4 5:2.0E-4 6:0.0013 7:0.0 8:0.0 9:0.0 10:0.1201 11:0.8781 12:0.0 
1.0 1.0 0.0 1:0.0 2:0.0 3:0.0 4:1.0E-4 5:0.0 6:2.0E-4 7:0.0 8:0.0 9:0.0 10:0.1366 11:0.8631 12:0.0 
1.0 0.0 0.0 1:0.0 2:0.0 3:0.0 4:4.0E-4 5:1.0E-4 6:5.0E-4 7:0.0 8:0.0 9:0.0 10:0.1217 11:0.8773 12:0.0 
1.0 0.0 0.0 1:0.0 2:0.0 3:0.0 4:4.0E-4 5:0.0 6:4.0E-4 7:0.0 8:0.0 9:0.0 10:0.0931 11:0.9061 12:0.0 
1.0 0.0 0.0 1:0.0 2:0.0 3:0.0 4:2.0E-4 5:0.0 6:3.0E-4 7:0.0 8:0.0 9:0.0 10:0.1151 11:0.8844 12:0.0 
1.0 0.0 0.0 1:0.0 2:0.0 3:0.0 4:2.0E-4 5:1.0E-4 6:3.0E-4 7:0.0 8:0.0 9:0.0 10:0.1387 11:0.8605 12:0.0 
1.0 0.0 0.0 1:0.0 2:0.0 3:0.0 4:1.0E-4 5:1.0E-4 6:2.0E-4 7:0.0 8:0.0 9:0.0 10:0.1413 11:0.8582 12:0.0 
1.0 1.0 0.0 1:0.0 2:0.0 3:0.0 4:2.0E-4 5:2.0E-4 6:4.0E-4 7:0.0 8:0.0 9:0.0 10:0.1632 11:0.8358 12:0.0 
1.0 0.0 0.0 1:0.0 2:0.0 3:0.0 4:3.0E-4 5:3.0E-4 6:6.0E-4 7:0.0 8:0.0 9:0.0 10:0.136 11:0.8627 12:0.0 
1.0 0.0 0.0 1:0.0 2:0.0 3:0.0 4:4.0E-4 5:1.0E-4 6:5.0E-4 7:0.0 8:0.0 9:0.0 10:0.1072 11:0.8917 12:0.0 
1.0 0.0 0.0 1:0.0 2:0.0 3:0.0 4:5.0E-4 5:1.0E-4 6:6.0E-4 7:0.0 8:0.0 9:0.0 10:0.0813 11:0.9174 12:0.0 
1.0 1.0 0.0 1:0.0 2:0.0 3:0.0 4:5.0E-4 5:3.0E-4 6:0.0042 7:0.0 8:0.0 9:0.0 10:0.069 11:0.926 12:0.0 
1.0 1.0 0.0 1:0.0 2:0.0 3:0.0 4:5.0E-4 5:2.0E-4 6:0.0041 7:0.0 8:0.0 9:0.0 10:0.0776 11:0.9175 12:0.0 
1.0 1.0 0.0 1:0.0 2:0.0 3:0.0 4:2.0E-4 5:0.0 6:1.0E-4 7:0.0 8:0.0 9:0.0 10:0.1788 11:0.8209 12:0.0 
1.0 1.0 0.0 1:0.0 2:0.0 3:0.0 4:1.0E-4 5:0.0 6:0.0 7:0.0 8:0.0 9:0.0 10:0.2349 11:0.765 12:0.0 
1.0 0.0 0.0 1:0.0 2:0.0 3:0.0 4:0.001 5:3.0E-4 6:0.0011 7:0.0 8:0.0 9:0.0 10:0.2983 11:0.6994 12:0.0 
1.0 0.0 0.0 1:0.0 2:0.0 3:0.0 4:0.0011 5:3.0E-4 6:5.0E-4 7:0.0 8:0.0 9:0.0 10:0.3557 11:0.6424 12:0.0 
0.0 1.0 0.0 1:0.0 2:0.0 3:0.0 4:3.0E-4 5:2.0E-4 6:4.0E-4 7:0.0 8:0.0 9:0.0 10:0.686 11:0.3131 12:0.0 
1.0 0.0 0.0 1:0.0 2:0.0 3:0.0 4:6.0E-4 5:2.0E-4 6:2.0E-4 7:0.0 8:0.0 9:0.0 10:0.2988 11:0.7002 12:0.0 
1.0 0.0 0.0 1:0.0 2:0.0 3:0.0 4:9.0E-4 5:2.0E-4 6:5.0E-4 7:0.0 8:0.0 9:0.0 10:0.1339 11:0.8645 12:0.0 
1.0 0.0 0.0 1:0.0 2:0.0 3:0.0 4:0.001 5:4.0E-4 6:0.001 7:0.0 8:0.0 9:0.0 10:0.154 11:0.8436 12:0.0 
1.0 0.0 0.0 1:0.0 2:0.0 3:0.0 4:0.0015 5:8.0E-4 6:0.0015 7:0.0 8:0.0 9:0.0 10:0.4157 11:0.5804 12:0.0 
0.0 0.5403775155842006 0.0 1:0.0 2:0.0 3:0.0 4:7.0E-4 5:3.0E-4 6:7.0E-4 7:0.0 8:0.0 9:0.0 10:0.6284 11:0.3699 12:0.0 
1.0 0.0 0.0 1:0.0 2:0.0 3:0.0 4:8.0E-4 5:2.0E-4 6:9.0E-4 7:0.0 8:0.0 9:0.0 10:0.328 11:0.67 12:0.0 
1.0 0.0 0.0 1:0.0 2:0.0 3:0.0 4:0.0013 5:3.0E-4 6:8.0E-4 7:0.0 8:0.0 9:0.0 10:0.2445 11:0.7531 12:0.0 
1.0 0.0 0.0 1:0.0 2:0.0 3:0.0 4:0.0012 5:4.0E-4 6:0.0011 7:0.0 8:0.0 9:0.0 10:0.2304 11:0.767 12:0.0 
1.0 1.0 0.0 1:0.0 2:0.0 3:0.0 4:6.0E-4 5:3.0E-4 6:5.0E-4 7:0.0 8:0.0 9:0.0 10:0.2861 11:0.7124 12:0.0 
1.0 1.0 0.0 1:0.0 2:0.0 3:0.0 4:4.0E-4 5:1.0E-4 6:2.0E-4 7:0.0 8:0.0 9:0.0 10:0.1972 11:0.8021 12:0.0 
1.0 0.0 0.0 1:0.0 2:0.0 3:0.0 4:1.0E-4 5:0.0 6:2.0E-4 7:0.0 8:0.0 9:0.0 10:0.1677 11:0.832 12:0.0 
1.0 1.0 0.0 1:0.0 2:0.0 3:0.0 4:1.0E-4 5:1.0E-4 6:2.0E-4 7:0.0 8:0.0 9:0.0 10:0.2277 11:0.7719 12:0.0 
1.0 1.0 0.0 1:0.0 2:0.0 3:0.0 4:0.0 5:0.0 6:1.0E-4 7:0.0 8:0.0 9:0.0 10:0.2313 11:0.7685 12:0.0 
1.0 1.0 0.0 1:0.0 2:0.0 3:0.0 4:0.0 5:0.0 6:1.0E-4 7:0.0 8:0.0 9:0.0 10:0.1975 11:0.8024 12:0.0 
1.0 1.0 0.0 1:0.0 2:0.0 3:0.0 4:0.0 5:0.0 6:0.0 7:0.0 8:0.0 9:0.0 10:0.1772 11:0.8227 12:0.0 
1.0 0.0 0.0 1:0.0 2:0.0 3:0.0 4:1.0E-4 5:0.0 6:1.0E-4 7:0.0 8:0.0 9:0.0 10:0.1575 11:0.8423 12:0.0 
1.0 0.0 0.0 1:0.0 2:0.0 3:0.0 4:3.0E-4 5:1.0E-4 6:4.0E-4 7:0.0 8:0.0 9:0.0 10:0.1677 11:0.8314 12:0.0 
1.0 0.0 0.0 1:0.0 2:0.0 3:0.0 4:6.0E-4 5:2.0E-4 6:2.0E-4 7:0.0 8:0.0 9:0.0 10:0.2156 11:0.7835 12:0.0 
1.0 1.0 0.0 1:0.0 2:0.0 3:0.0 4:1.0E-4 5:0.0 6:2.0E-4 7:0.0 8:0.0 9:0.0 10:0.2711 11:0.7286 12:0.0 
1.0 0.0 0.0 1:0.0 2:0.0 3:0.0 4:0.0 5:0.0 6:7.0E-4 7:0.0 8:0.0 9:0.0 10:0.252 11:0.7473 12:0.0 
1.0 0.0 0.0 1:0.0 2:0.0 3:0.0 4:2.0E-4 5:0.0 6:8.0E-4 7:0.0 8:0.0 9:0.0 10:0.1919 11:0.807 12:0.0 
